{"learner":{"attributes":{"best_iteration":"121","best_score":"0.18170232858161584","scikit_learn":"{\"_estimator_type\": \"regressor\"}"},"feature_names":["f_log_ret_1","f_log_ret_2","f_log_ret_3","f_log_ret_5","f_log_ret_10","f_vol_10t","f_vol_20t","f_vol_30t","f_vol_50t","f_vol_100t","f_pos_10t","f_pos_20t","f_pos_30t","f_pos_50t","f_pos_100t","f_lag_rr_1","f_lag_rr_2","f_lag_rr_3","f_lag_rr_4","f_lag_rr_5","f_obi_l1","f_spread_1","f_norm_time"],"feature_types":["float","float","float","float","float","float","float","float","float","float","float","float","float","float","float","float","float","float","float","float","float","float","float"],"gradient_booster":{"model":{"cats":{"enc":[],"feature_segments":[],"sorted_idx":[]},"gbtree_model_param":{"num_parallel_tree":"1","num_trees":"142"},"iteration_indptr":[0,1,2,3,4,5,6,7,8,9,10,11,12,13,14,15,16,17,18,19,20,21,22,23,24,25,26,27,28,29,30,31,32,33,34,35,36,37,38,39,40,41,42,43,44,45,46,47,48,49,50,51,52,53,54,55,56,57,58,59,60,61,62,63,64,65,66,67,68,69,70,71,72,73,74,75,76,77,78,79,80,81,82,83,84,85,86,87,88,89,90,91,92,93,94,95,96,97,98,99,100,101,102,103,104,105,106,107,108,109,110,111,112,113,114,115,116,117,118,119,120,121,122,123,124,125,126,127,128,129,130,131,132,133,134,135,136,137,138,139,140,141,142],"tree_info":[0,0,0,0,0,0,0,0,0,0,0,0,0,0,0,0,0,0,0,0,0,0,0,0,0,0,0,0,0,0,0,0,0,0,0,0,0,0,0,0,0,0,0,0,0,0,0,0,0,0,0,0,0,0,0,0,0,0,0,0,0,0,0,0,0,0,0,0,0,0,0,0,0,0,0,0,0,0,0,0,0,0,0,0,0,0,0,0,0,0,0,0,0,0,0,0,0,0,0,0,0,0,0,0,0,0,0,0,0,0,0,0,0,0,0,0,0,0,0,0,0,0,0,0,0,0,0,0,0,0,0,0,0,0,0,0,0,0,0,0,0,0],"trees":[{"base_weights":[-0E0,-4.018853E-2,6.455712E-2,-4.874602E-2,2.4773702E-2,2.0747805E-1,4.404591E-2,-6.95795E-2,-3.0653523E-2,1.721802E-1,2.5848965E-3,1.279903E-1,3.14461E-1,3.148287E-2,1.7112812E-1,-2.8693044E-4,-9.3929726E-4,4.53481E-5,-5.4758106E-4,2.8032372E-3,5.1697245E-4,3.4295855E-4,-1.0199422E-3,6.567913E-5,1.6271485E-3,1.4477149E-3,5.7086E-3,2.2557445E-4,1.2977901E-3,2.500392E-3,7.596459E-4],"categories":[],"categories_nodes":[],"categories_segments":[],"categories_sizes":[],"default_left":[0,0,0,0,0,0,0,0,0,0,0,0,0,0,0,0,0,0,0,0,0,0,0,0,0,0,0,0,0,0,0],"id":0,"left_children":[1,3,5,7,9,11,13,15,17,19,21,23,25,27,29,-1,-1,-1,-1,-1,-1,-1,-1,-1,-1,-1,-1,-1,-1,-1,-1],"loss_changes":[2.7656896E0,3.6668265E-1,1.1873223E0,2.1586096E-1,2.4965692E-1,3.8902283E-1,5.657437E-1,2.638936E-1,2.6623726E-1,1.1248237E-1,2.283297E-1,1.2794495E-1,8.238721E-1,2.8331506E-1,2.1804833E-1,0E0,0E0,0E0,0E0,0E0,0E0,0E0,0E0,0E0,0E0,0E0,0E0,0E0,0E0,0E0,0E0],"parents":[2147483647,0,0,1,1,2,2,3,3,4,4,5,5,6,6,7,7,8,8,9,9,10,10,11,11,12,12,13,13,14,14],"right_children":[2,4,6,8,10,12,14,16,18,20,22,24,26,28,30,-1,-1,-1,-1,-1,-1,-1,-1,-1,-1,-1,-1,-1,-1,-1,-1],"split_conditions":[1.13620496E-4,2.7608871E-4,4.7083333E-2,9.284552E-5,1.8770833E-1,3.4652777E-2,5.505085E-4,8.4464635E-5,-1.373291E-4,1.0306287E-4,2.7382374E-4,6.897742E-2,1.5002962E-4,2.758503E-4,8.201599E-4,-2.8693044E-4,-9.3929726E-4,4.53481E-5,-5.4758106E-4,2.8032372E-3,5.1697245E-4,3.4295855E-4,-1.0199422E-3,6.567913E-5,1.6271485E-3,1.4477149E-3,5.7086E-3,2.2557445E-4,1.2977901E-3,2.500392E-3,7.596459E-4],"split_indices":[9,15,22,9,22,22,16,6,0,9,3,14,8,3,16,0,0,0,0,0,0,0,0,0,0,0,0,0,0,0,0],"split_type":[0,0,0,0,0,0,0,0,0,0,0,0,0,0,0,0,0,0,0,0,0,0,0,0,0,0,0,0,0,0,0],"sum_hessian":[1.064E3,6.56E2,4.08E2,5.8E2,7.6E1,5E1,3.58E2,2.68E2,3.12E2,9E0,6.7E1,3E1,2E1,3.27E2,3.1E1,1.01E2,1.67E2,1.27E2,1.85E2,4E0,5E0,5.2E1,1.5E1,7E0,2.3E1,1.3E1,7E0,3.01E2,2.6E1,1.6E1,1.5E1],"tree_param":{"num_deleted":"0","num_feature":"23","num_nodes":"31","size_leaf_vector":"1"}},{"base_weights":[5.0222843E-6,-3.9785095E-2,6.394659E-2,-4.8261702E-2,2.4561588E-2,2.0558266E-1,4.361961E-2,-6.888862E-2,-3.0348275E-2,1.7080042E-1,2.547619E-3,1.2676823E-1,3.1166193E-1,3.117299E-2,1.6952185E-1,-2.840892E-4,-9.2996005E-4,4.4898046E-5,-5.421347E-4,2.7813306E-3,5.122315E-4,3.3959362E-4,-1.0103801E-3,1.548755E-3,-1.4491263E-4,1.4342719E-3,5.65865E-3,5.3115055E-4,-7.726233E-5,2.476859E-3,7.5252436E-4],"categories":[],"categories_nodes":[],"categories_segments":[],"categories_sizes":[],"default_left":[0,0,0,0,0,0,0,0,0,0,0,0,0,0,0,0,0,0,0,0,0,0,0,0,0,0,0,0,0,0,0],"id":1,"left_children":[1,3,5,7,9,11,13,15,17,19,21,23,25,27,29,-1,-1,-1,-1,-1,-1,-1,-1,-1,-1,-1,-1,-1,-1,-1,-1],"loss_changes":[2.712404E0,3.5977757E-1,1.1660652E0,2.1159577E-1,2.4571727E-1,3.8249636E-1,5.552822E-1,2.5865042E-1,2.6097438E-1,1.10805035E-1,2.2401917E-1,1.2673107E-1,8.0982804E-1,2.8082195E-1,2.1392304E-1,0E0,0E0,0E0,0E0,0E0,0E0,0E0,0E0,0E0,0E0,0E0,0E0,0E0,0E0,0E0,0E0],"parents":[2147483647,0,0,1,1,2,2,3,3,4,4,5,5,6,6,7,7,8,8,9,9,10,10,11,11,12,12,13,13,14,14],"right_children":[2,4,6,8,10,12,14,16,18,20,22,24,26,28,30,-1,-1,-1,-1,-1,-1,-1,-1,-1,-1,-1,-1,-1,-1,-1,-1],"split_conditions":[1.13620496E-4,2.7608871E-4,4.7083333E-2,9.284552E-5,1.8770833E-1,3.4652777E-2,5.505085E-4,8.4464635E-5,-1.373291E-4,1.374552E-4,2.7382374E-4,3.2708332E-2,1.5002962E-4,1.5579436E-4,8.201599E-4,-2.840892E-4,-9.2996005E-4,4.4898046E-5,-5.421347E-4,2.7813306E-3,5.122315E-4,3.3959362E-4,-1.0103801E-3,1.548755E-3,-1.4491263E-4,1.4342719E-3,5.65865E-3,5.3115055E-4,-7.726233E-5,2.476859E-3,7.5252436E-4],"split_indices":[9,15,22,9,22,22,16,6,0,6,3,22,8,5,16,0,0,0,0,0,0,0,0,0,0,0,0,0,0,0,0],"split_type":[0,0,0,0,0,0,0,0,0,0,0,0,0,0,0,0,0,0,0,0,0,0,0,0,0,0,0,0,0,0,0],"sum_hessian":[1.064E3,6.56E2,4.08E2,5.8E2,7.6E1,5E1,3.58E2,2.68E2,3.12E2,9E0,6.7E1,3E1,2E1,3.27E2,3.1E1,1.01E2,1.67E2,1.27E2,1.85E2,4E0,5E0,5.2E1,1.5E1,2.5E1,5E0,1.3E1,7E0,2.09E2,1.18E2,1.6E1,1.5E1],"tree_param":{"num_deleted":"0","num_feature":"23","num_nodes":"31","size_leaf_vector":"1"}},{"base_weights":[1.7541946E-5,-3.938571E-2,6.333764E-2,-4.7782212E-2,2.435133E-2,2.0369539E-1,4.3193955E-2,-6.8204634E-2,-3.0046066E-2,1.6943178E-1,2.510806E-3,1.255426E-1,3.088878E-1,3.0862343E-2,1.6793066E-1,-2.812763E-4,-9.207159E-4,4.445244E-5,-5.3674245E-4,2.7630988E-3,5.046138E-4,3.3626173E-4,-1.0009077E-3,5.3669763E-5,1.5995353E-3,1.4209537E-3,5.609136E-3,2.202685E-4,1.2817554E-3,2.4535472E-3,7.454693E-4],"categories":[],"categories_nodes":[],"categories_segments":[],"categories_sizes":[],"default_left":[0,0,0,0,0,0,0,0,0,0,0,0,0,0,0,0,0,0,0,0,0,0,0,0,0,0,0,0,0,0,0],"id":2,"left_children":[1,3,5,7,9,11,13,15,17,19,21,23,25,27,29,-1,-1,-1,-1,-1,-1,-1,-1,-1,-1,-1,-1,-1,-1,-1,-1],"loss_changes":[2.659928E0,3.5300326E-1,1.1451073E0,2.074151E-1,2.4183992E-1,3.7615228E-1,5.450449E-1,2.535113E-1,2.5581554E-1,1.09942585E-1,2.1979007E-1,1.2568432E-1,7.9602265E-1,2.7769232E-1,2.0987523E-1,0E0,0E0,0E0,0E0,0E0,0E0,0E0,0E0,0E0,0E0,0E0,0E0,0E0,0E0,0E0,0E0],"parents":[2147483647,0,0,1,1,2,2,3,3,4,4,5,5,6,6,7,7,8,8,9,9,10,10,11,11,12,12,13,13,14,14],"right_children":[2,4,6,8,10,12,14,16,18,20,22,24,26,28,30,-1,-1,-1,-1,-1,-1,-1,-1,-1,-1,-1,-1,-1,-1,-1,-1],"split_conditions":[1.13620496E-4,2.7608871E-4,4.7083333E-2,9.284552E-5,1.8770833E-1,3.4652777E-2,5.505085E-4,8.4464635E-5,-1.373291E-4,1.0306287E-4,2.7382374E-4,6.897742E-2,1.5002962E-4,2.758503E-4,8.201599E-4,-2.812763E-4,-9.207159E-4,4.445244E-5,-5.3674245E-4,2.7630988E-3,5.046138E-4,3.3626173E-4,-1.0009077E-3,5.3669763E-5,1.5995353E-3,1.4209537E-3,5.609136E-3,2.202685E-4,1.2817554E-3,2.4535472E-3,7.454693E-4],"split_indices":[9,15,22,9,22,22,16,6,0,9,3,14,8,3,16,0,0,0,0,0,0,0,0,0,0,0,0,0,0,0,0],"split_type":[0,0,0,0,0,0,0,0,0,0,0,0,0,0,0,0,0,0,0,0,0,0,0,0,0,0,0,0,0,0,0],"sum_hessian":[1.064E3,6.56E2,4.08E2,5.8E2,7.6E1,5E1,3.58E2,2.68E2,3.12E2,9E0,6.7E1,3E1,2E1,3.27E2,3.1E1,1.01E2,1.67E2,1.27E2,1.85E2,4E0,5E0,5.2E1,1.5E1,7E0,2.3E1,1.3E1,7E0,3.01E2,2.6E1,1.6E1,1.5E1],"tree_param":{"num_deleted":"0","num_feature":"23","num_nodes":"31","size_leaf_vector":"1"}},{"base_weights":[3.1442254E-5,-3.8990323E-2,6.27387E-2,-4.7307484E-2,2.4142925E-2,2.0183459E-1,4.2775944E-2,-6.752743E-2,-2.9746866E-2,1.6807422E-1,2.4744552E-3,1.24343745E-1,3.061385E-1,3.0558601E-2,1.6635446E-1,-2.7849112E-4,-9.115635E-4,4.4011264E-5,-5.3140393E-4,2.7414924E-3,4.9999356E-4,3.3296258E-4,-9.915242E-4,1.5220504E-3,-1.5445807E-4,1.4077591E-3,5.5600563E-3,5.227119E-4,-7.9304926E-5,2.4304553E-3,7.3848054E-4],"categories":[],"categories_nodes":[],"categories_segments":[],"categories_sizes":[],"default_left":[0,0,0,0,0,0,0,0,0,0,0,0,0,0,0,0,0,0,0,0,0,0,0,0,0,0,0,0,0,0,0],"id":3,"left_children":[1,3,5,7,9,11,13,15,17,19,21,23,25,27,29,-1,-1,-1,-1,-1,-1,-1,-1,-1,-1,-1,-1,-1,-1,-1,-1],"loss_changes":[2.608683E0,3.4635746E-1,1.1246058E0,2.0331693E-1,2.38024E-1,3.6984134E-1,5.349658E-1,2.48474E-1,2.5075883E-1,1.08299166E-1,2.1564084E-1,1.244548E-1,7.824521E-1,2.749669E-1,2.0590383E-1,0E0,0E0,0E0,0E0,0E0,0E0,0E0,0E0,0E0,0E0,0E0,0E0,0E0,0E0,0E0,0E0],"parents":[2147483647,0,0,1,1,2,2,3,3,4,4,5,5,6,6,7,7,8,8,9,9,10,10,11,11,12,12,13,13,14,14],"right_children":[2,4,6,8,10,12,14,16,18,20,22,24,26,28,30,-1,-1,-1,-1,-1,-1,-1,-1,-1,-1,-1,-1,-1,-1,-1,-1],"split_conditions":[1.13620496E-4,2.7608871E-4,4.7083333E-2,9.284552E-5,1.8770833E-1,3.4652777E-2,5.505085E-4,8.4464635E-5,-1.373291E-4,1.374552E-4,2.7382374E-4,3.2708332E-2,1.5002962E-4,1.5579436E-4,8.201599E-4,-2.7849112E-4,-9.115635E-4,4.4011264E-5,-5.3140393E-4,2.7414924E-3,4.9999356E-4,3.3296258E-4,-9.915242E-4,1.5220504E-3,-1.5445807E-4,1.4077591E-3,5.5600563E-3,5.227119E-4,-7.9304926E-5,2.4304553E-3,7.3848054E-4],"split_indices":[9,15,22,9,22,22,16,6,0,6,3,22,8,5,16,0,0,0,0,0,0,0,0,0,0,0,0,0,0,0,0],"split_type":[0,0,0,0,0,0,0,0,0,0,0,0,0,0,0,0,0,0,0,0,0,0,0,0,0,0,0,0,0,0,0],"sum_hessian":[1.064E3,6.56E2,4.08E2,5.8E2,7.6E1,5E1,3.58E2,2.68E2,3.12E2,9E0,6.7E1,3E1,2E1,3.27E2,3.1E1,1.01E2,1.67E2,1.27E2,1.85E2,4E0,5E0,5.2E1,1.5E1,2.5E1,5E0,1.3E1,7E0,2.09E2,1.18E2,1.6E1,1.5E1],"tree_param":{"num_deleted":"0","num_feature":"23","num_nodes":"31","size_leaf_vector":"1"}},{"base_weights":[4.3480264E-5,-3.8598888E-2,6.2141262E-2,-4.6837464E-2,2.3936346E-2,1.9998163E-1,4.235853E-2,-6.685694E-2,-2.9450638E-2,1.6672763E-1,2.4385634E-3,1.23141184E-1,3.0341363E-1,3.0254068E-2,1.6479306E-1,-2.7573342E-4,-9.025022E-4,4.3574513E-5,-5.2611844E-4,2.723545E-3,4.9250625E-4,3.296959E-4,-9.822287E-4,4.1977717E-5,1.5724143E-3,1.394687E-3,5.5114054E-3,2.1507606E-4,1.2659398E-3,2.4075801E-3,7.315573E-4],"categories":[],"categories_nodes":[],"categories_segments":[],"categories_sizes":[],"default_left":[0,0,0,0,0,0,0,0,0,0,0,0,0,0,0,0,0,0,0,0,0,0,0,0,0,0,0,0,0,0,0],"id":4,"left_children":[1,3,5,7,9,11,13,15,17,19,21,23,25,27,29,-1,-1,-1,-1,-1,-1,-1,-1,-1,-1,-1,-1,-1,-1,-1,-1],"loss_changes":[2.5582137E0,3.3983755E-1,1.1043909E0,1.992997E-1,2.3426832E-1,3.6370778E-1,5.251034E-1,2.4353671E-1,2.4580213E-1,1.0745764E-1,2.1157001E-1,1.23461574E-1,7.691121E-1,2.7218005E-1,2.0200711E-1,0E0,0E0,0E0,0E0,0E0,0E0,0E0,0E0,0E0,0E0,0E0,0E0,0E0,0E0,0E0,0E0],"parents":[2147483647,0,0,1,1,2,2,3,3,4,4,5,5,6,6,7,7,8,8,9,9,10,10,11,11,12,12,13,13,14,14],"right_children":[2,4,6,8,10,12,14,16,18,20,22,24,26,28,30,-1,-1,-1,-1,-1,-1,-1,-1,-1,-1,-1,-1,-1,-1,-1,-1],"split_conditions":[1.13620496E-4,2.7608871E-4,4.7083333E-2,9.284552E-5,1.8770833E-1,3.4652777E-2,5.505085E-4,8.4464635E-5,-1.373291E-4,1.0306287E-4,2.7382374E-4,6.897742E-2,1.5002962E-4,2.758503E-4,8.201599E-4,-2.7573342E-4,-9.025022E-4,4.3574513E-5,-5.2611844E-4,2.723545E-3,4.9250625E-4,3.296959E-4,-9.822287E-4,4.1977717E-5,1.5724143E-3,1.394687E-3,5.5114054E-3,2.1507606E-4,1.2659398E-3,2.4075801E-3,7.315573E-4],"split_indices":[9,15,22,9,22,22,16,6,0,9,3,14,8,3,16,0,0,0,0,0,0,0,0,0,0,0,0,0,0,0,0],"split_type":[0,0,0,0,0,0,0,0,0,0,0,0,0,0,0,0,0,0,0,0,0,0,0,0,0,0,0,0,0,0,0],"sum_hessian":[1.064E3,6.56E2,4.08E2,5.8E2,7.6E1,5E1,3.58E2,2.68E2,3.12E2,9E0,6.7E1,3E1,2E1,3.27E2,3.1E1,1.01E2,1.67E2,1.27E2,1.85E2,4E0,5E0,5.2E1,1.5E1,7E0,2.3E1,1.3E1,7E0,3.01E2,2.6E1,1.6E1,1.5E1],"tree_param":{"num_deleted":"0","num_feature":"23","num_nodes":"31","size_leaf_vector":"1"}},{"base_weights":[5.6889072E-5,-3.8211368E-2,6.1553683E-2,-4.6372116E-2,2.3731569E-2,1.9815476E-1,4.1948643E-2,-6.106692E-2,-2.314292E-2,1.6539197E-1,2.4031054E-3,1.2196508E-1,3.0071312E-1,2.995634E-2,1.6324635E-1,-2.3725753E-4,-8.3018973E-4,-8.6016174E-5,-9.97759E-4,2.702234E-3,4.8800427E-4,3.2646107E-4,-9.7302033E-4,1.4958276E-3,-1.6372351E-4,1.3817364E-3,5.463181E-3,5.144184E-4,-8.126947E-5,2.3849204E-3,7.2469894E-4],"categories":[],"categories_nodes":[],"categories_segments":[],"categories_sizes":[],"default_left":[0,0,0,0,0,0,0,0,0,0,0,0,0,0,0,0,0,0,0,0,0,0,0,0,0,0,0,0,0,0,0],"id":5,"left_children":[1,3,5,7,9,11,13,15,17,19,21,23,25,27,29,-1,-1,-1,-1,-1,-1,-1,-1,-1,-1,-1,-1,-1,-1,-1,-1],"loss_changes":[2.5089302E0,3.3344096E-1,1.0846169E0,1.9606805E-1,2.3057228E-1,3.5760522E-1,5.153931E-1,2.8796184E-1,2.5101396E-1,1.0584736E-1,2.0757599E-1,1.2221843E-1,7.5599885E-1,2.6923344E-1,1.9818401E-1,0E0,0E0,0E0,0E0,0E0,0E0,0E0,0E0,0E0,0E0,0E0,0E0,0E0,0E0,0E0,0E0],"parents":[2147483647,0,0,1,1,2,2,3,3,4,4,5,5,6,6,7,7,8,8,9,9,10,10,11,11,12,12,13,13,14,14],"right_children":[2,4,6,8,10,12,14,16,18,20,22,24,26,28,30,-1,-1,-1,-1,-1,-1,-1,-1,-1,-1,-1,-1,-1,-1,-1,-1],"split_conditions":[1.13620496E-4,2.7608871E-4,4.7083333E-2,1.03402315E-4,1.8770833E-1,3.4652777E-2,5.505085E-4,8.4464635E-5,1.3480287E-4,1.374552E-4,2.7382374E-4,3.2708332E-2,1.5002962E-4,1.5579436E-4,8.201599E-4,-2.3725753E-4,-8.3018973E-4,-8.6016174E-5,-9.97759E-4,2.702234E-3,4.8800427E-4,3.2646107E-4,-9.7302033E-4,1.4958276E-3,-1.6372351E-4,1.3817364E-3,5.463181E-3,5.144184E-4,-8.126947E-5,2.3849204E-3,7.2469894E-4],"split_indices":[9,15,22,8,22,22,16,6,7,6,3,22,8,5,16,0,0,0,0,0,0,0,0,0,0,0,0,0,0,0,0],"split_type":[0,0,0,0,0,0,0,0,0,0,0,0,0,0,0,0,0,0,0,0,0,0,0,0,0,0,0,0,0,0,0],"sum_hessian":[1.064E3,6.56E2,4.08E2,5.8E2,7.6E1,5E1,3.58E2,3.54E2,2.26E2,9E0,6.7E1,3E1,2E1,3.27E2,3.1E1,1.32E2,2.22E2,1.91E2,3.5E1,4E0,5E0,5.2E1,1.5E1,2.5E1,5E0,1.3E1,7E0,2.09E2,1.18E2,1.6E1,1.5E1],"tree_param":{"num_deleted":"0","num_feature":"23","num_nodes":"31","size_leaf_vector":"1"}},{"base_weights":[6.778897E-5,-3.7828807E-2,6.0967535E-2,-4.5912612E-2,2.3528589E-2,1.9633552E-1,4.1539304E-2,9.276464E-2,-4.8274256E-2,1.6406706E-1,2.3680995E-3,1.2078517E-1,2.9803672E-1,2.9657794E-2,1.6171418E-1,8.717153E-5,1.7306869E-3,-6.287244E-4,-2.4930845E-4,2.6845671E-3,4.8064484E-4,3.232581E-4,-9.6389826E-4,3.059617E-5,1.5457764E-3,1.368906E-3,5.415378E-3,2.0999464E-4,1.2503399E-3,2.362474E-3,7.179048E-4],"categories":[],"categories_nodes":[],"categories_segments":[],"categories_sizes":[],"default_left":[0,0,0,0,0,0,0,0,0,0,0,0,0,0,0,0,0,0,0,0,0,0,0,0,0,0,0,0,0,0,0],"id":6,"left_children":[1,3,5,7,9,11,13,15,17,19,21,23,25,27,29,-1,-1,-1,-1,-1,-1,-1,-1,-1,-1,-1,-1,-1,-1,-1,-1],"loss_changes":[2.4604437E0,3.2717693E-1,1.0651194E0,1.9431436E-1,2.2693458E-1,3.5167503E-1,5.058916E-1,6.416701E-2,1.9247568E-1,1.05026275E-1,2.0365742E-1,1.2127602E-1,7.4310863E-1,2.6677594E-1,1.9443303E-1,0E0,0E0,0E0,0E0,0E0,0E0,0E0,0E0,0E0,0E0,0E0,0E0,0E0,0E0,0E0,0E0],"parents":[2147483647,0,0,1,1,2,2,3,3,4,4,5,5,6,6,7,7,8,8,9,9,10,10,11,11,12,12,13,13,14,14],"right_children":[2,4,6,8,10,12,14,16,18,20,22,24,26,28,30,-1,-1,-1,-1,-1,-1,-1,-1,-1,-1,-1,-1,-1,-1,-1,-1],"split_conditions":[1.13620496E-4,2.7608871E-4,4.7083333E-2,-2.7561188E-4,1.8770833E-1,3.4652777E-2,5.505085E-4,7.547917E-1,1.03402315E-4,1.0306287E-4,2.7382374E-4,6.897742E-2,1.5002962E-4,2.758503E-4,8.201599E-4,8.717153E-5,1.7306869E-3,-6.287244E-4,-2.4930845E-4,2.6845671E-3,4.8064484E-4,3.232581E-4,-9.6389826E-4,3.059617E-5,1.5457764E-3,1.368906E-3,5.415378E-3,2.0999464E-4,1.2503399E-3,2.362474E-3,7.179048E-4],"split_indices":[9,15,22,0,22,22,16,22,8,9,3,14,8,3,16,0,0,0,0,0,0,0,0,0,0,0,0,0,0,0,0],"split_type":[0,0,0,0,0,0,0,0,0,0,0,0,0,0,0,0,0,0,0,0,0,0,0,0,0,0,0,0,0,0,0],"sum_hessian":[1.064E3,6.56E2,4.08E2,5.8E2,7.6E1,5E1,3.58E2,9E0,5.71E2,9E0,6.7E1,3E1,2E1,3.27E2,3.1E1,5E0,4E0,3.5E2,2.21E2,4E0,5E0,5.2E1,1.5E1,7E0,2.3E1,1.3E1,7E0,3.01E2,2.6E1,1.6E1,1.5E1],"tree_param":{"num_deleted":"0","num_feature":"23","num_nodes":"31","size_leaf_vector":"1"}},{"base_weights":[8.331713E-5,-3.7444804E-2,6.039112E-2,-4.5451712E-2,2.3327382E-2,1.9454196E-1,4.11374E-2,-6.510042E-2,-2.8387958E-2,1.6275291E-1,2.33352E-3,1.1963139E-1,2.9538417E-1,2.9365981E-2,1.6019642E-1,-2.644804E-4,-8.8120904E-4,5.0185623E-5,-5.127853E-4,2.6635476E-3,4.7625887E-4,3.2008643E-4,-9.5486175E-4,1.4700778E-3,-1.7271531E-4,1.3561947E-3,5.3679934E-3,5.062676E-4,-8.315778E-5,2.2503375E-3,6.0046033E-4],"categories":[],"categories_nodes":[],"categories_segments":[],"categories_sizes":[],"default_left":[0,0,0,0,0,0,0,0,0,0,0,0,0,0,0,0,0,0,0,0,0,0,0,0,0,0,0,0,0,0,0],"id":7,"left_children":[1,3,5,7,9,11,13,15,17,19,21,23,25,27,29,-1,-1,-1,-1,-1,-1,-1,-1,-1,-1,-1,-1,-1,-1,-1,-1],"loss_changes":[2.4128397E0,3.2097602E-1,1.0460473E0,1.9201505E-1,2.2335455E-1,3.457743E-1,4.965363E-1,2.3587906E-1,2.400693E-1,1.0344854E-1,1.9981281E-1,1.2002149E-1,7.304374E-1,2.636192E-1,1.914283E-1,0E0,0E0,0E0,0E0,0E0,0E0,0E0,0E0,0E0,0E0,0E0,0E0,0E0,0E0,0E0,0E0],"parents":[2147483647,0,0,1,1,2,2,3,3,4,4,5,5,6,6,7,7,8,8,9,9,10,10,11,11,12,12,13,13,14,14],"right_children":[2,4,6,8,10,12,14,16,18,20,22,24,26,28,30,-1,-1,-1,-1,-1,-1,-1,-1,-1,-1,-1,-1,-1,-1,-1,-1],"split_conditions":[1.13620496E-4,2.7608871E-4,4.7083333E-2,9.284552E-5,1.8770833E-1,3.4652777E-2,5.505085E-4,8.4464635E-5,-1.373291E-4,1.374552E-4,2.7382374E-4,3.2708332E-2,1.5002962E-4,1.5579436E-4,8.188486E-4,-2.644804E-4,-8.8120904E-4,5.0185623E-5,-5.127853E-4,2.6635476E-3,4.7625887E-4,3.2008643E-4,-9.5486175E-4,1.4700778E-3,-1.7271531E-4,1.3561947E-3,5.3679934E-3,5.062676E-4,-8.315778E-5,2.2503375E-3,6.0046033E-4],"split_indices":[9,15,22,9,22,22,16,6,0,6,3,22,8,5,17,0,0,0,0,0,0,0,0,0,0,0,0,0,0,0,0],"split_type":[0,0,0,0,0,0,0,0,0,0,0,0,0,0,0,0,0,0,0,0,0,0,0,0,0,0,0,0,0,0,0],"sum_hessian":[1.064E3,6.56E2,4.08E2,5.8E2,7.6E1,5E1,3.58E2,2.68E2,3.12E2,9E0,6.7E1,3E1,2E1,3.27E2,3.1E1,1.01E2,1.67E2,1.27E2,1.85E2,4E0,5E0,5.2E1,1.5E1,2.5E1,5E0,1.3E1,7E0,2.09E2,1.18E2,1.8E1,1.3E1],"tree_param":{"num_deleted":"0","num_feature":"23","num_nodes":"31","size_leaf_vector":"1"}},{"base_weights":[9.4205185E-5,-3.7068844E-2,5.981555E-2,-4.5000143E-2,2.3127945E-2,1.9275579E-1,4.0735416E-2,9.226302E-2,-4.7338657E-2,1.6144934E-1,2.2993875E-3,1.1847369E-1,2.9275528E-1,2.9073294E-2,1.5868668E-1,1.7213513E-3,8.659098E-5,-6.174073E-4,-2.430953E-4,2.6461568E-3,4.69025E-4,3.1694604E-4,-9.459099E-4,1.9518571E-5,1.5196122E-3,1.3436016E-3,5.3210235E-3,2.0502212E-4,1.2349526E-3,2.32003E-3,7.024517E-4],"categories":[],"categories_nodes":[],"categories_segments":[],"categories_sizes":[],"default_left":[0,0,0,0,0,0,0,0,0,0,0,0,0,0,0,0,0,0,0,0,0,0,0,0,0,0,0,0,0,0,0],"id":8,"left_children":[1,3,5,7,9,11,13,15,17,19,21,23,25,27,29,-1,-1,-1,-1,-1,-1,-1,-1,-1,-1,-1,-1,-1,-1,-1,-1],"loss_changes":[2.3661346E0,3.1493676E-1,1.0272486E0,1.9041467E-1,2.1983102E-1,3.400408E-1,4.8733568E-1,6.347774E-2,1.873523E-1,1.0264748E-1,1.9604081E-1,1.19127125E-1,7.1798146E-1,2.6147795E-1,1.8817502E-1,0E0,0E0,0E0,0E0,0E0,0E0,0E0,0E0,0E0,0E0,0E0,0E0,0E0,0E0,0E0,0E0],"parents":[2147483647,0,0,1,1,2,2,3,3,4,4,5,5,6,6,7,7,8,8,9,9,10,10,11,11,12,12,13,13,14,14],"right_children":[2,4,6,8,10,12,14,16,18,20,22,24,26,28,30,-1,-1,-1,-1,-1,-1,-1,-1,-1,-1,-1,-1,-1,-1,-1,-1],"split_conditions":[1.13620496E-4,2.7608871E-4,4.7083333E-2,-2.7561188E-4,1.8770833E-1,3.4652777E-2,5.505085E-4,6.6150445E-1,1.03402315E-4,1.0306287E-4,2.7382374E-4,6.897742E-2,1.5002962E-4,2.758503E-4,8.201599E-4,1.7213513E-3,8.659098E-5,-6.174073E-4,-2.430953E-4,2.6461568E-3,4.69025E-4,3.1694604E-4,-9.459099E-4,1.9518571E-5,1.5196122E-3,1.3436016E-3,5.3210235E-3,2.0502212E-4,1.2349526E-3,2.32003E-3,7.024517E-4],"split_indices":[9,15,22,0,22,22,16,20,8,9,3,14,8,3,16,0,0,0,0,0,0,0,0,0,0,0,0,0,0,0,0],"split_type":[0,0,0,0,0,0,0,0,0,0,0,0,0,0,0,0,0,0,0,0,0,0,0,0,0,0,0,0,0,0,0],"sum_hessian":[1.064E3,6.56E2,4.08E2,5.8E2,7.6E1,5E1,3.58E2,9E0,5.71E2,9E0,6.7E1,3E1,2E1,3.27E2,3.1E1,4E0,5E0,3.5E2,2.21E2,4E0,5E0,5.2E1,1.5E1,7E0,2.3E1,1.3E1,7E0,3.01E2,2.6E1,1.6E1,1.5E1],"tree_param":{"num_deleted":"0","num_feature":"23","num_nodes":"31","size_leaf_vector":"1"}},{"base_weights":[1.0923177E-4,-3.669247E-2,5.9250083E-2,-4.4548333E-2,2.2930251E-2,1.9099496E-1,4.034134E-2,9.153118E-2,-4.6866946E-2,1.6015638E-1,2.2656696E-3,1.1734182E-1,2.9014987E-1,2.8787268E-2,1.571974E-1,8.5685184E-5,1.7078014E-3,-6.1125075E-4,-2.4067528E-4,2.6254242E-3,4.6475284E-4,3.138364E-4,-9.3704206E-4,1.4447923E-3,-1.8143943E-4,1.3311252E-3,5.2744644E-3,4.9825665E-4,-8.4971995E-5,2.2095933E-3,5.8720657E-4],"categories":[],"categories_nodes":[],"categories_segments":[],"categories_sizes":[],"default_left":[0,0,0,0,0,0,0,0,0,0,0,0,0,0,0,0,0,0,0,0,0,0,0,0,0,0,0,0,0,0,0],"id":9,"left_children":[1,3,5,7,9,11,13,15,17,19,21,23,25,27,29,-1,-1,-1,-1,-1,-1,-1,-1,-1,-1,-1,-1,-1,-1,-1,-1],"loss_changes":[2.3203552E0,3.089686E-1,1.0088539E0,1.8715787E-1,2.1636342E-1,3.3433473E-1,4.7832346E-1,6.249024E-2,1.8362093E-1,1.0110167E-1,1.9234006E-1,1.17863506E-1,7.057377E-1,2.5812167E-1,1.8515849E-1,0E0,0E0,0E0,0E0,0E0,0E0,0E0,0E0,0E0,0E0,0E0,0E0,0E0,0E0,0E0,0E0],"parents":[2147483647,0,0,1,1,2,2,3,3,4,4,5,5,6,6,7,7,8,8,9,9,10,10,11,11,12,12,13,13,14,14],"right_children":[2,4,6,8,10,12,14,16,18,20,22,24,26,28,30,-1,-1,-1,-1,-1,-1,-1,-1,-1,-1,-1,-1,-1,-1,-1,-1],"split_conditions":[1.13620496E-4,2.7608871E-4,4.7083333E-2,-2.7561188E-4,1.8770833E-1,3.4652777E-2,5.505085E-4,7.547917E-1,1.03402315E-4,1.374552E-4,2.7382374E-4,3.2708332E-2,1.5002962E-4,1.5579436E-4,8.188486E-4,8.5685184E-5,1.7078014E-3,-6.1125075E-4,-2.4067528E-4,2.6254242E-3,4.6475284E-4,3.138364E-4,-9.3704206E-4,1.4447923E-3,-1.8143943E-4,1.3311252E-3,5.2744644E-3,4.9825665E-4,-8.4971995E-5,2.2095933E-3,5.8720657E-4],"split_indices":[9,15,22,0,22,22,16,22,8,6,3,22,8,5,17,0,0,0,0,0,0,0,0,0,0,0,0,0,0,0,0],"split_type":[0,0,0,0,0,0,0,0,0,0,0,0,0,0,0,0,0,0,0,0,0,0,0,0,0,0,0,0,0,0,0],"sum_hessian":[1.064E3,6.56E2,4.08E2,5.8E2,7.6E1,5E1,3.58E2,9E0,5.71E2,9E0,6.7E1,3E1,2E1,3.27E2,3.1E1,5E0,4E0,3.5E2,2.21E2,4E0,5E0,5.2E1,1.5E1,2.5E1,5E0,1.3E1,7E0,2.09E2,1.18E2,1.8E1,1.3E1],"tree_param":{"num_deleted":"0","num_feature":"23","num_nodes":"31","size_leaf_vector":"1"}},{"base_weights":[1.2220985E-4,-3.63199E-2,5.86854E-2,-4.4101056E-2,2.2734277E-2,1.8924128E-1,3.9947137E-2,-6.334631E-2,-2.738836E-2,1.5887383E-1,2.2323695E-3,1.1620593E-1,2.8756768E-1,2.8500343E-2,1.5571596E-1,-2.4976855E-4,-8.620546E-4,5.6151937E-5,-5.0007E-4,2.6083058E-3,4.5764225E-4,3.1075714E-4,-9.282573E-4,8.7386625E-6,1.4939137E-3,1.3187648E-3,5.228313E-3,2.0015633E-4,1.2197745E-3,2.2783526E-3,6.873193E-4],"categories":[],"categories_nodes":[],"categories_segments":[],"categories_sizes":[],"default_left":[0,0,0,0,0,0,0,0,0,0,0,0,0,0,0,0,0,0,0,0,0,0,0,0,0,0,0,0,0,0,0],"id":10,"left_children":[1,3,5,7,9,11,13,15,17,19,21,23,25,27,29,-1,-1,-1,-1,-1,-1,-1,-1,-1,-1,-1,-1,-1,-1,-1,-1],"loss_changes":[2.275242E0,3.0311418E-1,9.9072206E-1,1.8423057E-1,2.1295056E-1,3.2879162E-1,4.694603E-1,2.3267305E-1,2.3437779E-1,1.0032019E-1,1.8870908E-1,1.1701447E-1,6.9370186E-1,2.5628394E-1,1.8211806E-1,0E0,0E0,0E0,0E0,0E0,0E0,0E0,0E0,0E0,0E0,0E0,0E0,0E0,0E0,0E0,0E0],"parents":[2147483647,0,0,1,1,2,2,3,3,4,4,5,5,6,6,7,7,8,8,9,9,10,10,11,11,12,12,13,13,14,14],"right_children":[2,4,6,8,10,12,14,16,18,20,22,24,26,28,30,-1,-1,-1,-1,-1,-1,-1,-1,-1,-1,-1,-1,-1,-1,-1,-1],"split_conditions":[1.13620496E-4,2.7608871E-4,4.7083333E-2,9.284552E-5,1.8770833E-1,3.4652777E-2,5.505085E-4,8.4464635E-5,-1.373291E-4,1.0306287E-4,2.7382374E-4,6.897742E-2,1.5002962E-4,2.758503E-4,8.201599E-4,-2.4976855E-4,-8.620546E-4,5.6151937E-5,-5.0007E-4,2.6083058E-3,4.5764225E-4,3.1075714E-4,-9.282573E-4,8.7386625E-6,1.4939137E-3,1.3187648E-3,5.228313E-3,2.0015633E-4,1.2197745E-3,2.2783526E-3,6.873193E-4],"split_indices":[9,15,22,9,22,22,16,6,0,9,3,14,8,3,16,0,0,0,0,0,0,0,0,0,0,0,0,0,0,0,0],"split_type":[0,0,0,0,0,0,0,0,0,0,0,0,0,0,0,0,0,0,0,0,0,0,0,0,0,0,0,0,0,0,0],"sum_hessian":[1.064E3,6.56E2,4.08E2,5.8E2,7.6E1,5E1,3.58E2,2.68E2,3.12E2,9E0,6.7E1,3E1,2E1,3.27E2,3.1E1,1.01E2,1.67E2,1.27E2,1.85E2,4E0,5E0,5.2E1,1.5E1,7E0,2.3E1,1.3E1,7E0,3.01E2,2.6E1,1.6E1,1.5E1],"tree_param":{"num_deleted":"0","num_feature":"23","num_nodes":"31","size_leaf_vector":"1"}},{"base_weights":[1.3416518E-4,-3.5955183E-2,5.8130663E-2,-4.3662887E-2,2.2540035E-2,1.8751259E-1,3.956072E-2,9.103015E-2,-4.595881E-2,1.5760168E-1,2.1994994E-3,1.1509558E-1,2.8500852E-1,2.8219976E-2,1.5425459E-1,1.6985495E-3,8.5044536E-5,-6.0025544E-4,-2.346609E-4,2.5878553E-3,4.5348165E-4,3.0770825E-4,-9.1955496E-4,1.419963E-3,-1.8990136E-4,1.3065191E-3,5.182565E-3,4.9038325E-4,-8.671396E-5,2.169588E-3,5.742353E-4],"categories":[],"categories_nodes":[],"categories_segments":[],"categories_sizes":[],"default_left":[0,0,0,0,0,0,0,0,0,0,0,0,0,0,0,0,0,0,0,0,0,0,0,0,0,0,0,0,0,0,0],"id":11,"left_children":[1,3,5,7,9,11,13,15,17,19,21,23,25,27,29,-1,-1,-1,-1,-1,-1,-1,-1,-1,-1,-1,-1,-1,-1,-1,-1],"loss_changes":[2.2314165E0,2.9741293E-1,9.729805E-1,1.8340409E-1,2.0959176E-1,3.2327437E-1,4.6077847E-1,6.1822593E-2,1.7873693E-1,9.880565E-2,1.8514676E-1,1.1574367E-1,6.8187034E-1,2.5273862E-1,1.7909259E-1,0E0,0E0,0E0,0E0,0E0,0E0,0E0,0E0,0E0,0E0,0E0,0E0,0E0,0E0,0E0,0E0],"parents":[2147483647,0,0,1,1,2,2,3,3,4,4,5,5,6,6,7,7,8,8,9,9,10,10,11,11,12,12,13,13,14,14],"right_children":[2,4,6,8,10,12,14,16,18,20,22,24,26,28,30,-1,-1,-1,-1,-1,-1,-1,-1,-1,-1,-1,-1,-1,-1,-1,-1],"split_conditions":[1.13620496E-4,2.7608871E-4,4.7083333E-2,-2.7561188E-4,1.8770833E-1,3.4652777E-2,5.505085E-4,6.6150445E-1,1.03402315E-4,1.374552E-4,2.7382374E-4,3.2708332E-2,1.5002962E-4,1.5579436E-4,8.188486E-4,1.6985495E-3,8.5044536E-5,-6.0025544E-4,-2.346609E-4,2.5878553E-3,4.5348165E-4,3.0770825E-4,-9.1955496E-4,1.419963E-3,-1.8990136E-4,1.3065191E-3,5.182565E-3,4.9038325E-4,-8.671396E-5,2.169588E-3,5.742353E-4],"split_indices":[9,15,22,0,22,22,16,20,8,6,3,22,8,5,17,0,0,0,0,0,0,0,0,0,0,0,0,0,0,0,0],"split_type":[0,0,0,0,0,0,0,0,0,0,0,0,0,0,0,0,0,0,0,0,0,0,0,0,0,0,0,0,0,0,0],"sum_hessian":[1.064E3,6.56E2,4.08E2,5.8E2,7.6E1,5E1,3.58E2,9E0,5.71E2,9E0,6.7E1,3E1,2E1,3.27E2,3.1E1,4E0,5E0,3.5E2,2.21E2,4E0,5E0,5.2E1,1.5E1,2.5E1,5E0,1.3E1,7E0,2.09E2,1.18E2,1.8E1,1.3E1],"tree_param":{"num_deleted":"0","num_feature":"23","num_nodes":"31","size_leaf_vector":"1"}},{"base_weights":[1.4666533E-4,-3.5590034E-2,5.7576656E-2,-4.3224458E-2,2.2347486E-2,1.8579078E-1,3.9174154E-2,9.0308204E-2,-4.550086E-2,1.563398E-1,2.167035E-3,1.1398108E-1,2.824722E-1,2.7938697E-2,1.5280092E-1,8.4166015E-5,1.6851649E-3,-5.007781E-4,2.1762504E-4,2.5710051E-3,4.464923E-4,3.0468925E-4,-9.109341E-4,-0E0,1.4686723E-3,1.2943872E-3,5.1372177E-3,1.953949E-4,1.2048023E-3,2.237428E-3,6.725009E-4],"categories":[],"categories_nodes":[],"categories_segments":[],"categories_sizes":[],"default_left":[0,0,0,0,0,0,0,0,0,0,0,0,0,0,0,0,0,0,0,0,0,0,0,0,0,0,0,0,0,0,0],"id":12,"left_children":[1,3,5,7,9,11,13,15,17,19,21,23,25,27,29,-1,-1,-1,-1,-1,-1,-1,-1,-1,-1,-1,-1,-1,-1,-1,-1],"loss_changes":[2.1880307E0,2.9177856E-1,9.5549154E-1,1.8027008E-1,2.0628609E-1,3.1791472E-1,4.5224053E-1,6.0858354E-2,1.7746925E-1,9.804338E-2,1.8165168E-1,1.14937335E-1,6.702405E-1,2.5119203E-1,1.7625576E-1,0E0,0E0,0E0,0E0,0E0,0E0,0E0,0E0,0E0,0E0,0E0,0E0,0E0,0E0,0E0,0E0],"parents":[2147483647,0,0,1,1,2,2,3,3,4,4,5,5,6,6,7,7,8,8,9,9,10,10,11,11,12,12,13,13,14,14],"right_children":[2,4,6,8,10,12,14,16,18,20,22,24,26,28,30,-1,-1,-1,-1,-1,-1,-1,-1,-1,-1,-1,-1,-1,-1,-1,-1],"split_conditions":[1.13620496E-4,2.7608871E-4,4.7083333E-2,-2.7561188E-4,1.8770833E-1,3.4652777E-2,5.505085E-4,7.547917E-1,4.107952E-4,1.0306287E-4,2.7382374E-4,6.897742E-2,1.5002962E-4,2.758503E-4,8.201599E-4,8.4166015E-5,1.6851649E-3,-5.007781E-4,2.1762504E-4,2.5710051E-3,4.464923E-4,3.0468925E-4,-9.109341E-4,-0E0,1.4686723E-3,1.2943872E-3,5.1372177E-3,1.953949E-4,1.2048023E-3,2.237428E-3,6.725009E-4],"split_indices":[9,15,22,0,22,22,16,22,4,9,3,14,8,3,16,0,0,0,0,0,0,0,0,0,0,0,0,0,0,0,0],"split_type":[0,0,0,0,0,0,0,0,0,0,0,0,0,0,0,0,0,0,0,0,0,0,0,0,0,0,0,0,0,0,0],"sum_hessian":[1.064E3,6.56E2,4.08E2,5.8E2,7.6E1,5E1,3.58E2,9E0,5.71E2,9E0,6.7E1,3E1,2E1,3.27E2,3.1E1,5E0,4E0,5.35E2,3.6E1,4E0,5E0,5.2E1,1.5E1,7E0,2.3E1,1.3E1,7E0,3.01E2,2.6E1,1.6E1,1.5E1],"tree_param":{"num_deleted":"0","num_feature":"23","num_nodes":"31","size_leaf_vector":"1"}},{"base_weights":[1.6134193E-4,-3.522745E-2,5.703243E-2,-4.2789146E-2,2.2156617E-2,1.840934E-1,3.8795266E-2,-6.1724745E-2,-2.6346767E-2,1.5508814E-1,2.134972E-3,1.12891436E-1,2.7995852E-1,2.7663894E-2,1.5136696E-1,-2.3671064E-4,-8.440183E-4,6.305664E-5,-4.872937E-4,2.5508334E-3,4.4244103E-4,3.0169974E-4,-9.023941E-4,1.395577E-3,-1.9810993E-4,1.282368E-3,5.0922674E-3,4.826448E-4,-8.838519E-5,2.1303084E-3,5.615408E-4],"categories":[],"categories_nodes":[],"categories_segments":[],"categories_sizes":[],"default_left":[0,0,0,0,0,0,0,0,0,0,0,0,0,0,0,0,0,0,0,0,0,0,0,0,0,0,0,0,0,0,0],"id":13,"left_children":[1,3,5,7,9,11,13,15,17,19,21,23,25,27,29,-1,-1,-1,-1,-1,-1,-1,-1,-1,-1,-1,-1,-1,-1,-1,-1],"loss_changes":[2.1456451E0,2.8624046E-1,9.383769E-1,1.7838526E-1,2.0303275E-1,3.1258166E-1,4.4387716E-1,2.2905397E-1,2.2948647E-1,9.6559525E-2,1.7822252E-1,1.1366132E-1,6.5880823E-1,2.4746737E-1,1.7322385E-1,0E0,0E0,0E0,0E0,0E0,0E0,0E0,0E0,0E0,0E0,0E0,0E0,0E0,0E0,0E0,0E0],"parents":[2147483647,0,0,1,1,2,2,3,3,4,4,5,5,6,6,7,7,8,8,9,9,10,10,11,11,12,12,13,13,14,14],"right_children":[2,4,6,8,10,12,14,16,18,20,22,24,26,28,30,-1,-1,-1,-1,-1,-1,-1,-1,-1,-1,-1,-1,-1,-1,-1,-1],"split_conditions":[1.13620496E-4,2.7608871E-4,4.7083333E-2,9.284552E-5,1.8770833E-1,3.4652777E-2,5.505085E-4,8.4464635E-5,-1.373291E-4,1.374552E-4,2.7382374E-4,3.2708332E-2,1.5002962E-4,1.5579436E-4,8.188486E-4,-2.3671064E-4,-8.440183E-4,6.305664E-5,-4.872937E-4,2.5508334E-3,4.4244103E-4,3.0169974E-4,-9.023941E-4,1.395577E-3,-1.9810993E-4,1.282368E-3,5.0922674E-3,4.826448E-4,-8.838519E-5,2.1303084E-3,5.615408E-4],"split_indices":[9,15,22,9,22,22,16,6,0,6,3,22,8,5,17,0,0,0,0,0,0,0,0,0,0,0,0,0,0,0,0],"split_type":[0,0,0,0,0,0,0,0,0,0,0,0,0,0,0,0,0,0,0,0,0,0,0,0,0,0,0,0,0,0,0],"sum_hessian":[1.064E3,6.56E2,4.08E2,5.8E2,7.6E1,5E1,3.58E2,2.68E2,3.12E2,9E0,6.7E1,3E1,2E1,3.27E2,3.1E1,1.01E2,1.67E2,1.27E2,1.85E2,4E0,5E0,5.2E1,1.5E1,2.5E1,5E0,1.3E1,7E0,2.09E2,1.18E2,1.8E1,1.3E1],"tree_param":{"num_deleted":"0","num_feature":"23","num_nodes":"31","size_leaf_vector":"1"}},{"base_weights":[1.7085508E-4,-3.4873668E-2,5.64889E-2,-4.2364012E-2,2.1967426E-2,1.824029E-1,3.841619E-2,8.980743E-2,-4.4618122E-2,1.5384658E-1,2.1033238E-3,1.11797914E-1,2.7746725E-1,2.7388154E-2,1.4994055E-1,1.6759916E-3,8.346417E-5,-4.915801E-4,2.208458E-4,2.534247E-3,4.3557046E-4,2.987398E-4,-8.939343E-4,-0E0,1.4438794E-3,1.2704603E-3,5.0477097E-3,1.907359E-4,1.1900334E-3,2.1972428E-3,6.5799046E-4],"categories":[],"categories_nodes":[],"categories_segments":[],"categories_sizes":[],"default_left":[0,0,0,0,0,0,0,0,0,0,0,0,0,0,0,0,0,0,0,0,0,0,0,0,0,0,0,0,0,0,0],"id":14,"left_children":[1,3,5,7,9,11,13,15,17,19,21,23,25,27,29,-1,-1,-1,-1,-1,-1,-1,-1,-1,-1,-1,-1,-1,-1,-1,-1],"loss_changes":[2.1041117E0,2.8085852E-1,9.215082E-1,1.7665184E-1,1.998308E-1,3.0739987E-1,4.3565226E-1,6.0211614E-2,1.7457116E-1,9.5816E-2,1.7485821E-1,1.12887144E-1,6.4757013E-1,2.462002E-1,1.7058176E-1,0E0,0E0,0E0,0E0,0E0,0E0,0E0,0E0,0E0,0E0,0E0,0E0,0E0,0E0,0E0,0E0],"parents":[2147483647,0,0,1,1,2,2,3,3,4,4,5,5,6,6,7,7,8,8,9,9,10,10,11,11,12,12,13,13,14,14],"right_children":[2,4,6,8,10,12,14,16,18,20,22,24,26,28,30,-1,-1,-1,-1,-1,-1,-1,-1,-1,-1,-1,-1,-1,-1,-1,-1],"split_conditions":[1.13620496E-4,2.7608871E-4,4.7083333E-2,-2.7561188E-4,1.8770833E-1,3.4652777E-2,5.505085E-4,6.6150445E-1,4.107952E-4,1.0306287E-4,2.7382374E-4,6.897742E-2,1.5002962E-4,2.758503E-4,8.201599E-4,1.6759916E-3,8.346417E-5,-4.915801E-4,2.208458E-4,2.534247E-3,4.3557046E-4,2.987398E-4,-8.939343E-4,-0E0,1.4438794E-3,1.2704603E-3,5.0477097E-3,1.907359E-4,1.1900334E-3,2.1972428E-3,6.5799046E-4],"split_indices":[9,15,22,0,22,22,16,20,4,9,3,14,8,3,16,0,0,0,0,0,0,0,0,0,0,0,0,0,0,0,0],"split_type":[0,0,0,0,0,0,0,0,0,0,0,0,0,0,0,0,0,0,0,0,0,0,0,0,0,0,0,0,0,0,0],"sum_hessian":[1.064E3,6.56E2,4.08E2,5.8E2,7.6E1,5E1,3.58E2,9E0,5.71E2,9E0,6.7E1,3E1,2E1,3.27E2,3.1E1,4E0,5E0,5.35E2,3.6E1,4E0,5E0,5.2E1,1.5E1,7E0,2.3E1,1.3E1,7E0,3.01E2,2.6E1,1.6E1,1.5E1],"tree_param":{"num_deleted":"0","num_feature":"23","num_nodes":"31","size_leaf_vector":"1"}},{"base_weights":[1.8498788E-4,-3.4518283E-2,5.5954825E-2,-4.1937284E-2,2.177989E-2,1.8073507E-1,3.8044665E-2,-6.0668875E-2,-2.5672955E-2,1.5261512E-1,2.0720651E-3,1.1072664E-1,2.7499822E-1,2.7118787E-2,1.4853351E-1,-2.2977832E-4,-8.313207E-4,6.666563E-5,-4.7843842E-4,2.5143505E-3,4.316265E-4,2.9580874E-4,-8.855537E-4,1.3716064E-3,-2.0608507E-4,1.258663E-3,5.0035426E-3,4.7503892E-4,-8.998783E-5,2.091741E-3,5.491172E-4],"categories":[],"categories_nodes":[],"categories_segments":[],"categories_sizes":[],"default_left":[0,0,0,0,0,0,0,0,0,0,0,0,0,0,0,0,0,0,0,0,0,0,0,0,0,0,0,0,0,0,0],"id":15,"left_children":[1,3,5,7,9,11,13,15,17,19,21,23,25,27,29,-1,-1,-1,-1,-1,-1,-1,-1,-1,-1,-1,-1,-1,-1,-1,-1],"loss_changes":[2.063342E0,2.7552825E-1,9.049834E-1,1.7458475E-1,1.9667967E-1,3.0225313E-1,4.2759573E-1,2.247805E-1,2.2515042E-1,9.436226E-2,1.7155741E-1,1.1161536E-1,6.365235E-1,2.42306E-1,1.6754603E-1,0E0,0E0,0E0,0E0,0E0,0E0,0E0,0E0,0E0,0E0,0E0,0E0,0E0,0E0,0E0,0E0],"parents":[2147483647,0,0,1,1,2,2,3,3,4,4,5,5,6,6,7,7,8,8,9,9,10,10,11,11,12,12,13,13,14,14],"right_children":[2,4,6,8,10,12,14,16,18,20,22,24,26,28,30,-1,-1,-1,-1,-1,-1,-1,-1,-1,-1,-1,-1,-1,-1,-1,-1],"split_conditions":[1.13620496E-4,2.7608871E-4,4.7083333E-2,9.284552E-5,1.8770833E-1,3.4652777E-2,5.505085E-4,8.4464635E-5,-1.373291E-4,1.374552E-4,2.7382374E-4,3.2708332E-2,1.5002962E-4,1.5579436E-4,8.188486E-4,-2.2977832E-4,-8.313207E-4,6.666563E-5,-4.7843842E-4,2.5143505E-3,4.316265E-4,2.9580874E-4,-8.855537E-4,1.3716064E-3,-2.0608507E-4,1.258663E-3,5.0035426E-3,4.7503892E-4,-8.998783E-5,2.091741E-3,5.491172E-4],"split_indices":[9,15,22,9,22,22,16,6,0,6,3,22,8,5,17,0,0,0,0,0,0,0,0,0,0,0,0,0,0,0,0],"split_type":[0,0,0,0,0,0,0,0,0,0,0,0,0,0,0,0,0,0,0,0,0,0,0,0,0,0,0,0,0,0,0],"sum_hessian":[1.064E3,6.56E2,4.08E2,5.8E2,7.6E1,5E1,3.58E2,2.68E2,3.12E2,9E0,6.7E1,3E1,2E1,3.27E2,3.1E1,1.01E2,1.67E2,1.27E2,1.85E2,4E0,5E0,5.2E1,1.5E1,2.5E1,5E0,1.3E1,7E0,2.09E2,1.18E2,1.8E1,1.3E1],"tree_param":{"num_deleted":"0","num_feature":"23","num_nodes":"31","size_leaf_vector":"1"}},{"base_weights":[1.9405936E-4,-3.4171604E-2,5.5421557E-2,-4.152062E-2,2.1593982E-2,1.7907532E-1,3.7672915E-2,8.930468E-2,-4.375267E-2,1.5139355E-1,2.0411925E-3,1.09653756E-1,2.7255118E-1,2.6848458E-2,1.4713383E-1,8.505065E-5,1.6640327E-3,-5.758421E-4,-2.1641751E-4,2.4980237E-3,4.2487268E-4,2.929064E-4,-8.7725173E-4,-0E0,1.4195272E-3,1.2469754E-3,4.959761E-3,1.8617684E-4,1.1754641E-3,2.1577834E-3,6.437816E-4],"categories":[],"categories_nodes":[],"categories_segments":[],"categories_sizes":[],"default_left":[0,0,0,0,0,0,0,0,0,0,0,0,0,0,0,0,0,0,0,0,0,0,0,0,0,0,0,0,0,0,0],"id":16,"left_children":[1,3,5,7,9,11,13,15,17,19,21,23,25,27,29,-1,-1,-1,-1,-1,-1,-1,-1,-1,-1,-1,-1,-1,-1,-1,-1],"loss_changes":[2.0234015E0,2.7034903E-1,8.88713E-1,1.7310882E-1,1.9357829E-1,2.9724288E-1,4.1967285E-1,5.913101E-2,1.728952E-1,9.3637064E-2,1.683189E-1,1.10871494E-1,6.256645E-1,2.4130659E-1,1.6509014E-1,0E0,0E0,0E0,0E0,0E0,0E0,0E0,0E0,0E0,0E0,0E0,0E0,0E0,0E0,0E0,0E0],"parents":[2147483647,0,0,1,1,2,2,3,3,4,4,5,5,6,6,7,7,8,8,9,9,10,10,11,11,12,12,13,13,14,14],"right_children":[2,4,6,8,10,12,14,16,18,20,22,24,26,28,30,-1,-1,-1,-1,-1,-1,-1,-1,-1,-1,-1,-1,-1,-1,-1,-1],"split_conditions":[1.13620496E-4,2.7608871E-4,4.7083333E-2,-2.7561188E-4,1.8770833E-1,3.4652777E-2,5.505085E-4,7.547917E-1,1.03402315E-4,1.0306287E-4,2.7382374E-4,6.897742E-2,1.5002962E-4,2.758503E-4,8.201599E-4,8.505065E-5,1.6640327E-3,-5.758421E-4,-2.1641751E-4,2.4980237E-3,4.2487268E-4,2.929064E-4,-8.7725173E-4,-0E0,1.4195272E-3,1.2469754E-3,4.959761E-3,1.8617684E-4,1.1754641E-3,2.1577834E-3,6.437816E-4],"split_indices":[9,15,22,0,22,22,16,22,8,9,3,14,8,3,16,0,0,0,0,0,0,0,0,0,0,0,0,0,0,0,0],"split_type":[0,0,0,0,0,0,0,0,0,0,0,0,0,0,0,0,0,0,0,0,0,0,0,0,0,0,0,0,0,0,0],"sum_hessian":[1.064E3,6.56E2,4.08E2,5.8E2,7.6E1,5E1,3.58E2,9E0,5.71E2,9E0,6.7E1,3E1,2E1,3.27E2,3.1E1,5E0,4E0,3.5E2,2.21E2,4E0,5E0,5.2E1,1.5E1,7E0,2.3E1,1.3E1,7E0,3.01E2,2.6E1,1.6E1,1.5E1],"tree_param":{"num_deleted":"0","num_feature":"23","num_nodes":"31","size_leaf_vector":"1"}},{"base_weights":[2.0696473E-4,-3.3824414E-2,5.489745E-2,-4.1103594E-2,2.1409716E-2,1.7743653E-1,3.730862E-2,8.859654E-2,-4.3316703E-2,1.501819E-1,2.0107224E-3,1.08600564E-1,2.70126E-1,2.6584432E-2,1.4575316E-1,1.6536918E-3,8.1865765E-5,-4.7819843E-4,2.2818458E-4,2.4783975E-3,4.2103382E-4,2.9003268E-4,-8.690276E-4,1.3480447E-3,-2.1383114E-4,1.2353961E-3,4.9163634E-3,4.675631E-4,-9.1523696E-5,2.053873E-3,5.369589E-4],"categories":[],"categories_nodes":[],"categories_segments":[],"categories_sizes":[],"default_left":[0,0,0,0,0,0,0,0,0,0,0,0,0,0,0,0,0,0,0,0,0,0,0,0,0,0,0,0,0,0,0],"id":17,"left_children":[1,3,5,7,9,11,13,15,17,19,21,23,25,27,29,-1,-1,-1,-1,-1,-1,-1,-1,-1,-1,-1,-1,-1,-1,-1,-1],"loss_changes":[1.9842378E0,2.6522988E-1,8.7275815E-1,1.701554E-1,1.9052602E-1,2.9227555E-1,4.1191158E-1,5.864349E-2,1.7169201E-1,9.221284E-2,1.6514155E-1,1.0960522E-1,6.149901E-1,2.372521E-1,1.6205281E-1,0E0,0E0,0E0,0E0,0E0,0E0,0E0,0E0,0E0,0E0,0E0,0E0,0E0,0E0,0E0,0E0],"parents":[2147483647,0,0,1,1,2,2,3,3,4,4,5,5,6,6,7,7,8,8,9,9,10,10,11,11,12,12,13,13,14,14],"right_children":[2,4,6,8,10,12,14,16,18,20,22,24,26,28,30,-1,-1,-1,-1,-1,-1,-1,-1,-1,-1,-1,-1,-1,-1,-1,-1],"split_conditions":[1.13620496E-4,2.7608871E-4,4.7083333E-2,-2.7561188E-4,1.8770833E-1,3.4652777E-2,5.505085E-4,6.6150445E-1,4.107952E-4,1.374552E-4,2.7382374E-4,3.2708332E-2,1.5002962E-4,1.5579436E-4,8.188486E-4,1.6536918E-3,8.1865765E-5,-4.7819843E-4,2.2818458E-4,2.4783975E-3,4.2103382E-4,2.9003268E-4,-8.690276E-4,1.3480447E-3,-2.1383114E-4,1.2353961E-3,4.9163634E-3,4.675631E-4,-9.1523696E-5,2.053873E-3,5.369589E-4],"split_indices":[9,15,22,0,22,22,16,20,4,6,3,22,8,5,17,0,0,0,0,0,0,0,0,0,0,0,0,0,0,0,0],"split_type":[0,0,0,0,0,0,0,0,0,0,0,0,0,0,0,0,0,0,0,0,0,0,0,0,0,0,0,0,0,0,0],"sum_hessian":[1.064E3,6.56E2,4.08E2,5.8E2,7.6E1,5E1,3.58E2,9E0,5.71E2,9E0,6.7E1,3E1,2E1,3.27E2,3.1E1,4E0,5E0,5.35E2,3.6E1,4E0,5E0,5.2E1,1.5E1,2.5E1,5E0,1.3E1,7E0,2.09E2,1.18E2,1.8E1,1.3E1],"tree_param":{"num_deleted":"0","num_feature":"23","num_nodes":"31","size_leaf_vector":"1"}},{"base_weights":[2.1875561E-4,-3.347961E-2,5.4374274E-2,-4.0689476E-2,2.1227049E-2,1.7580698E-1,3.6944073E-2,-5.9118606E-2,-2.4689078E-2,1.4898002E-1,1.9806258E-3,1.0754792E-1,2.6772243E-1,2.6319424E-2,1.4437972E-1,-2.1737821E-4,-8.1402657E-4,7.3073614E-5,-4.662916E-4,2.462327E-3,4.143945E-4,2.8718702E-4,-8.6088054E-4,-6.841745E-6,1.3956078E-3,1.2239247E-3,4.8733456E-3,1.81716E-4,1.1610918E-3,2.1190366E-3,6.2986795E-4],"categories":[],"categories_nodes":[],"categories_segments":[],"categories_sizes":[],"default_left":[0,0,0,0,0,0,0,0,0,0,0,0,0,0,0,0,0,0,0,0,0,0,0,0,0,0,0,0,0,0,0],"id":18,"left_children":[1,3,5,7,9,11,13,15,17,19,21,23,25,27,29,-1,-1,-1,-1,-1,-1,-1,-1,-1,-1,-1,-1,-1,-1,-1,-1],"loss_changes":[1.9456037E0,2.601974E-1,8.5706544E-1,1.6902375E-1,1.87522E-1,2.874316E-1,4.0427932E-1,2.2127491E-1,2.2046137E-1,9.150563E-2,1.6202417E-1,1.0889366E-1,6.044972E-1,2.3650922E-1,1.5977502E-1,0E0,0E0,0E0,0E0,0E0,0E0,0E0,0E0,0E0,0E0,0E0,0E0,0E0,0E0,0E0,0E0],"parents":[2147483647,0,0,1,1,2,2,3,3,4,4,5,5,6,6,7,7,8,8,9,9,10,10,11,11,12,12,13,13,14,14],"right_children":[2,4,6,8,10,12,14,16,18,20,22,24,26,28,30,-1,-1,-1,-1,-1,-1,-1,-1,-1,-1,-1,-1,-1,-1,-1,-1],"split_conditions":[1.13620496E-4,2.7608871E-4,4.7083333E-2,9.284552E-5,1.8770833E-1,3.4652777E-2,5.505085E-4,8.4464635E-5,-1.373291E-4,1.0306287E-4,2.7382374E-4,6.897742E-2,1.5002962E-4,2.758503E-4,8.201599E-4,-2.1737821E-4,-8.1402657E-4,7.3073614E-5,-4.662916E-4,2.462327E-3,4.143945E-4,2.8718702E-4,-8.6088054E-4,-6.841745E-6,1.3956078E-3,1.2239247E-3,4.8733456E-3,1.81716E-4,1.1610918E-3,2.1190366E-3,6.2986795E-4],"split_indices":[9,15,22,9,22,22,16,6,0,9,3,14,8,3,16,0,0,0,0,0,0,0,0,0,0,0,0,0,0,0,0],"split_type":[0,0,0,0,0,0,0,0,0,0,0,0,0,0,0,0,0,0,0,0,0,0,0,0,0,0,0,0,0,0,0],"sum_hessian":[1.064E3,6.56E2,4.08E2,5.8E2,7.6E1,5E1,3.58E2,2.68E2,3.12E2,9E0,6.7E1,3E1,2E1,3.27E2,3.1E1,1.01E2,1.67E2,1.27E2,1.85E2,4E0,5E0,5.2E1,1.5E1,7E0,2.3E1,1.3E1,7E0,3.01E2,2.6E1,1.6E1,1.5E1],"tree_param":{"num_deleted":"0","num_feature":"23","num_nodes":"31","size_leaf_vector":"1"}},{"base_weights":[2.2873512E-4,-3.3143327E-2,5.386007E-2,-4.028521E-2,2.1045996E-2,1.7419766E-1,3.6586873E-2,-5.384498E-2,-1.8857883E-2,1.477879E-1,1.9509223E-3,1.0651401E-1,2.6534033E-1,2.6060637E-2,1.4302494E-1,-1.7921989E-4,-7.49836E-4,-4.509186E-5,-9.458266E-4,2.4429676E-3,4.1065857E-4,2.8436948E-4,-8.528097E-4,1.3248997E-3,-2.2134188E-4,1.2125596E-3,4.8307036E-3,4.6021517E-4,-9.299406E-5,2.0990926E-3,6.239629E-4],"categories":[],"categories_nodes":[],"categories_segments":[],"categories_sizes":[],"default_left":[0,0,0,0,0,0,0,0,0,0,0,0,0,0,0,0,0,0,0,0,0,0,0,0,0,0,0,0,0,0,0],"id":19,"left_children":[1,3,5,7,9,11,13,15,17,19,21,23,25,27,29,-1,-1,-1,-1,-1,-1,-1,-1,-1,-1,-1,-1,-1,-1,-1,-1],"loss_changes":[1.9081167E0,2.5530833E-1,8.416724E-1,1.6706681E-1,1.8456554E-1,2.8263116E-1,3.9680254E-1,2.6730072E-1,2.4522988E-1,9.011033E-2,1.5896568E-1,1.076307E-1,5.9418297E-1,2.3230334E-1,1.5674877E-1,0E0,0E0,0E0,0E0,0E0,0E0,0E0,0E0,0E0,0E0,0E0,0E0,0E0,0E0,0E0,0E0],"parents":[2147483647,0,0,1,1,2,2,3,3,4,4,5,5,6,6,7,7,8,8,9,9,10,10,11,11,12,12,13,13,14,14],"right_children":[2,4,6,8,10,12,14,16,18,20,22,24,26,28,30,-1,-1,-1,-1,-1,-1,-1,-1,-1,-1,-1,-1,-1,-1,-1,-1],"split_conditions":[1.13620496E-4,2.7608871E-4,4.7083333E-2,1.03402315E-4,1.8770833E-1,3.4652777E-2,5.505085E-4,8.4464635E-5,1.3480287E-4,1.374552E-4,2.7382374E-4,3.2708332E-2,1.5002962E-4,1.5579436E-4,8.201599E-4,-1.7921989E-4,-7.49836E-4,-4.509186E-5,-9.458266E-4,2.4429676E-3,4.1065857E-4,2.8436948E-4,-8.528097E-4,1.3248997E-3,-2.2134188E-4,1.2125596E-3,4.8307036E-3,4.6021517E-4,-9.299406E-5,2.0990926E-3,6.239629E-4],"split_indices":[9,15,22,8,22,22,16,6,7,6,3,22,8,5,16,0,0,0,0,0,0,0,0,0,0,0,0,0,0,0,0],"split_type":[0,0,0,0,0,0,0,0,0,0,0,0,0,0,0,0,0,0,0,0,0,0,0,0,0,0,0,0,0,0,0],"sum_hessian":[1.064E3,6.56E2,4.08E2,5.8E2,7.6E1,5E1,3.58E2,3.54E2,2.26E2,9E0,6.7E1,3E1,2E1,3.27E2,3.1E1,1.32E2,2.22E2,1.91E2,3.5E1,4E0,5E0,5.2E1,1.5E1,2.5E1,5E0,1.3E1,7E0,2.09E2,1.18E2,1.6E1,1.5E1],"tree_param":{"num_deleted":"0","num_feature":"23","num_nodes":"31","size_leaf_vector":"1"}},{"base_weights":[2.364969E-4,-3.281149E-2,5.3347234E-2,9.711533E-3,-4.187027E-2,1.7259778E-1,3.6229894E-2,2.2159144E-3,-1.7388365E-3,3.9172426E-2,-4.705172E-2,3.3960775E-1,1.3339575E-1,2.5800848E-2,1.4168291E-1,4.228089E-4,-3.867764E-4,-1.5702404E-4,1.5125866E-3,-4.9463444E-4,1.3188552E-3,1.4925585E-3,4.6003805E-3,8.5698055E-5,1.9301621E-3,1.7735138E-4,1.1469134E-3,2.0826631E-3,6.145786E-4],"categories":[],"categories_nodes":[],"categories_segments":[],"categories_sizes":[],"default_left":[0,0,0,0,0,0,0,0,0,0,0,0,0,0,0,0,0,0,0,0,0,0,0,0,0,0,0,0,0],"id":20,"left_children":[1,3,5,7,9,11,13,-1,15,17,19,21,23,25,27,-1,-1,-1,-1,-1,-1,-1,-1,-1,-1,-1,-1,-1,-1],"loss_changes":[1.8712468E0,2.5380898E-1,8.265307E-1,2.840118E-1,2.2951782E-1,2.838714E-1,3.894886E-1,0E0,1.8208928E-1,2.0670421E-1,2.2578847E-1,1.3156092E-1,3.1634378E-1,2.3180622E-1,1.5543616E-1,0E0,0E0,0E0,0E0,0E0,0E0,0E0,0E0,0E0,0E0,0E0,0E0,0E0,0E0],"parents":[2147483647,0,0,1,1,2,2,3,3,4,4,5,5,6,6,8,8,9,9,10,10,11,11,12,12,13,13,14,14],"right_children":[2,4,6,8,10,12,14,-1,16,18,20,22,24,26,28,-1,-1,-1,-1,-1,-1,-1,-1,-1,-1,-1,-1,-1,-1],"split_conditions":[1.13620496E-4,-8.890554E-1,4.7083333E-2,1.3661385E-4,-2.7561188E-4,2.734661E-4,5.505085E-4,2.2159144E-3,5.2944446E-1,2.7513504E-4,5.508661E-4,2.734661E-4,2.4999006E-1,2.758503E-4,1.3507702E-4,4.228089E-4,-3.867764E-4,-1.5702404E-4,1.5125866E-3,-4.9463444E-4,1.3188552E-3,1.4925585E-3,4.6003805E-3,8.5698055E-5,1.9301621E-3,1.7735138E-4,1.1469134E-3,2.0826631E-3,6.145786E-4],"split_indices":[9,20,22,0,3,19,16,0,22,19,18,16,14,3,9,0,0,0,0,0,0,0,0,0,0,0,0,0,0],"split_type":[0,0,0,0,0,0,0,0,0,0,0,0,0,0,0,0,0,0,0,0,0,0,0,0,0,0,0,0,0],"sum_hessian":[1.064E3,6.56E2,4.08E2,1.15E2,5.41E2,5E1,3.58E2,5E0,1.1E2,3.2E1,5.09E2,8E0,4.2E1,3.27E2,3.1E1,5E1,6E1,2.2E1,1E1,5.03E2,6E0,4E0,4E0,1.4E1,2.8E1,3.01E2,2.6E1,1.6E1,1.5E1],"tree_param":{"num_deleted":"0","num_feature":"23","num_nodes":"29","size_leaf_vector":"1"}},{"base_weights":[2.5043107E-4,-3.247633E-2,5.2845128E-2,9.633832E-3,-4.1447368E-2,1.7103669E-1,3.5879627E-2,2.1974484E-3,-1.7202216E-3,3.8818747E-2,-4.6579394E-2,3.368998E-1,1.32111E-1,2.554718E-2,1.4035349E-1,4.1866372E-4,-3.8297207E-4,-1.5552202E-4,1.4988357E-3,-4.8969797E-4,1.3075508E-3,1.4806181E-3,4.5635775E-3,8.4898085E-5,1.9115261E-3,4.5299268E-4,-9.4400995E-5,1.9840398E-3,5.083114E-4],"categories":[],"categories_nodes":[],"categories_segments":[],"categories_sizes":[],"default_left":[0,0,0,0,0,0,0,0,0,0,0,0,0,0,0,0,0,0,0,0,0,0,0,0,0,0,0,0,0],"id":21,"left_children":[1,3,5,7,9,11,13,-1,15,17,19,21,23,25,27,-1,-1,-1,-1,-1,-1,-1,-1,-1,-1,-1,-1,-1,-1],"loss_changes":[1.8350556E0,2.4891353E-1,8.119123E-1,2.7928922E-1,2.2515064E-1,2.8007483E-1,3.822854E-1,0E0,1.7853121E-1,2.0295145E-1,2.2177446E-1,1.294105E-1,3.1022888E-1,2.274578E-1,1.5372062E-1,0E0,0E0,0E0,0E0,0E0,0E0,0E0,0E0,0E0,0E0,0E0,0E0,0E0,0E0],"parents":[2147483647,0,0,1,1,2,2,3,3,4,4,5,5,6,6,8,8,9,9,10,10,11,11,12,12,13,13,14,14],"right_children":[2,4,6,8,10,12,14,-1,16,18,20,22,24,26,28,-1,-1,-1,-1,-1,-1,-1,-1,-1,-1,-1,-1,-1,-1],"split_conditions":[1.13620496E-4,-8.890554E-1,4.7083333E-2,1.3661385E-4,-2.7561188E-4,2.734661E-4,5.505085E-4,2.1974484E-3,5.2944446E-1,2.7513504E-4,5.508661E-4,2.734661E-4,2.4999006E-1,1.5579436E-4,8.188486E-4,4.1866372E-4,-3.8297207E-4,-1.5552202E-4,1.4988357E-3,-4.8969797E-4,1.3075508E-3,1.4806181E-3,4.5635775E-3,8.4898085E-5,1.9115261E-3,4.5299268E-4,-9.4400995E-5,1.9840398E-3,5.083114E-4],"split_indices":[9,20,22,0,3,19,16,0,22,19,18,16,14,5,17,0,0,0,0,0,0,0,0,0,0,0,0,0,0],"split_type":[0,0,0,0,0,0,0,0,0,0,0,0,0,0,0,0,0,0,0,0,0,0,0,0,0,0,0,0,0],"sum_hessian":[1.064E3,6.56E2,4.08E2,1.15E2,5.41E2,5E1,3.58E2,5E0,1.1E2,3.2E1,5.09E2,8E0,4.2E1,3.27E2,3.1E1,5E1,6E1,2.2E1,1E1,5.03E2,6E0,4E0,4E0,1.4E1,2.8E1,2.09E2,1.18E2,1.8E1,1.3E1],"tree_param":{"num_deleted":"0","num_feature":"23","num_nodes":"29","size_leaf_vector":"1"}},{"base_weights":[2.6284848E-4,-3.2144565E-2,5.2344535E-2,-3.912959E-2,2.084818E-2,1.6948986E-1,3.5529055E-2,-5.7260014E-2,-2.3390882E-2,1.4546464E-1,2.068579E-3,3.3421347E-1,1.3083865E-1,2.5292499E-2,1.3903098E-1,-2.0490955E-4,-7.918372E-4,1.6803137E-4,-4.050382E-4,2.4024087E-3,4.057367E-4,2.818673E-4,-8.395208E-4,1.4628291E-3,4.5330133E-3,8.4105624E-5,1.8930702E-3,1.7308077E-4,1.1329262E-3,2.0478605E-3,5.9851754E-4],"categories":[],"categories_nodes":[],"categories_segments":[],"categories_sizes":[],"default_left":[0,0,0,0,0,0,0,0,0,0,0,0,0,0,0,0,0,0,0,0,0,0,0,0,0,0,0,0,0,0,0],"id":22,"left_children":[1,3,5,7,9,11,13,15,17,19,21,23,25,27,29,-1,-1,-1,-1,-1,-1,-1,-1,-1,-1,-1,-1,-1,-1,-1,-1],"loss_changes":[1.7994264E0,2.441907E-1,7.975986E-1,1.6364211E-1,1.7842281E-1,2.7632654E-1,3.7520194E-1,2.1422541E-1,2.1621084E-1,8.68561E-2,1.5458433E-1,1.2911618E-1,3.0423194E-1,2.2719581E-1,1.5170282E-1,0E0,0E0,0E0,0E0,0E0,0E0,0E0,0E0,0E0,0E0,0E0,0E0,0E0,0E0,0E0,0E0],"parents":[2147483647,0,0,1,1,2,2,3,3,4,4,5,5,6,6,7,7,8,8,9,9,10,10,11,11,12,12,13,13,14,14],"right_children":[2,4,6,8,10,12,14,16,18,20,22,24,26,28,30,-1,-1,-1,-1,-1,-1,-1,-1,-1,-1,-1,-1,-1,-1,-1,-1],"split_conditions":[1.13620496E-4,2.7608871E-4,4.7083333E-2,9.284552E-5,1.8770833E-1,2.734661E-4,5.505085E-4,8.4464635E-5,3.7006944E-1,1.374552E-4,2.7382374E-4,2.7287006E-4,2.4999006E-1,2.758503E-4,1.3507702E-4,-2.0490955E-4,-7.918372E-4,1.6803137E-4,-4.050382E-4,2.4024087E-3,4.057367E-4,2.818673E-4,-8.395208E-4,1.4628291E-3,4.5330133E-3,8.4105624E-5,1.8930702E-3,1.7308077E-4,1.1329262E-3,2.0478605E-3,5.9851754E-4],"split_indices":[9,15,22,9,22,19,16,6,22,6,3,17,14,3,9,0,0,0,0,0,0,0,0,0,0,0,0,0,0,0,0],"split_type":[0,0,0,0,0,0,0,0,0,0,0,0,0,0,0,0,0,0,0,0,0,0,0,0,0,0,0,0,0,0,0],"sum_hessian":[1.064E3,6.56E2,4.08E2,5.8E2,7.6E1,5E1,3.58E2,2.68E2,3.12E2,9E0,6.7E1,8E0,4.2E1,3.27E2,3.1E1,1.01E2,1.67E2,9.3E1,2.19E2,4E0,5E0,5.2E1,1.5E1,4E0,4E0,1.4E1,2.8E1,3.01E2,2.6E1,1.6E1,1.5E1],"tree_param":{"num_deleted":"0","num_feature":"23","num_nodes":"31","size_leaf_vector":"1"}},{"base_weights":[2.730284E-4,-3.182142E-2,5.1851947E-2,9.7963E-3,-4.068827E-2,1.6795719E-1,3.5185598E-2,2.1743982E-3,-1.4258384E-3,3.875322E-2,-4.576843E-2,1.0156809E-1,2.57486E-1,2.5043849E-2,1.3772649E-1,4.157133E-4,-3.751485E-4,-1.5037713E-4,1.4861122E-3,-4.8125422E-4,1.2904519E-3,1.2718169E-3,-2.4685555E-4,1.1532593E-3,4.7283033E-3,1.7135557E-4,1.1220163E-3,2.0312362E-3,5.90091E-4],"categories":[],"categories_nodes":[],"categories_segments":[],"categories_sizes":[],"default_left":[0,0,0,0,0,0,0,0,0,0,0,0,0,0,0,0,0,0,0,0,0,0,0,0,0,0,0,0,0],"id":23,"left_children":[1,3,5,7,9,11,13,-1,15,17,19,21,23,25,27,-1,-1,-1,-1,-1,-1,-1,-1,-1,-1,-1,-1,-1,-1],"loss_changes":[1.764848E0,2.4315244E-1,7.8349435E-1,2.7277383E-1,2.2058165E-1,2.7338767E-1,3.68263E-1,0E0,1.7376049E-1,1.9857956E-1,2.155391E-1,1.04412675E-1,5.8246946E-1,2.2286433E-1,1.5012509E-1,0E0,0E0,0E0,0E0,0E0,0E0,0E0,0E0,0E0,0E0,0E0,0E0,0E0,0E0],"parents":[2147483647,0,0,1,1,2,2,3,3,4,4,5,5,6,6,8,8,9,9,10,10,11,11,12,12,13,13,14,14],"right_children":[2,4,6,8,10,12,14,-1,16,18,20,22,24,26,28,-1,-1,-1,-1,-1,-1,-1,-1,-1,-1,-1,-1,-1,-1],"split_conditions":[1.13620496E-4,-8.890554E-1,4.7083333E-2,1.3661385E-4,-2.7561188E-4,3.4652777E-2,5.505085E-4,2.1743982E-3,5.2944446E-1,2.7513504E-4,5.508661E-4,3.2708332E-2,1.5002962E-4,2.758503E-4,8.201599E-4,4.157133E-4,-3.751485E-4,-1.5037713E-4,1.4861122E-3,-4.8125422E-4,1.2904519E-3,1.2718169E-3,-2.4685555E-4,1.1532593E-3,4.7283033E-3,1.7135557E-4,1.1220163E-3,2.0312362E-3,5.90091E-4],"split_indices":[9,20,22,0,3,22,16,0,22,19,18,22,8,3,16,0,0,0,0,0,0,0,0,0,0,0,0,0,0],"split_type":[0,0,0,0,0,0,0,0,0,0,0,0,0,0,0,0,0,0,0,0,0,0,0,0,0,0,0,0,0],"sum_hessian":[1.064E3,6.56E2,4.08E2,1.15E2,5.41E2,5E1,3.58E2,5E0,1.1E2,3.2E1,5.09E2,3E1,2E1,3.27E2,3.1E1,5E1,6E1,2.2E1,1E1,5.03E2,6E0,2.5E1,5E0,1.3E1,7E0,3.01E2,2.6E1,1.6E1,1.5E1],"tree_param":{"num_deleted":"0","num_feature":"23","num_nodes":"29","size_leaf_vector":"1"}},{"base_weights":[2.8511093E-4,-3.1496268E-2,5.1361103E-2,9.717433E-3,-4.027725E-2,1.6641499E-1,3.4845475E-2,2.156278E-3,-1.4103117E-3,3.840313E-2,-4.5308966E-2,3.3024237E-1,1.2802286E-1,2.4797652E-2,1.3643426E-1,4.1163768E-4,-3.7145847E-4,-1.4893869E-4,1.472602E-3,-4.7645133E-4,1.2793909E-3,1.4440302E-3,4.480332E-3,7.379144E-5,1.8566538E-3,4.433276E-4,-9.8004224E-5,2.0137078E-3,5.8287074E-4],"categories":[],"categories_nodes":[],"categories_segments":[],"categories_sizes":[],"default_left":[0,0,0,0,0,0,0,0,0,0,0,0,0,0,0,0,0,0,0,0,0,0,0,0,0,0,0,0,0],"id":24,"left_children":[1,3,5,7,9,11,13,-1,15,17,19,21,23,25,27,-1,-1,-1,-1,-1,-1,-1,-1,-1,-1,-1,-1,-1,-1],"loss_changes":[1.7305939E0,2.3846322E-1,7.6936483E-1,2.6823917E-1,2.163853E-1,2.7391255E-1,3.6145234E-1,0E0,1.7036512E-1,1.9497487E-1,2.117083E-1,1.2638992E-1,2.9573047E-1,2.2246754E-1,1.4805353E-1,0E0,0E0,0E0,0E0,0E0,0E0,0E0,0E0,0E0,0E0,0E0,0E0,0E0,0E0],"parents":[2147483647,0,0,1,1,2,2,3,3,4,4,5,5,6,6,8,8,9,9,10,10,11,11,12,12,13,13,14,14],"right_children":[2,4,6,8,10,12,14,-1,16,18,20,22,24,26,28,-1,-1,-1,-1,-1,-1,-1,-1,-1,-1,-1,-1,-1,-1],"split_conditions":[1.13620496E-4,-8.890554E-1,4.7083333E-2,1.3661385E-4,-2.7561188E-4,2.734661E-4,5.505085E-4,2.156278E-3,5.2944446E-1,2.7513504E-4,5.508661E-4,2.734661E-4,2.4999006E-1,1.5579436E-4,1.3507702E-4,4.1163768E-4,-3.7145847E-4,-1.4893869E-4,1.472602E-3,-4.7645133E-4,1.2793909E-3,1.4440302E-3,4.480332E-3,7.379144E-5,1.8566538E-3,4.433276E-4,-9.8004224E-5,2.0137078E-3,5.8287074E-4],"split_indices":[9,20,22,0,3,19,16,0,22,19,18,16,14,5,9,0,0,0,0,0,0,0,0,0,0,0,0,0,0],"split_type":[0,0,0,0,0,0,0,0,0,0,0,0,0,0,0,0,0,0,0,0,0,0,0,0,0,0,0,0,0],"sum_hessian":[1.064E3,6.56E2,4.08E2,1.15E2,5.41E2,5E1,3.58E2,5E0,1.1E2,3.2E1,5.09E2,8E0,4.2E1,3.27E2,3.1E1,5E1,6E1,2.2E1,1E1,5.03E2,6E0,4E0,4E0,1.4E1,2.8E1,2.09E2,1.18E2,1.6E1,1.5E1],"tree_param":{"num_deleted":"0","num_feature":"23","num_nodes":"29","size_leaf_vector":"1"}},{"base_weights":[2.970157E-4,-3.1174421E-2,5.08751E-2,9.639195E-3,-3.987037E-2,1.6491073E-1,3.4505483E-2,2.138309E-3,-1.3949436E-3,3.805619E-2,-4.485411E-2,3.276093E-1,1.2678985E-1,2.455041E-2,1.3515419E-1,4.0760206E-4,-3.6780484E-4,-1.4751396E-4,1.4592148E-3,-4.716963E-4,1.2684247E-3,1.4266015E-3,4.4503654E-3,7.799643E-4,2.7900853E-3,1.6721856E-4,1.1083459E-3,1.9188931E-3,4.7788344E-4],"categories":[],"categories_nodes":[],"categories_segments":[],"categories_sizes":[],"default_left":[0,0,0,0,0,0,0,0,0,0,0,0,0,0,0,0,0,0,0,0,0,0,0,0,0,0,0,0,0],"id":25,"left_children":[1,3,5,7,9,11,13,-1,15,17,19,21,23,25,27,-1,-1,-1,-1,-1,-1,-1,-1,-1,-1,-1,-1,-1,-1],"loss_changes":[1.6970127E0,2.3386455E-1,7.558037E-1,2.6377985E-1,2.1226907E-1,2.7023137E-1,3.5479033E-1,0E0,1.6703618E-1,1.9143574E-1,2.0794547E-1,1.2609667E-1,2.9404086E-1,2.1842866E-1,1.4704794E-1,0E0,0E0,0E0,0E0,0E0,0E0,0E0,0E0,0E0,0E0,0E0,0E0,0E0,0E0],"parents":[2147483647,0,0,1,1,2,2,3,3,4,4,5,5,6,6,8,8,9,9,10,10,11,11,12,12,13,13,14,14],"right_children":[2,4,6,8,10,12,14,-1,16,18,20,22,24,26,28,-1,-1,-1,-1,-1,-1,-1,-1,-1,-1,-1,-1,-1,-1],"split_conditions":[1.13620496E-4,-8.890554E-1,4.7083333E-2,1.3661385E-4,-2.7561188E-4,2.734661E-4,5.505085E-4,2.138309E-3,5.2944446E-1,2.7513504E-4,5.508661E-4,2.7287006E-4,5.514622E-4,2.758503E-4,8.188486E-4,4.0760206E-4,-3.6780484E-4,-1.4751396E-4,1.4592148E-3,-4.716963E-4,1.2684247E-3,1.4266015E-3,4.4503654E-3,7.799643E-4,2.7900853E-3,1.6721856E-4,1.1083459E-3,1.9188931E-3,4.7788344E-4],"split_indices":[9,20,22,0,3,19,16,0,22,19,18,17,17,3,17,0,0,0,0,0,0,0,0,0,0,0,0,0,0],"split_type":[0,0,0,0,0,0,0,0,0,0,0,0,0,0,0,0,0,0,0,0,0,0,0,0,0,0,0,0,0],"sum_hessian":[1.064E3,6.56E2,4.08E2,1.15E2,5.41E2,5E1,3.58E2,5E0,1.1E2,3.2E1,5.09E2,8E0,4.2E1,3.27E2,3.1E1,5E1,6E1,2.2E1,1E1,5.03E2,6E0,4E0,4E0,3.3E1,9E0,3.01E2,2.6E1,1.8E1,1.3E1],"tree_param":{"num_deleted":"0","num_feature":"23","num_nodes":"29","size_leaf_vector":"1"}},{"base_weights":[3.1114474E-4,-3.085584E-2,5.0400138E-2,-3.7643943E-2,2.0634335E-2,1.6345276E-1,3.417149E-2,-5.051356E-2,-1.6094556E-2,1.4262632E-1,2.2438332E-3,1.2543893E-1,3.2580185E-1,2.4309097E-2,1.3388067E-1,-4.1071794E-4,-1.2764332E-3,-1.2305405E-5,-9.134134E-4,2.3524286E-3,4.000812E-4,2.7942873E-4,-8.239948E-4,8.157899E-4,3.058788E-3,4.3361494E-3,1.5082833E-3,4.3639957E-4,-9.9244324E-5,2.1208045E-3,6.868711E-4],"categories":[],"categories_nodes":[],"categories_segments":[],"categories_sizes":[],"default_left":[0,0,0,0,0,0,0,0,0,0,0,0,0,0,0,0,0,0,0,0,0,0,0,0,0,0,0,0,0,0,0],"id":26,"left_children":[1,3,5,7,9,11,13,15,17,19,21,23,25,27,29,-1,-1,-1,-1,-1,-1,-1,-1,-1,-1,-1,-1,-1,-1,-1,-1],"loss_changes":[1.6643465E0,2.3058188E-1,7.428268E-1,1.5965104E-1,1.7098027E-1,2.6936638E-1,3.4819388E-1,2.5742203E-1,2.4390672E-1,8.287728E-2,1.4967504E-1,3.1147766E-1,9.853411E-2,2.1782874E-1,1.45765E-1,0E0,0E0,0E0,0E0,0E0,0E0,0E0,0E0,0E0,0E0,0E0,0E0,0E0,0E0,0E0,0E0],"parents":[2147483647,0,0,1,1,2,2,3,3,4,4,5,5,6,6,7,7,8,8,9,9,10,10,11,11,12,12,13,13,14,14],"right_children":[2,4,6,8,10,12,14,16,18,20,22,24,26,28,30,-1,-1,-1,-1,-1,-1,-1,-1,-1,-1,-1,-1,-1,-1,-1,-1],"split_conditions":[1.13620496E-4,2.7608871E-4,4.7083333E-2,1.0361764E-4,1.8770833E-1,4.2847224E-2,5.505085E-4,1.4752087E-4,1.3480287E-4,1.374552E-4,2.7382374E-4,5.4728985E-4,-2.734661E-4,1.5579436E-4,1.5627271E-4,-4.1071794E-4,-1.2764332E-3,-1.2305405E-5,-9.134134E-4,2.3524286E-3,4.000812E-4,2.7942873E-4,-8.239948E-4,8.157899E-4,3.058788E-3,4.3361494E-3,1.5082833E-3,4.3639957E-4,-9.9244324E-5,2.1208045E-3,6.868711E-4],"split_indices":[9,15,22,8,22,22,16,5,7,6,3,3,3,5,5,0,0,0,0,0,0,0,0,0,0,0,0,0,0,0,0],"split_type":[0,0,0,0,0,0,0,0,0,0,0,0,0,0,0,0,0,0,0,0,0,0,0,0,0,0,0,0,0,0,0],"sum_hessian":[1.064E3,6.56E2,4.08E2,5.8E2,7.6E1,5E1,3.58E2,3.62E2,2.18E2,9E0,6.7E1,4.2E1,8E0,3.27E2,3.1E1,3.24E2,3.8E1,1.83E2,3.5E1,4E0,5E0,5.2E1,1.5E1,3.5E1,7E0,4E0,4E0,2.09E2,1.18E2,1.3E1,1.8E1],"tree_param":{"num_deleted":"0","num_feature":"23","num_nodes":"31","size_leaf_vector":"1"}},{"base_weights":[3.200126E-4,-3.0548053E-2,4.992881E-2,9.782054E-3,-3.9141677E-2,1.6201468E-1,3.3838816E-2,2.1151924E-3,-1.1206948E-3,-2.3713157E-2,-6.453936E-2,3.233826E-1,1.2423967E-1,2.4066731E-2,1.3263272E-1,4.055011E-4,-3.6105784E-4,-5.3570815E-4,-5.2229025E-6,-8.421676E-4,9.583813E-6,1.4041763E-3,4.39671E-3,7.5953134E-4,2.749899E-3,1.6317112E-4,1.0948593E-3,1.9669496E-3,5.565206E-4],"categories":[],"categories_nodes":[],"categories_segments":[],"categories_sizes":[],"default_left":[0,0,0,0,0,0,0,0,0,0,0,0,0,0,0,0,0,0,0,0,0,0,0,0,0,0,0,0,0],"id":27,"left_children":[1,3,5,7,9,11,13,-1,15,17,19,21,23,25,27,-1,-1,-1,-1,-1,-1,-1,-1,-1,-1,-1,-1,-1,-1],"loss_changes":[1.632583E0,2.2838068E-1,7.3017454E-1,2.5748184E-1,2.0996898E-1,2.662263E-1,3.4182766E-1,0E0,1.6324177E-1,2.3416314E-1,2.638337E-1,1.2395185E-1,2.886101E-1,2.1408044E-1,1.4433974E-1,0E0,0E0,0E0,0E0,0E0,0E0,0E0,0E0,0E0,0E0,0E0,0E0,0E0,0E0],"parents":[2147483647,0,0,1,1,2,2,3,3,4,4,5,5,6,6,8,8,9,9,10,10,11,11,12,12,13,13,14,14],"right_children":[2,4,6,8,10,12,14,-1,16,18,20,22,24,26,28,-1,-1,-1,-1,-1,-1,-1,-1,-1,-1,-1,-1,-1,-1],"split_conditions":[1.13620496E-4,-8.890554E-1,4.7083333E-2,1.3661385E-4,5.999428E-1,2.734661E-4,5.505085E-4,2.1151924E-3,5.2944446E-1,9.183247E-5,2.7632713E-4,2.7287006E-4,5.514622E-4,2.758503E-4,8.201599E-4,4.055011E-4,-3.6105784E-4,-5.3570815E-4,-5.2229025E-6,-8.421676E-4,9.583813E-6,1.4041763E-3,4.39671E-3,7.5953134E-4,2.749899E-3,1.6317112E-4,1.0948593E-3,1.9669496E-3,5.565206E-4],"split_indices":[9,20,22,0,11,19,16,0,22,9,4,17,17,3,16,0,0,0,0,0,0,0,0,0,0,0,0,0,0],"split_type":[0,0,0,0,0,0,0,0,0,0,0,0,0,0,0,0,0,0,0,0,0,0,0,0,0,0,0,0,0],"sum_hessian":[1.064E3,6.56E2,4.08E2,1.15E2,5.41E2,5E1,3.58E2,5E0,1.1E2,3.38E2,2.03E2,8E0,4.2E1,3.27E2,3.1E1,5E1,6E1,1.47E2,1.91E2,1.56E2,4.7E1,4E0,4E0,3.3E1,9E0,3.01E2,2.6E1,1.6E1,1.5E1],"tree_param":{"num_deleted":"0","num_feature":"23","num_nodes":"29","size_leaf_vector":"1"}},{"base_weights":[3.3040432E-4,-3.0241381E-2,4.9463246E-2,9.702854E-3,-3.8752984E-2,1.6058297E-1,3.35118E-2,2.0975657E-3,-1.1081835E-3,3.8055122E-2,-4.3666545E-2,1.22943655E-1,3.2146156E-1,2.3830207E-2,1.3138838E-1,4.015257E-4,-3.5750648E-4,-1.4127833E-4,1.4461447E-3,-4.5948123E-4,1.2541693E-3,7.945992E-4,3.020025E-3,4.2801485E-3,1.48616E-3,4.2958956E-4,-1.0042625E-4,2.0878841E-3,6.691528E-4],"categories":[],"categories_nodes":[],"categories_segments":[],"categories_sizes":[],"default_left":[0,0,0,0,0,0,0,0,0,0,0,0,0,0,0,0,0,0,0,0,0,0,0,0,0,0,0,0,0],"id":28,"left_children":[1,3,5,7,9,11,13,-1,15,17,19,21,23,25,27,-1,-1,-1,-1,-1,-1,-1,-1,-1,-1,-1,-1,-1,-1],"loss_changes":[1.6014019E0,2.2403967E-1,7.176385E-1,2.5320238E-1,2.062692E-1,2.6485765E-1,3.3550563E-1,0E0,1.60052E-1,1.8684717E-1,2.0171475E-1,3.0699265E-1,9.63791E-2,2.1328649E-1,1.4295888E-1,0E0,0E0,0E0,0E0,0E0,0E0,0E0,0E0,0E0,0E0,0E0,0E0,0E0,0E0],"parents":[2147483647,0,0,1,1,2,2,3,3,4,4,5,5,6,6,8,8,9,9,10,10,11,11,12,12,13,13,14,14],"right_children":[2,4,6,8,10,12,14,-1,16,18,20,22,24,26,28,-1,-1,-1,-1,-1,-1,-1,-1,-1,-1,-1,-1,-1,-1],"split_conditions":[1.13620496E-4,-8.890554E-1,4.7083333E-2,1.3661385E-4,-2.7561188E-4,4.2847224E-2,5.505085E-4,2.0975657E-3,5.2944446E-1,2.7513504E-4,5.508661E-4,5.4728985E-4,-2.734661E-4,1.5579436E-4,1.5627271E-4,4.015257E-4,-3.5750648E-4,-1.4127833E-4,1.4461447E-3,-4.5948123E-4,1.2541693E-3,7.945992E-4,3.020025E-3,4.2801485E-3,1.48616E-3,4.2958956E-4,-1.0042625E-4,2.0878841E-3,6.691528E-4],"split_indices":[9,20,22,0,3,22,16,0,22,19,18,3,3,5,5,0,0,0,0,0,0,0,0,0,0,0,0,0,0],"split_type":[0,0,0,0,0,0,0,0,0,0,0,0,0,0,0,0,0,0,0,0,0,0,0,0,0,0,0,0,0],"sum_hessian":[1.064E3,6.56E2,4.08E2,1.15E2,5.41E2,5E1,3.58E2,5E0,1.1E2,3.2E1,5.09E2,4.2E1,8E0,3.27E2,3.1E1,5E1,6E1,2.2E1,1E1,5.03E2,6E0,3.5E1,7E0,4E0,4E0,2.09E2,1.18E2,1.3E1,1.8E1],"tree_param":{"num_deleted":"0","num_feature":"23","num_nodes":"29","size_leaf_vector":"1"}},{"base_weights":[3.4354214E-4,-2.9932203E-2,4.9000807E-2,-3.6573336E-2,2.0437026E-2,1.591709E-1,3.3185553E-2,-5.4177873E-2,-2.1294761E-2,1.4064372E-1,2.3119699E-3,3.1921628E-1,1.21738814E-1,2.3266232E-2,1.2702417E-1,-7.7017053E-4,-1.9324866E-4,1.01251295E-4,-4.2856325E-4,2.3185147E-3,3.9529955E-4,2.7668325E-4,-8.1200455E-4,1.3821354E-3,4.3437574E-3,3.6366357E-5,1.7828342E-3,4.25314E-4,-1.14256625E-4,2.027686E-3,6.336464E-4],"categories":[],"categories_nodes":[],"categories_segments":[],"categories_sizes":[],"default_left":[0,0,0,0,0,0,0,0,0,0,0,0,0,0,0,0,0,0,0,0,0,0,0,0,0,0,0,0,0,0,0],"id":29,"left_children":[1,3,5,7,9,11,13,15,17,19,21,23,25,27,29,-1,-1,-1,-1,-1,-1,-1,-1,-1,-1,-1,-1,-1,-1,-1,-1],"loss_changes":[1.570546E0,2.2068107E-1,7.0542276E-1,1.5436447E-1,1.6600925E-1,2.6226175E-1,3.2970455E-1,2.11676E-1,2.1280687E-1,8.034468E-2,1.4570618E-1,1.2183511E-1,2.8468823E-1,2.1867755E-1,1.4843333E-1,0E0,0E0,0E0,0E0,0E0,0E0,0E0,0E0,0E0,0E0,0E0,0E0,0E0,0E0,0E0,0E0],"parents":[2147483647,0,0,1,1,2,2,3,3,4,4,5,5,6,6,7,7,8,8,9,9,10,10,11,11,12,12,13,13,14,14],"right_children":[2,4,6,8,10,12,14,16,18,20,22,24,26,28,30,-1,-1,-1,-1,-1,-1,-1,-1,-1,-1,-1,-1,-1,-1,-1,-1],"split_conditions":[1.13620496E-4,2.7608871E-4,4.7083333E-2,9.284552E-5,1.8770833E-1,2.734661E-4,5.5003166E-4,1.0001659E-3,-1.373291E-4,1.374552E-4,2.7382374E-4,2.7287006E-4,2.4999006E-1,1.5579436E-4,1.5627271E-4,-7.7017053E-4,-1.9324866E-4,1.01251295E-4,-4.2856325E-4,2.3185147E-3,3.9529955E-4,2.7668325E-4,-8.1200455E-4,1.3821354E-3,4.3437574E-3,3.6366357E-5,1.7828342E-3,4.25314E-4,-1.14256625E-4,2.027686E-3,6.336464E-4],"split_indices":[9,15,22,9,22,19,16,21,0,6,3,17,14,5,5,0,0,0,0,0,0,0,0,0,0,0,0,0,0,0,0],"split_type":[0,0,0,0,0,0,0,0,0,0,0,0,0,0,0,0,0,0,0,0,0,0,0,0,0,0,0,0,0,0,0],"sum_hessian":[1.064E3,6.56E2,4.08E2,5.8E2,7.6E1,5E1,3.58E2,2.68E2,3.12E2,9E0,6.7E1,8E0,4.2E1,3.25E2,3.3E1,1.61E2,1.07E2,1.27E2,1.85E2,4E0,5E0,5.2E1,1.5E1,4E0,4E0,1.4E1,2.8E1,2.09E2,1.16E2,1.4E1,1.9E1],"tree_param":{"num_deleted":"0","num_feature":"23","num_nodes":"31","size_leaf_vector":"1"}},{"base_weights":[3.5128754E-4,-2.9631376E-2,4.853774E-2,9.983515E-3,-3.8073618E-2,1.5773301E-1,3.286226E-2,2.0746696E-3,-6.9111696E-4,-2.2911986E-2,-6.303303E-2,1.20450504E-1,3.1722355E-1,2.3034224E-2,1.2583514E-1,4.0084217E-4,-3.4934573E-4,-5.217745E-4,-1.8176967E-6,-6.894663E-4,1.4194022E-3,7.747588E-4,2.9753E-3,4.2300154E-3,1.460008E-3,4.2108117E-4,-1.13123766E-4,2.008761E-3,6.276266E-4],"categories":[],"categories_nodes":[],"categories_segments":[],"categories_sizes":[],"default_left":[0,0,0,0,0,0,0,0,0,0,0,0,0,0,0,0,0,0,0,0,0,0,0,0,0,0,0,0,0],"id":30,"left_children":[1,3,5,7,9,11,13,-1,15,17,19,21,23,25,27,-1,-1,-1,-1,-1,-1,-1,-1,-1,-1,-1,-1,-1,-1],"loss_changes":[1.5402948E0,2.2038722E-1,6.9299096E-1,2.4674645E-1,2.028029E-1,2.6067007E-1,3.2364586E-1,0E0,1.5633684E-1,2.2497326E-1,2.563309E-1,3.0042535E-1,9.555578E-2,2.1435453E-1,1.456787E-1,0E0,0E0,0E0,0E0,0E0,0E0,0E0,0E0,0E0,0E0,0E0,0E0,0E0,0E0],"parents":[2147483647,0,0,1,1,2,2,3,3,4,4,5,5,6,6,8,8,9,9,10,10,11,11,12,12,13,13,14,14],"right_children":[2,4,6,8,10,12,14,-1,16,18,20,22,24,26,28,-1,-1,-1,-1,-1,-1,-1,-1,-1,-1,-1,-1,-1,-1],"split_conditions":[1.13620496E-4,-8.890554E-1,4.7083333E-2,1.3661385E-4,5.999428E-1,4.2847224E-2,5.5003166E-4,2.0746696E-3,5.2944446E-1,9.183247E-5,5.508661E-4,5.4728985E-4,-2.734661E-4,1.5579436E-4,1.5627271E-4,4.0084217E-4,-3.4934573E-4,-5.217745E-4,-1.8176967E-6,-6.894663E-4,1.4194022E-3,7.747588E-4,2.9753E-3,4.2300154E-3,1.460008E-3,4.2108117E-4,-1.13123766E-4,2.008761E-3,6.276266E-4],"split_indices":[9,20,22,0,11,22,16,0,22,9,18,3,3,5,5,0,0,0,0,0,0,0,0,0,0,0,0,0,0],"split_type":[0,0,0,0,0,0,0,0,0,0,0,0,0,0,0,0,0,0,0,0,0,0,0,0,0,0,0,0,0],"sum_hessian":[1.064E3,6.56E2,4.08E2,1.15E2,5.41E2,5E1,3.58E2,5E0,1.1E2,3.38E2,2.03E2,4.2E1,8E0,3.25E2,3.3E1,5E1,6E1,1.47E2,1.91E2,1.98E2,5E0,3.5E1,7E0,4E0,4E0,2.09E2,1.16E2,1.4E1,1.9E1],"tree_param":{"num_deleted":"0","num_feature":"23","num_nodes":"29","size_leaf_vector":"1"}},{"base_weights":[3.619709E-4,-2.9331509E-2,4.8083864E-2,9.90201E-3,-3.7692685E-2,1.5634665E-1,3.254212E-2,2.0573807E-3,-6.828416E-4,3.7983485E-2,-4.2535078E-2,3.1510985E-1,1.1924862E-1,2.3117555E-2,1.2781449E-1,3.9691234E-4,-3.4590956E-4,-1.3558367E-4,1.4320886E-3,-5.845976E-4,-1.7914965E-4,1.3604792E-3,4.2914976E-3,7.1653596E-4,2.6814684E-3,1.5453155E-4,1.0761871E-3,1.9105321E-3,5.200993E-4],"categories":[],"categories_nodes":[],"categories_segments":[],"categories_sizes":[],"default_left":[0,0,0,0,0,0,0,0,0,0,0,0,0,0,0,0,0,0,0,0,0,0,0,0,0,0,0,0,0],"id":31,"left_children":[1,3,5,7,9,11,13,-1,15,17,19,21,23,25,27,-1,-1,-1,-1,-1,-1,-1,-1,-1,-1,-1,-1,-1,-1],"loss_changes":[1.510734E0,2.1617234E-1,6.8120354E-1,2.4264695E-1,2.0027912E-1,2.584598E-1,3.1788227E-1,0E0,1.5328194E-1,1.8221405E-1,1.9814342E-1,1.19745076E-1,2.8212136E-1,2.0953566E-1,1.4103377E-1,0E0,0E0,0E0,0E0,0E0,0E0,0E0,0E0,0E0,0E0,0E0,0E0,0E0,0E0],"parents":[2147483647,0,0,1,1,2,2,3,3,4,4,5,5,6,6,8,8,9,9,10,10,11,11,12,12,13,13,14,14],"right_children":[2,4,6,8,10,12,14,-1,16,18,20,22,24,26,28,-1,-1,-1,-1,-1,-1,-1,-1,-1,-1,-1,-1,-1,-1],"split_conditions":[1.13620496E-4,-8.890554E-1,4.7083333E-2,1.3661385E-4,-2.7561188E-4,2.734661E-4,5.505085E-4,2.0573807E-3,5.2944446E-1,2.7513504E-4,1.0001659E-3,2.7287006E-4,5.514622E-4,2.758503E-4,8.201599E-4,3.9691234E-4,-3.4590956E-4,-1.3558367E-4,1.4320886E-3,-5.845976E-4,-1.7914965E-4,1.3604792E-3,4.2914976E-3,7.1653596E-4,2.6814684E-3,1.5453155E-4,1.0761871E-3,1.9105321E-3,5.200993E-4],"split_indices":[9,20,22,0,3,19,16,0,22,19,21,17,17,3,16,0,0,0,0,0,0,0,0,0,0,0,0,0,0],"split_type":[0,0,0,0,0,0,0,0,0,0,0,0,0,0,0,0,0,0,0,0,0,0,0,0,0,0,0,0,0],"sum_hessian":[1.064E3,6.56E2,4.08E2,1.15E2,5.41E2,5E1,3.58E2,5E0,1.1E2,3.2E1,5.09E2,8E0,4.2E1,3.27E2,3.1E1,5E1,6E1,2.2E1,1E1,3.08E2,2.01E2,4E0,4E0,3.3E1,9E0,3.01E2,2.6E1,1.6E1,1.5E1],"tree_param":{"num_deleted":"0","num_feature":"23","num_nodes":"29","size_leaf_vector":"1"}},{"base_weights":[3.733327E-4,-2.9034173E-2,4.763582E-2,9.82117E-3,-3.731496E-2,1.5496652E-1,3.222774E-2,2.040236E-3,-6.7464757E-4,-2.2343548E-2,-6.1961982E-2,1.1805216E-1,3.130055E-1,2.2576965E-2,1.2351964E-1,3.930211E-4,-3.4250712E-4,-5.13091E-4,4.835367E-7,-8.131782E-4,2.4302683E-5,7.544624E-4,2.9377227E-3,4.1754334E-3,1.4386658E-3,1.2935825E-4,9.093772E-4,2.685912E-3,8.8900706E-4],"categories":[],"categories_nodes":[],"categories_segments":[],"categories_sizes":[],"default_left":[0,0,0,0,0,0,0,0,0,0,0,0,0,0,0,0,0,0,0,0,0,0,0,0,0,0,0,0,0],"id":32,"left_children":[1,3,5,7,9,11,13,-1,15,17,19,21,23,25,27,-1,-1,-1,-1,-1,-1,-1,-1,-1,-1,-1,-1,-1,-1],"loss_changes":[1.4817827E0,2.1203291E-1,6.6952175E-1,2.3861547E-1,1.9777083E-1,2.562678E-1,3.120428E-1,0E0,1.5028673E-1,2.2038838E-1,2.552451E-1,2.9607266E-1,9.344816E-2,2.1264356E-1,1.4330268E-1,0E0,0E0,0E0,0E0,0E0,0E0,0E0,0E0,0E0,0E0,0E0,0E0,0E0,0E0],"parents":[2147483647,0,0,1,1,2,2,3,3,4,4,5,5,6,6,8,8,9,9,10,10,11,11,12,12,13,13,14,14],"right_children":[2,4,6,8,10,12,14,-1,16,18,20,22,24,26,28,-1,-1,-1,-1,-1,-1,-1,-1,-1,-1,-1,-1,-1,-1],"split_conditions":[1.13620496E-4,-8.890554E-1,4.7083333E-2,1.3661385E-4,5.999428E-1,4.2847224E-2,5.5003166E-4,2.040236E-3,5.2944446E-1,9.183247E-5,2.7632713E-4,5.4728985E-4,-2.734661E-4,2.7632713E-4,1.4127886E-4,3.930211E-4,-3.4250712E-4,-5.13091E-4,4.835367E-7,-8.131782E-4,2.4302683E-5,7.544624E-4,2.9377227E-3,4.1754334E-3,1.4386658E-3,1.2935825E-4,9.093772E-4,2.685912E-3,8.8900706E-4],"split_indices":[9,20,22,0,11,22,16,0,22,9,4,3,3,4,5,0,0,0,0,0,0,0,0,0,0,0,0,0,0],"split_type":[0,0,0,0,0,0,0,0,0,0,0,0,0,0,0,0,0,0,0,0,0,0,0,0,0,0,0,0,0],"sum_hessian":[1.064E3,6.56E2,4.08E2,1.15E2,5.41E2,5E1,3.58E2,5E0,1.1E2,3.38E2,2.03E2,4.2E1,8E0,3.25E2,3.3E1,5E1,6E1,1.47E2,1.91E2,1.56E2,4.7E1,3.5E1,7E0,4E0,4E0,2.86E2,3.9E1,5E0,2.8E1],"tree_param":{"num_deleted":"0","num_feature":"23","num_nodes":"29","size_leaf_vector":"1"}},{"base_weights":[3.8415805E-4,-2.8742325E-2,4.7195196E-2,-3.5209224E-2,2.0296765E-2,1.5360521E-1,3.1919137E-2,-3.9396618E-2,2.7151335E-2,1.3846892E-1,2.4729664E-3,3.1106192E-1,1.1684437E-1,2.2664087E-2,1.2547342E-1,-2.7653718E-4,-7.27759E-4,7.5909815E-4,-5.765972E-4,2.2840095E-3,3.8780726E-4,2.74191E-4,-7.9690665E-4,1.3389561E-3,4.2401585E-3,6.9743796E-4,2.643019E-3,1.5105763E-4,1.0599557E-3,1.8037979E-3,4.1280978E-4],"categories":[],"categories_nodes":[],"categories_segments":[],"categories_sizes":[],"default_left":[0,0,0,0,0,0,0,0,0,0,0,0,0,0,0,0,0,0,0,0,0,0,0,0,0,0,0,0,0,0,0],"id":33,"left_children":[1,3,5,7,9,11,13,15,17,19,21,23,25,27,29,-1,-1,-1,-1,-1,-1,-1,-1,-1,-1,-1,-1,-1,-1,-1,-1],"loss_changes":[1.4536057E0,2.0921868E-1,6.580817E-1,1.5290773E-1,1.6043146E-1,2.5457537E-1,3.0651492E-1,2.106067E-1,1.5756398E-1,7.812224E-2,1.4103955E-1,1.1775172E-1,2.768755E-1,2.0377743E-1,1.3826352E-1,0E0,0E0,0E0,0E0,0E0,0E0,0E0,0E0,0E0,0E0,0E0,0E0,0E0,0E0,0E0,0E0],"parents":[2147483647,0,0,1,1,2,2,3,3,4,4,5,5,6,6,7,7,8,8,9,9,10,10,11,11,12,12,13,13,14,14],"right_children":[2,4,6,8,10,12,14,16,18,20,22,24,26,28,30,-1,-1,-1,-1,-1,-1,-1,-1,-1,-1,-1,-1,-1,-1,-1,-1],"split_conditions":[1.13620496E-4,2.7608871E-4,4.7083333E-2,4.107952E-4,1.8770833E-1,2.734661E-4,5.505085E-4,2.734661E-4,6.404167E-1,1.0306287E-4,2.7382374E-4,2.734661E-4,5.514622E-4,2.758503E-4,8.188486E-4,-2.7653718E-4,-7.27759E-4,7.5909815E-4,-5.765972E-4,2.2840095E-3,3.8780726E-4,2.74191E-4,-7.9690665E-4,1.3389561E-3,4.2401585E-3,6.9743796E-4,2.643019E-3,1.5105763E-4,1.0599557E-3,1.8037979E-3,4.1280978E-4],"split_indices":[9,15,22,4,22,19,16,4,22,9,3,16,17,3,17,0,0,0,0,0,0,0,0,0,0,0,0,0,0,0,0],"split_type":[0,0,0,0,0,0,0,0,0,0,0,0,0,0,0,0,0,0,0,0,0,0,0,0,0,0,0,0,0,0,0],"sum_hessian":[1.064E3,6.56E2,4.08E2,5.8E2,7.6E1,5E1,3.58E2,5.44E2,3.6E1,9E0,6.7E1,8E0,4.2E1,3.27E2,3.1E1,4.04E2,1.4E2,2.3E1,1.3E1,4E0,5E0,5.2E1,1.5E1,4E0,4E0,3.3E1,9E0,3.01E2,2.6E1,1.8E1,1.3E1],"tree_param":{"num_deleted":"0","num_feature":"23","num_nodes":"31","size_leaf_vector":"1"}},{"base_weights":[3.9381182E-4,-2.8452728E-2,4.675514E-2,1.0064667E-2,-3.666226E-2,1.5224993E-1,3.161032E-2,2.0185173E-3,-3.02784E-4,3.7916623E-2,-4.143567E-2,1.1570028E-1,3.0884826E-1,1.7315462E-2,9.129429E-2,3.9162373E-4,-3.3457216E-4,-1.2990848E-4,1.4182164E-3,-6.982963E-6,-5.0856173E-4,7.35407E-4,2.8970584E-3,4.1215825E-3,1.4176858E-3,1.0897109E-3,1.8080536E-5,-3.1306292E-4,1.2611493E-3],"categories":[],"categories_nodes":[],"categories_segments":[],"categories_sizes":[],"default_left":[0,0,0,0,0,0,0,0,0,0,0,0,0,0,0,0,0,0,0,0,0,0,0,0,0,0,0,0,0],"id":34,"left_children":[1,3,5,7,9,11,13,-1,15,17,19,21,23,25,27,-1,-1,-1,-1,-1,-1,-1,-1,-1,-1,-1,-1,-1,-1],"loss_changes":[1.4258058E0,2.0838475E-1,6.468077E-1,2.327244E-1,1.94556E-1,2.51925E-1,3.0362254E-1,0E0,1.4649059E-1,1.7768556E-1,1.9516993E-1,2.9051042E-1,9.137869E-2,4.1230547E-1,2.9945946E-1,0E0,0E0,0E0,0E0,0E0,0E0,0E0,0E0,0E0,0E0,0E0,0E0,0E0,0E0],"parents":[2147483647,0,0,1,1,2,2,3,3,4,4,5,5,6,6,8,8,9,9,10,10,11,11,12,12,13,13,14,14],"right_children":[2,4,6,8,10,12,14,-1,16,18,20,22,24,26,28,-1,-1,-1,-1,-1,-1,-1,-1,-1,-1,-1,-1,-1,-1],"split_conditions":[1.13620496E-4,-8.890554E-1,4.7083333E-2,1.3661385E-4,-2.7561188E-4,4.2847224E-2,2.7489662E-4,2.0185173E-3,5.2944446E-1,2.7513504E-4,7.723928E-5,5.4728985E-4,-2.734661E-4,-5.4705143E-4,1.3637543E-4,3.9162373E-4,-3.3457216E-4,-1.2990848E-4,1.4182164E-3,-6.982963E-6,-5.0856173E-4,7.35407E-4,2.8970584E-3,4.1215825E-3,1.4176858E-3,1.0897109E-3,1.8080536E-5,-3.1306292E-4,1.2611493E-3],"split_indices":[9,20,22,0,3,22,4,0,22,19,6,3,3,4,2,0,0,0,0,0,0,0,0,0,0,0,0,0,0],"split_type":[0,0,0,0,0,0,0,0,0,0,0,0,0,0,0,0,0,0,0,0,0,0,0,0,0,0,0,0,0],"sum_hessian":[1.064E3,6.56E2,4.08E2,1.15E2,5.41E2,5E1,3.58E2,5E0,1.1E2,3.2E1,5.09E2,4.2E1,8E0,2.9E2,6.8E1,5E1,6E1,2.2E1,1E1,9.6E1,4.13E2,3.5E1,7E0,4E0,4E0,4.1E1,2.49E2,1.5E1,5.3E1],"tree_param":{"num_deleted":"0","num_feature":"23","num_nodes":"29","size_leaf_vector":"1"}},{"base_weights":[4.0346294E-4,-2.8163867E-2,4.6316255E-2,9.981908E-3,-3.6294393E-2,1.5091315E-1,3.1300217E-2,2.0016963E-3,-2.9834762E-4,-2.156014E-2,-6.0552325E-2,3.07072E-1,1.14486575E-1,2.1858333E-2,1.2061651E-1,3.877842E-4,-3.312813E-4,-5.021676E-4,5.895501E-6,-6.6373346E-4,1.4093706E-3,1.3124724E-3,4.194824E-3,-0E0,1.6981226E-3,4.07244E-4,-1.2105192E-4,1.943897E-3,5.875579E-4],"categories":[],"categories_nodes":[],"categories_segments":[],"categories_sizes":[],"default_left":[0,0,0,0,0,0,0,0,0,0,0,0,0,0,0,0,0,0,0,0,0,0,0,0,0,0,0,0,0],"id":35,"left_children":[1,3,5,7,9,11,13,-1,15,17,19,21,23,25,27,-1,-1,-1,-1,-1,-1,-1,-1,-1,-1,-1,-1,-1,-1],"loss_changes":[1.3983463E0,2.0439082E-1,6.358423E-1,2.2885913E-1,1.9159645E-1,2.5073385E-1,2.9868856E-1,0E0,1.4362805E-1,2.1570115E-1,2.4787521E-1,1.173175E-1,2.7264136E-1,2.0966631E-1,1.412116E-1,0E0,0E0,0E0,0E0,0E0,0E0,0E0,0E0,0E0,0E0,0E0,0E0,0E0,0E0],"parents":[2147483647,0,0,1,1,2,2,3,3,4,4,5,5,6,6,8,8,9,9,10,10,11,11,12,12,13,13,14,14],"right_children":[2,4,6,8,10,12,14,-1,16,18,20,22,24,26,28,-1,-1,-1,-1,-1,-1,-1,-1,-1,-1,-1,-1,-1,-1],"split_conditions":[1.13620496E-4,-8.890554E-1,4.7083333E-2,1.3661385E-4,5.999428E-1,2.734661E-4,5.5003166E-4,2.0016963E-3,5.2944446E-1,9.183247E-5,5.508661E-4,2.7287006E-4,2.4999006E-1,1.5579436E-4,1.5627271E-4,3.877842E-4,-3.312813E-4,-5.021676E-4,5.895501E-6,-6.6373346E-4,1.4093706E-3,1.3124724E-3,4.194824E-3,-0E0,1.6981226E-3,4.07244E-4,-1.2105192E-4,1.943897E-3,5.875579E-4],"split_indices":[9,20,22,0,11,19,16,0,22,9,18,17,14,5,5,0,0,0,0,0,0,0,0,0,0,0,0,0,0],"split_type":[0,0,0,0,0,0,0,0,0,0,0,0,0,0,0,0,0,0,0,0,0,0,0,0,0,0,0,0,0],"sum_hessian":[1.064E3,6.56E2,4.08E2,1.15E2,5.41E2,5E1,3.58E2,5E0,1.1E2,3.38E2,2.03E2,8E0,4.2E1,3.25E2,3.3E1,5E1,6E1,1.47E2,1.91E2,1.98E2,5E0,4E0,4E0,1.4E1,2.8E1,2.09E2,1.16E2,1.4E1,1.9E1],"tree_param":{"num_deleted":"0","num_feature":"23","num_nodes":"29","size_leaf_vector":"1"}},{"base_weights":[4.1145796E-4,-2.7878415E-2,4.5878537E-2,-3.422185E-2,2.0217875E-2,1.495489E-1,3.0995341E-2,-3.8378924E-2,2.7665367E-2,1.3669868E-1,2.6439647E-3,1.1334652E-1,3.0478817E-1,1.6857157E-2,9.002746E-2,-2.677664E-4,-7.1361515E-4,7.579697E-4,-5.6107756E-4,2.253311E-3,3.8388543E-4,2.7226703E-4,-7.8326603E-4,7.1681413E-4,2.8542115E-3,4.073428E-3,1.392759E-3,1.0747173E-3,1.5264808E-5,-3.1161218E-4,1.2445322E-3],"categories":[],"categories_nodes":[],"categories_segments":[],"categories_sizes":[],"default_left":[0,0,0,0,0,0,0,0,0,0,0,0,0,0,0,0,0,0,0,0,0,0,0,0,0,0,0,0,0,0,0],"id":36,"left_children":[1,3,5,7,9,11,13,15,17,19,21,23,25,27,29,-1,-1,-1,-1,-1,-1,-1,-1,-1,-1,-1,-1,-1,-1,-1,-1],"loss_changes":[1.3713237E0,2.0127982E-1,6.246243E-1,1.5064263E-1,1.5586595E-1,2.4789357E-1,2.9703748E-1,2.0566475E-1,1.5363866E-1,7.584733E-2,1.369741E-1,2.8425837E-1,9.056729E-2,4.0299815E-1,2.926799E-1,0E0,0E0,0E0,0E0,0E0,0E0,0E0,0E0,0E0,0E0,0E0,0E0,0E0,0E0,0E0,0E0],"parents":[2147483647,0,0,1,1,2,2,3,3,4,4,5,5,6,6,7,7,8,8,9,9,10,10,11,11,12,12,13,13,14,14],"right_children":[2,4,6,8,10,12,14,16,18,20,22,24,26,28,30,-1,-1,-1,-1,-1,-1,-1,-1,-1,-1,-1,-1,-1,-1,-1,-1],"split_conditions":[1.13620496E-4,2.7608871E-4,4.7083333E-2,4.107952E-4,1.8770833E-1,4.2847224E-2,2.7489662E-4,2.734661E-4,6.404167E-1,1.374552E-4,2.7382374E-4,5.4728985E-4,-2.734661E-4,-5.4705143E-4,1.3637543E-4,-2.677664E-4,-7.1361515E-4,7.579697E-4,-5.6107756E-4,2.253311E-3,3.8388543E-4,2.7226703E-4,-7.8326603E-4,7.1681413E-4,2.8542115E-3,4.073428E-3,1.392759E-3,1.0747173E-3,1.5264808E-5,-3.1161218E-4,1.2445322E-3],"split_indices":[9,15,22,4,22,22,4,4,22,6,3,3,3,4,2,0,0,0,0,0,0,0,0,0,0,0,0,0,0,0,0],"split_type":[0,0,0,0,0,0,0,0,0,0,0,0,0,0,0,0,0,0,0,0,0,0,0,0,0,0,0,0,0,0,0],"sum_hessian":[1.064E3,6.56E2,4.08E2,5.8E2,7.6E1,5E1,3.58E2,5.44E2,3.6E1,9E0,6.7E1,4.2E1,8E0,2.9E2,6.8E1,4.04E2,1.4E2,2.3E1,1.3E1,4E0,5E0,5.2E1,1.5E1,3.5E1,7E0,4E0,4E0,4.1E1,2.49E2,1.5E1,5.3E1],"tree_param":{"num_deleted":"0","num_feature":"23","num_nodes":"31","size_leaf_vector":"1"}},{"base_weights":[4.1945887E-4,-2.7597435E-2,4.5448016E-2,1.0198711E-2,-3.565418E-2,1.482365E-1,3.0691301E-2,1.980345E-3,-0E0,3.789422E-2,-4.036289E-2,3.0313924E-1,1.12135075E-1,1.669268E-2,8.9139245E-2,3.8599284E-4,-3.2356067E-4,-1.2443557E-4,1.4061009E-3,-0E0,-4.972677E-4,1.2919636E-3,4.144543E-3,6.57081E-4,2.5777328E-3,1.0642259E-3,1.511283E-5,-3.086908E-4,1.2323172E-3],"categories":[],"categories_nodes":[],"categories_segments":[],"categories_sizes":[],"default_left":[0,0,0,0,0,0,0,0,0,0,0,0,0,0,0,0,0,0,0,0,0,0,0,0,0,0,0,0,0],"id":37,"left_children":[1,3,5,7,9,11,13,-1,15,17,19,21,23,25,27,-1,-1,-1,-1,-1,-1,-1,-1,-1,-1,-1,-1,-1,-1],"loss_changes":[1.3449945E0,2.0068383E-1,6.140406E-1,2.2324038E-1,1.8925864E-1,2.4705744E-1,2.9118416E-1,0E0,1.3984698E-1,1.7365748E-1,1.9284606E-1,1.15279675E-1,2.7057362E-1,3.951674E-1,2.8703296E-1,0E0,0E0,0E0,0E0,0E0,0E0,0E0,0E0,0E0,0E0,0E0,0E0,0E0,0E0],"parents":[2147483647,0,0,1,1,2,2,3,3,4,4,5,5,6,6,8,8,9,9,10,10,11,11,12,12,13,13,14,14],"right_children":[2,4,6,8,10,12,14,-1,16,18,20,22,24,26,28,-1,-1,-1,-1,-1,-1,-1,-1,-1,-1,-1,-1,-1,-1],"split_conditions":[1.13620496E-4,-8.890554E-1,4.7083333E-2,1.3661385E-4,-2.7561188E-4,2.734661E-4,2.7489662E-4,1.980345E-3,5.2944446E-1,2.7513504E-4,7.723928E-5,2.7287006E-4,5.514622E-4,-5.4705143E-4,1.3637543E-4,3.8599284E-4,-3.2356067E-4,-1.2443557E-4,1.4061009E-3,-0E0,-4.972677E-4,1.2919636E-3,4.144543E-3,6.57081E-4,2.5777328E-3,1.0642259E-3,1.511283E-5,-3.086908E-4,1.2323172E-3],"split_indices":[9,20,22,0,3,19,4,0,22,19,6,17,17,4,2,0,0,0,0,0,0,0,0,0,0,0,0,0,0],"split_type":[0,0,0,0,0,0,0,0,0,0,0,0,0,0,0,0,0,0,0,0,0,0,0,0,0,0,0,0,0],"sum_hessian":[1.064E3,6.56E2,4.08E2,1.15E2,5.41E2,5E1,3.58E2,5E0,1.1E2,3.2E1,5.09E2,8E0,4.2E1,2.9E2,6.8E1,5E1,6E1,2.2E1,1E1,9.6E1,4.13E2,4E0,4E0,3.3E1,9E0,4.1E1,2.49E2,1.5E1,5.3E1],"tree_param":{"num_deleted":"0","num_feature":"23","num_nodes":"29","size_leaf_vector":"1"}},{"base_weights":[4.2843094E-4,-2.313056E-2,5.3001128E-2,-4.622493E-2,-7.902054E-3,3.3383485E-2,1.4237398E-1,-3.8359412E-3,-6.1610464E-2,-2.165831E-3,-1.08018056E-1,1.3513792E-1,6.92435E-3,9.3001164E-2,2.335009E-1,-4.5420587E-4,5.83484E-4,-1.1301885E-3,-4.3923117E-4,-1.2055979E-4,5.5293995E-4,-2.965092E-4,-1.8308094E-3,2.2861136E-3,9.178326E-4,-6.56762E-4,2.5300783E-4,2.05277E-3,6.6856097E-4,3.4324725E-3,6.011674E-4],"categories":[],"categories_nodes":[],"categories_segments":[],"categories_sizes":[],"default_left":[0,0,0,0,0,0,0,0,0,0,0,0,0,0,0,0,0,0,0,0,0,0,0,0,0,0,0,0,0,0,0],"id":38,"left_children":[1,3,5,7,9,11,13,15,17,19,21,23,25,27,29,-1,-1,-1,-1,-1,-1,-1,-1,-1,-1,-1,-1,-1,-1,-1,-1],"loss_changes":[1.3205907E0,2.579393E-1,5.7207334E-1,1.8954504E-1,2.5422224E-1,7.2995853E-1,2.404716E-1,2.0680813E-1,1.8805194E-1,2.4005102E-1,1.336233E-1,2.027539E-1,2.9076612E-1,1.0097295E-1,3.5589707E-1,0E0,0E0,0E0,0E0,0E0,0E0,0E0,0E0,0E0,0E0,0E0,0E0,0E0,0E0,0E0,0E0],"parents":[2147483647,0,0,1,1,2,2,3,3,4,4,5,5,6,6,7,7,8,8,9,9,10,10,11,11,12,12,13,13,14,14],"right_children":[2,4,6,8,10,12,14,16,18,20,22,24,26,28,30,-1,-1,-1,-1,-1,-1,-1,-1,-1,-1,-1,-1,-1,-1,-1,-1],"split_conditions":[1.18909615E-4,9.284552E-5,2.7525425E-4,7.5941054E-5,1.604324E-4,-2.7561188E-4,1.4932464E-4,8.6967644E-5,3.6395833E-1,2.7632713E-4,1.3720989E-4,6.423611E-2,-2.733469E-4,1.1330809E-4,5.493164E-4,-4.5420587E-4,5.83484E-4,-1.1301885E-3,-4.3923117E-4,-1.2055979E-4,5.5293995E-4,-2.965092E-4,-1.8308094E-3,2.2861136E-3,9.178326E-4,-6.56762E-4,2.5300783E-4,2.05277E-3,6.6856097E-4,3.4324725E-3,6.011674E-4],"split_indices":[9,9,4,6,6,4,8,5,22,19,3,22,3,8,4,0,0,0,0,0,0,0,0,0,0,0,0,0,0,0,0],"split_type":[0,0,0,0,0,0,0,0,0,0,0,0,0,0,0,0,0,0,0,0,0,0,0,0,0,0,0,0,0,0,0],"sum_hessian":[1.064E3,7.35E2,3.29E2,2.91E2,4.44E2,2.71E2,5.8E1,7.8E1,2.13E2,4.21E2,2.3E1,5.5E1,2.16E2,3.9E1,1.9E1,4.7E1,3.1E1,5.3E1,1.6E2,3.6E2,6.1E1,1.2E1,1.1E1,1.6E1,3.9E1,4.3E1,1.73E2,6E0,3.3E1,1.1E1,8E0],"tree_param":{"num_deleted":"0","num_feature":"23","num_nodes":"31","size_leaf_vector":"1"}},{"base_weights":[4.3026454E-4,-2.707082E-2,4.4630222E-2,1.0299906E-2,-3.5037488E-2,1.4583944E-1,3.0100137E-2,1.963111E-3,6.2363695E-5,-2.0531522E-2,-5.8922216E-2,8.377045E-2,2.3004417E-1,2.1180062E-2,1.2027778E-1,3.836946E-4,-3.180197E-4,-4.8654625E-4,1.2015571E-5,-7.7743357E-4,3.657815E-5,1.0884175E-3,-3.716696E-4,9.2242827E-4,4.4119097E-3,3.9547283E-4,-1.1326635E-4,1.8269693E-3,4.5815064E-4],"categories":[],"categories_nodes":[],"categories_segments":[],"categories_sizes":[],"default_left":[0,0,0,0,0,0,0,0,0,0,0,0,0,0,0,0,0,0,0,0,0,0,0,0,0,0,0,0,0],"id":39,"left_children":[1,3,5,7,9,11,13,-1,15,17,19,21,23,25,27,-1,-1,-1,-1,-1,-1,-1,-1,-1,-1,-1,-1,-1,-1],"loss_changes":[1.2959411E0,1.9621038E-1,5.953175E-1,2.1892256E-1,1.8578297E-1,2.4414265E-1,2.8481442E-1,0E0,1.3677585E-1,2.0773038E-1,2.4130207E-1,9.875591E-2,5.649916E-1,1.965651E-1,1.3807738E-1,0E0,0E0,0E0,0E0,0E0,0E0,0E0,0E0,0E0,0E0,0E0,0E0,0E0,0E0],"parents":[2147483647,0,0,1,1,2,2,3,3,4,4,5,5,6,6,8,8,9,9,10,10,11,11,12,12,13,13,14,14],"right_children":[2,4,6,8,10,12,14,-1,16,18,20,22,24,26,28,-1,-1,-1,-1,-1,-1,-1,-1,-1,-1,-1,-1,-1,-1],"split_conditions":[1.13620496E-4,-8.890554E-1,4.7083333E-2,1.3661385E-4,5.999428E-1,3.4652777E-2,5.505085E-4,1.963111E-3,5.2944446E-1,9.183247E-5,2.7632713E-4,3.2708332E-2,1.5002962E-4,1.5579436E-4,8.201599E-4,3.836946E-4,-3.180197E-4,-4.8654625E-4,1.2015571E-5,-7.7743357E-4,3.657815E-5,1.0884175E-3,-3.716696E-4,9.2242827E-4,4.4119097E-3,3.9547283E-4,-1.1326635E-4,1.8269693E-3,4.5815064E-4],"split_indices":[9,20,22,0,11,22,16,0,22,9,4,22,8,5,16,0,0,0,0,0,0,0,0,0,0,0,0,0,0],"split_type":[0,0,0,0,0,0,0,0,0,0,0,0,0,0,0,0,0,0,0,0,0,0,0,0,0,0,0,0,0],"sum_hessian":[1.064E3,6.56E2,4.08E2,1.15E2,5.41E2,5E1,3.58E2,5E0,1.1E2,3.38E2,2.03E2,3E1,2E1,3.27E2,3.1E1,5E1,6E1,1.47E2,1.91E2,1.56E2,4.7E1,2.5E1,5E0,1.3E1,7E0,2.09E2,1.18E2,1.6E1,1.5E1],"tree_param":{"num_deleted":"0","num_feature":"23","num_nodes":"29","size_leaf_vector":"1"}},{"base_weights":[4.351963E-4,-1.4522615E-2,8.044519E-2,-1.9406334E-2,8.280263E-2,5.004988E-2,1.9022661E-1,-1.0021147E-2,-6.042176E-2,1.2202139E-1,-2.7847618E-2,1.5096603E-1,2.0362047E-2,2.2984764E-1,6.3227184E-2,-3.3911053E-4,2.1567565E-4,6.073077E-4,-6.8162446E-4,1.5288081E-3,-3.5516266E-4,9.6437184E-4,-1.0329466E-3,6.362317E-4,2.9513796E-3,6.672352E-5,1.3458652E-3,3.019575E-4,2.6282205E-3,1.2748276E-3,-2.4524942E-4],"categories":[],"categories_nodes":[],"categories_segments":[],"categories_sizes":[],"default_left":[0,0,0,0,0,0,0,0,0,0,0,0,0,0,0,0,0,0,0,0,0,0,0,0,0,0,0,0,0,0,0],"id":40,"left_children":[1,3,5,7,9,11,13,15,17,19,21,23,25,27,29,-1,-1,-1,-1,-1,-1,-1,-1,-1,-1,-1,-1,-1,-1,-1,-1],"loss_changes":[1.2763922E0,4.2780054E-1,5.4866564E-1,3.281965E-1,1.9094104E-1,3.936783E-1,1.6368318E-1,5.276015E-1,1.5332472E-1,1.6217214E-1,1.2255308E-1,3.5540634E-1,1.6031404E-1,1.6688573E-1,6.054173E-2,0E0,0E0,0E0,0E0,0E0,0E0,0E0,0E0,0E0,0E0,0E0,0E0,0E0,0E0,0E0,0E0],"parents":[2147483647,0,0,1,1,2,2,3,3,4,4,5,5,6,6,7,7,8,8,9,9,10,10,11,11,12,12,13,13,14,14],"right_children":[2,4,6,8,10,12,14,16,18,20,22,24,26,28,30,-1,-1,-1,-1,-1,-1,-1,-1,-1,-1,-1,-1,-1,-1,-1,-1],"split_conditions":[1.3257311E-4,5.4979324E-4,2.7501583E-4,1.559087E-4,1.507941E-4,-4.0972233E-4,5.5110455E-4,1.0306287E-4,-5.46813E-4,1.2971317E-4,1.8770833E-1,8.5764307E-1,5.508661E-4,1.2285615E-4,2.7489662E-4,-3.3911053E-4,2.1567565E-4,6.073077E-4,-6.8162446E-4,1.5288081E-3,-3.5516266E-4,9.6437184E-4,-1.0329466E-3,6.362317E-4,2.9513796E-3,6.672352E-5,1.3458652E-3,3.019575E-4,2.6282205E-3,1.2748276E-3,-2.4524942E-4],"split_indices":[9,16,4,5,6,4,4,9,4,8,22,20,18,6,0,0,0,0,0,0,0,0,0,0,0,0,0,0,0,0,0],"split_type":[0,0,0,0,0,0,0,0,0,0,0,0,0,0,0,0,0,0,0,0,0,0,0,0,0,0,0,0,0,0,0],"sum_hessian":[1.064E3,8.97E2,1.67E2,8.55E2,4.2E1,1.32E2,3.5E1,6.97E2,1.58E2,3.1E1,1.1E1,2.9E1,1.03E2,2.6E1,9E0,3.97E2,3E2,9E0,1.49E2,2.6E1,5E0,4E0,7E0,1.9E1,1E1,9.3E1,1E1,4E0,2.2E1,5E0,4E0],"tree_param":{"num_deleted":"0","num_feature":"23","num_nodes":"31","size_leaf_vector":"1"}},{"base_weights":[4.4057966E-4,-1.4376266E-2,7.969705E-2,-1.9212384E-2,8.199798E-2,4.9589228E-2,1.8843713E-1,-9.920971E-3,-5.9817374E-2,1.2083474E-1,-2.7566522E-2,1.495793E-1,2.0172967E-2,2.276614E-1,6.2687874E-2,-3.3572793E-4,2.1352603E-4,6.018419E-4,-6.748536E-4,1.5140864E-3,-3.5220303E-4,9.566568E-4,-1.0239084E-3,6.301876E-4,2.924549E-3,6.6063345E-5,1.3336301E-3,2.9954186E-4,2.6030815E-3,1.264204E-3,-2.4328748E-4],"categories":[],"categories_nodes":[],"categories_segments":[],"categories_sizes":[],"default_left":[0,0,0,0,0,0,0,0,0,0,0,0,0,0,0,0,0,0,0,0,0,0,0,0,0,0,0,0,0,0,0],"id":41,"left_children":[1,3,5,7,9,11,13,15,17,19,21,23,25,27,29,-1,-1,-1,-1,-1,-1,-1,-1,-1,-1,-1,-1,-1,-1,-1,-1],"loss_changes":[1.2524614E0,4.1948488E-1,5.382949E-1,3.2165885E-1,1.8723422E-1,3.8648245E-1,1.6039217E-1,5.1713365E-1,1.504417E-1,1.5917337E-1,1.20511726E-1,3.490368E-1,1.5742245E-1,1.6357136E-1,5.9554473E-2,0E0,0E0,0E0,0E0,0E0,0E0,0E0,0E0,0E0,0E0,0E0,0E0,0E0,0E0,0E0,0E0],"parents":[2147483647,0,0,1,1,2,2,3,3,4,4,5,5,6,6,7,7,8,8,9,9,10,10,11,11,12,12,13,13,14,14],"right_children":[2,4,6,8,10,12,14,16,18,20,22,24,26,28,30,-1,-1,-1,-1,-1,-1,-1,-1,-1,-1,-1,-1,-1,-1,-1,-1],"split_conditions":[1.3257311E-4,5.4979324E-4,2.7501583E-4,1.559087E-4,1.507941E-4,-4.0972233E-4,5.5110455E-4,1.0306287E-4,-5.46813E-4,1.2971317E-4,1.8770833E-1,8.5764307E-1,5.508661E-4,1.2285615E-4,2.7489662E-4,-3.3572793E-4,2.1352603E-4,6.018419E-4,-6.748536E-4,1.5140864E-3,-3.5220303E-4,9.566568E-4,-1.0239084E-3,6.301876E-4,2.924549E-3,6.6063345E-5,1.3336301E-3,2.9954186E-4,2.6030815E-3,1.264204E-3,-2.4328748E-4],"split_indices":[9,16,4,5,6,4,4,9,4,8,22,20,18,6,0,0,0,0,0,0,0,0,0,0,0,0,0,0,0,0,0],"split_type":[0,0,0,0,0,0,0,0,0,0,0,0,0,0,0,0,0,0,0,0,0,0,0,0,0,0,0,0,0,0,0],"sum_hessian":[1.064E3,8.97E2,1.67E2,8.55E2,4.2E1,1.32E2,3.5E1,6.97E2,1.58E2,3.1E1,1.1E1,2.9E1,1.03E2,2.6E1,9E0,3.97E2,3E2,9E0,1.49E2,2.6E1,5E0,4E0,7E0,1.9E1,1E1,9.3E1,1E1,4E0,2.2E1,5E0,4E0],"tree_param":{"num_deleted":"0","num_feature":"23","num_nodes":"31","size_leaf_vector":"1"}},{"base_weights":[4.4581923E-4,-2.2314271E-2,5.123667E-2,-4.4624787E-2,-7.6019466E-3,3.216304E-2,1.3813144E-1,-2.6926242E-3,-5.9849158E-2,-1.9464318E-3,-1.06311336E-1,1.312961E-1,6.3860137E-3,9.026957E-2,2.2644858E-1,-4.3806894E-4,5.8750424E-4,-1.1076757E-3,-4.2337086E-4,-1.1656279E-4,5.446004E-4,-2.9360186E-4,-1.7998246E-3,2.2303232E-3,8.8775804E-4,-6.5545976E-4,2.4596482E-4,2.014477E-3,6.4430846E-4,3.3460956E-3,5.596185E-4],"categories":[],"categories_nodes":[],"categories_segments":[],"categories_sizes":[],"default_left":[0,0,0,0,0,0,0,0,0,0,0,0,0,0,0,0,0,0,0,0,0,0,0,0,0,0,0,0,0,0,0],"id":42,"left_children":[1,3,5,7,9,11,13,15,17,19,21,23,25,27,29,-1,-1,-1,-1,-1,-1,-1,-1,-1,-1,-1,-1,-1,-1,-1,-1],"loss_changes":[1.2325771E0,2.4072278E-1,5.407958E-1,1.8562353E-1,2.4713281E-1,6.928414E-1,2.2578585E-1,2.0199296E-1,1.8460035E-1,2.3133546E-1,1.2868011E-1,1.9551837E-1,2.8545433E-1,9.926981E-2,3.4616935E-1,0E0,0E0,0E0,0E0,0E0,0E0,0E0,0E0,0E0,0E0,0E0,0E0,0E0,0E0,0E0,0E0],"parents":[2147483647,0,0,1,1,2,2,3,3,4,4,5,5,6,6,7,7,8,8,9,9,10,10,11,11,12,12,13,13,14,14],"right_children":[2,4,6,8,10,12,14,16,18,20,22,24,26,28,30,-1,-1,-1,-1,-1,-1,-1,-1,-1,-1,-1,-1,-1,-1,-1,-1],"split_conditions":[1.18909615E-4,9.284552E-5,2.7525425E-4,7.5941054E-5,1.604324E-4,-2.7561188E-4,1.4932464E-4,8.6967644E-5,3.6395833E-1,2.7632713E-4,1.3720989E-4,6.423611E-2,-2.733469E-4,1.1330809E-4,5.493164E-4,-4.3806894E-4,5.8750424E-4,-1.1076757E-3,-4.2337086E-4,-1.1656279E-4,5.446004E-4,-2.9360186E-4,-1.7998246E-3,2.2303232E-3,8.8775804E-4,-6.5545976E-4,2.4596482E-4,2.014477E-3,6.4430846E-4,3.3460956E-3,5.596185E-4],"split_indices":[9,9,4,6,6,4,8,5,22,19,3,22,3,8,4,0,0,0,0,0,0,0,0,0,0,0,0,0,0,0,0],"split_type":[0,0,0,0,0,0,0,0,0,0,0,0,0,0,0,0,0,0,0,0,0,0,0,0,0,0,0,0,0,0,0],"sum_hessian":[1.064E3,7.35E2,3.29E2,2.91E2,4.44E2,2.71E2,5.8E1,7.8E1,2.13E2,4.21E2,2.3E1,5.5E1,2.16E2,3.9E1,1.9E1,4.7E1,3.1E1,5.3E1,1.6E2,3.6E2,6.1E1,1.2E1,1.1E1,1.6E1,3.9E1,4.3E1,1.73E2,6E0,3.3E1,1.1E1,8E0],"tree_param":{"num_deleted":"0","num_feature":"23","num_nodes":"31","size_leaf_vector":"1"}},{"base_weights":[4.4730096E-4,-2.6121685E-2,4.3149933E-2,1.0669002E-2,-3.396596E-2,1.4167225E-1,2.9005675E-2,1.9373889E-3,5.871254E-4,3.8550783E-2,-3.861123E-2,2.9467887E-1,1.06120355E-1,1.5532979E-2,8.5260004E-2,3.8465345E-4,-3.092724E-4,-1.0973818E-4,1.395067E-3,-5.425268E-4,-1.4443808E-4,1.2348549E-3,4.0493645E-3,6.0762104E-4,2.4872639E-3,1.0169558E-3,9.555286E-6,-3.1525895E-4,1.1846953E-3],"categories":[],"categories_nodes":[],"categories_segments":[],"categories_sizes":[],"default_left":[0,0,0,0,0,0,0,0,0,0,0,0,0,0,0,0,0,0,0,0,0,0,0,0,0,0,0,0,0],"id":43,"left_children":[1,3,5,7,9,11,13,-1,15,17,19,21,23,25,27,-1,-1,-1,-1,-1,-1,-1,-1,-1,-1,-1,-1,-1,-1],"loss_changes":[1.2096099E0,1.902031E-1,5.6413585E-1,2.120428E-1,1.8406701E-1,2.4214387E-1,2.6975292E-1,0E0,1.3376662E-1,1.678097E-1,1.9131637E-1,1.1459041E-1,2.599315E-1,3.643814E-1,2.7221417E-1,0E0,0E0,0E0,0E0,0E0,0E0,0E0,0E0,0E0,0E0,0E0,0E0,0E0,0E0],"parents":[2147483647,0,0,1,1,2,2,3,3,4,4,5,5,6,6,8,8,9,9,10,10,11,11,12,12,13,13,14,14],"right_children":[2,4,6,8,10,12,14,-1,16,18,20,22,24,26,28,-1,-1,-1,-1,-1,-1,-1,-1,-1,-1,-1,-1,-1,-1],"split_conditions":[1.13620496E-4,-8.890554E-1,4.7083333E-2,1.3661385E-4,-2.7561188E-4,2.734661E-4,2.7489662E-4,1.9373889E-3,5.2944446E-1,2.7513504E-4,1.0001659E-3,2.7287006E-4,5.514622E-4,-5.4705143E-4,1.3637543E-4,3.8465345E-4,-3.092724E-4,-1.0973818E-4,1.395067E-3,-5.425268E-4,-1.4443808E-4,1.2348549E-3,4.0493645E-3,6.0762104E-4,2.4872639E-3,1.0169558E-3,9.555286E-6,-3.1525895E-4,1.1846953E-3],"split_indices":[9,20,22,0,3,19,4,0,22,19,21,17,17,4,2,0,0,0,0,0,0,0,0,0,0,0,0,0,0],"split_type":[0,0,0,0,0,0,0,0,0,0,0,0,0,0,0,0,0,0,0,0,0,0,0,0,0,0,0,0,0],"sum_hessian":[1.064E3,6.56E2,4.08E2,1.15E2,5.41E2,5E1,3.58E2,5E0,1.1E2,3.2E1,5.09E2,8E0,4.2E1,2.9E2,6.8E1,5E1,6E1,2.2E1,1E1,3.08E2,2.01E2,4E0,4E0,3.3E1,9E0,4.1E1,2.49E2,1.5E1,5.3E1],"tree_param":{"num_deleted":"0","num_feature":"23","num_nodes":"29","size_leaf_vector":"1"}},{"base_weights":[4.552996E-4,-1.3990296E-2,7.772726E-2,-1.8732384E-2,8.050314E-2,4.8246603E-2,1.8420506E-1,-9.879903E-3,-6.0603693E-2,1.188882E-1,-2.7732268E-2,1.4587004E-1,1.9525932E-2,2.2272103E-1,6.079142E-2,-3.32287E-4,2.0869916E-4,5.924044E-4,-6.880253E-4,-1.07446154E-4,1.5601517E-3,9.3974447E-4,-1.0158243E-3,6.0292316E-4,2.872959E-3,6.1760344E-5,1.3092268E-3,2.799084E-4,2.5493535E-3,1.2401415E-3,-2.5234136E-4],"categories":[],"categories_nodes":[],"categories_segments":[],"categories_sizes":[],"default_left":[0,0,0,0,0,0,0,0,0,0,0,0,0,0,0,0,0,0,0,0,0,0,0,0,0,0,0,0,0,0,0],"id":44,"left_children":[1,3,5,7,9,11,13,15,17,19,21,23,25,27,29,-1,-1,-1,-1,-1,-1,-1,-1,-1,-1,-1,-1,-1,-1,-1,-1],"loss_changes":[1.1905199E0,4.0328074E-1,5.1614606E-1,3.1598562E-1,1.8285736E-1,3.6840466E-1,1.547476E-1,5.0914073E-1,1.5057641E-1,1.57141E-1,1.1747897E-1,3.422895E-1,1.524825E-1,1.5940881E-1,5.8504894E-2,0E0,0E0,0E0,0E0,0E0,0E0,0E0,0E0,0E0,0E0,0E0,0E0,0E0,0E0,0E0,0E0],"parents":[2147483647,0,0,1,1,2,2,3,3,4,4,5,5,6,6,7,7,8,8,9,9,10,10,11,11,12,12,13,13,14,14],"right_children":[2,4,6,8,10,12,14,16,18,20,22,24,26,28,30,-1,-1,-1,-1,-1,-1,-1,-1,-1,-1,-1,-1,-1,-1,-1,-1],"split_conditions":[1.3257311E-4,5.4979324E-4,2.7501583E-4,1.560907E-4,1.507941E-4,-4.0972233E-4,5.5110455E-4,1.0306287E-4,-5.46813E-4,1.3299608E-4,1.8770833E-1,8.5764307E-1,5.508661E-4,1.2285615E-4,2.7489662E-4,-3.32287E-4,2.0869916E-4,5.924044E-4,-6.880253E-4,-1.07446154E-4,1.5601517E-3,9.3974447E-4,-1.0158243E-3,6.0292316E-4,2.872959E-3,6.1760344E-5,1.3092268E-3,2.799084E-4,2.5493535E-3,1.2401415E-3,-2.5234136E-4],"split_indices":[9,16,4,5,6,4,4,9,4,5,22,20,18,6,0,0,0,0,0,0,0,0,0,0,0,0,0,0,0,0,0],"split_type":[0,0,0,0,0,0,0,0,0,0,0,0,0,0,0,0,0,0,0,0,0,0,0,0,0,0,0,0,0,0,0],"sum_hessian":[1.064E3,8.97E2,1.67E2,8.55E2,4.2E1,1.32E2,3.5E1,7.07E2,1.48E2,3.1E1,1.1E1,2.9E1,1.03E2,2.6E1,9E0,4.02E2,3.05E2,9E0,1.39E2,7E0,2.4E1,4E0,7E0,1.9E1,1E1,9.3E1,1E1,4E0,2.2E1,5E0,4E0],"tree_param":{"num_deleted":"0","num_feature":"23","num_nodes":"31","size_leaf_vector":"1"}},{"base_weights":[4.604357E-4,-2.1697301E-2,4.990781E-2,-4.354497E-2,-7.290071E-3,3.1290293E-2,1.3472234E-1,-2.0989438E-3,-5.859493E-2,2.6826745E-2,-2.323513E-2,1.2815313E-1,6.1031543E-3,8.775206E-2,2.2142676E-1,-2.3156834E-4,1.1657069E-3,-1.090565E-3,-4.1243876E-4,4.5480167E-5,9.997322E-4,1.02692255E-4,-5.9632096E-4,1.0305054E-3,2.8772112E-3,-6.502245E-4,2.4111336E-4,1.9799203E-3,6.218053E-4,3.2846788E-3,5.299119E-4],"categories":[],"categories_nodes":[],"categories_segments":[],"categories_sizes":[],"default_left":[0,0,0,0,0,0,0,0,0,0,0,0,0,0,0,0,0,0,0,0,0,0,0,0,0,0,0,0,0,0,0],"id":45,"left_children":[1,3,5,7,9,11,13,15,17,19,21,23,25,27,29,-1,-1,-1,-1,-1,-1,-1,-1,-1,-1,-1,-1,-1,-1,-1,-1],"loss_changes":[1.1682236E0,2.308408E-1,5.152061E-1,1.8140823E-1,2.4266504E-1,6.6147304E-1,2.1775687E-1,1.9918092E-1,1.813693E-1,2.2990477E-1,3.71821E-1,1.9075423E-1,2.791016E-1,9.784722E-2,3.3937013E-1,0E0,0E0,0E0,0E0,0E0,0E0,0E0,0E0,0E0,0E0,0E0,0E0,0E0,0E0,0E0,0E0],"parents":[2147483647,0,0,1,1,2,2,3,3,4,4,5,5,6,6,7,7,8,8,9,9,10,10,11,11,12,12,13,13,14,14],"right_children":[2,4,6,8,10,12,14,16,18,20,22,24,26,28,30,-1,-1,-1,-1,-1,-1,-1,-1,-1,-1,-1,-1,-1,-1,-1,-1],"split_conditions":[1.18909615E-4,9.284552E-5,2.7525425E-4,7.5941054E-5,3.7006944E-1,-2.7561188E-4,1.4932464E-4,2.7382374E-4,3.6395833E-1,2.7525425E-4,6.666137E-1,1.7727884E-4,-2.733469E-4,1.1330809E-4,5.493164E-4,-2.3156834E-4,1.1657069E-3,-1.090565E-3,-4.1243876E-4,4.5480167E-5,9.997322E-4,1.02692255E-4,-5.9632096E-4,1.0305054E-3,2.8772112E-3,-6.502245E-4,2.4111336E-4,1.9799203E-3,6.218053E-4,3.2846788E-3,5.299119E-4],"split_indices":[9,9,4,6,22,4,8,15,22,19,10,8,3,8,4,0,0,0,0,0,0,0,0,0,0,0,0,0,0,0,0],"split_type":[0,0,0,0,0,0,0,0,0,0,0,0,0,0,0,0,0,0,0,0,0,0,0,0,0,0,0,0,0,0,0],"sum_hessian":[1.064E3,7.35E2,3.29E2,2.91E2,4.44E2,2.71E2,5.8E1,7.8E1,2.13E2,1.41E2,3.03E2,5.5E1,2.16E2,3.9E1,1.9E1,6.7E1,1.1E1,5.3E1,1.6E2,1.09E2,3.2E1,1.58E2,1.45E2,4.9E1,6E0,4.3E1,1.73E2,6E0,3.3E1,1.1E1,8E0],"tree_param":{"num_deleted":"0","num_feature":"23","num_nodes":"31","size_leaf_vector":"1"}},{"base_weights":[4.655949E-4,-1.3726831E-2,7.638425E-2,-1.8402047E-2,7.942924E-2,4.7385667E-2,1.8111831E-1,-9.275193E-3,-5.828973E-2,1.1742273E-1,-2.767249E-2,1.4316504E-1,1.9205218E-2,2.189913E-1,5.9749424E-2,-3.200634E-4,2.077887E-4,5.8470346E-4,-6.5751805E-4,1.476958E-3,-3.6709942E-4,9.28594E-4,-1.0079587E-3,5.846355E-4,2.8324365E-3,5.9934442E-5,1.2945081E-3,2.726948E-4,2.5071378E-3,1.2250848E-3,-2.5511326E-4],"categories":[],"categories_nodes":[],"categories_segments":[],"categories_sizes":[],"default_left":[0,0,0,0,0,0,0,0,0,0,0,0,0,0,0,0,0,0,0,0,0,0,0,0,0,0,0,0,0,0,0],"id":46,"left_children":[1,3,5,7,9,11,13,15,17,19,21,23,25,27,29,-1,-1,-1,-1,-1,-1,-1,-1,-1,-1,-1,-1,-1,-1,-1,-1],"loss_changes":[1.1491804E0,3.9195257E-1,4.993717E-1,3.104097E-1,1.7912114E-1,3.5460782E-1,1.4960575E-1,4.7762543E-1,1.4244962E-1,1.5584603E-1,1.1520358E-1,3.359695E-1,1.4934985E-1,1.5459466E-1,5.760416E-2,0E0,0E0,0E0,0E0,0E0,0E0,0E0,0E0,0E0,0E0,0E0,0E0,0E0,0E0,0E0,0E0],"parents":[2147483647,0,0,1,1,2,2,3,3,4,4,5,5,6,6,7,7,8,8,9,9,10,10,11,11,12,12,13,13,14,14],"right_children":[2,4,6,8,10,12,14,16,18,20,22,24,26,28,30,-1,-1,-1,-1,-1,-1,-1,-1,-1,-1,-1,-1,-1,-1,-1,-1],"split_conditions":[1.3257311E-4,5.4979324E-4,2.7501583E-4,1.559087E-4,1.507941E-4,-4.0972233E-4,5.5110455E-4,1.0306287E-4,-5.46813E-4,1.2971317E-4,1.8770833E-1,8.5764307E-1,5.508661E-4,1.2285615E-4,2.7489662E-4,-3.200634E-4,2.077887E-4,5.8470346E-4,-6.5751805E-4,1.476958E-3,-3.6709942E-4,9.28594E-4,-1.0079587E-3,5.846355E-4,2.8324365E-3,5.9934442E-5,1.2945081E-3,2.726948E-4,2.5071378E-3,1.2250848E-3,-2.5511326E-4],"split_indices":[9,16,4,5,6,4,4,9,4,8,22,20,18,6,0,0,0,0,0,0,0,0,0,0,0,0,0,0,0,0,0],"split_type":[0,0,0,0,0,0,0,0,0,0,0,0,0,0,0,0,0,0,0,0,0,0,0,0,0,0,0,0,0,0,0],"sum_hessian":[1.064E3,8.97E2,1.67E2,8.55E2,4.2E1,1.32E2,3.5E1,6.97E2,1.58E2,3.1E1,1.1E1,2.9E1,1.03E2,2.6E1,9E0,3.97E2,3E2,9E0,1.49E2,2.6E1,5E0,4E0,7E0,1.9E1,1E1,9.3E1,1E1,4E0,2.2E1,5E0,4E0],"tree_param":{"num_deleted":"0","num_feature":"23","num_nodes":"31","size_leaf_vector":"1"}},{"base_weights":[4.702077E-4,-2.1301059E-2,4.9055606E-2,-2.4064181E-2,8.969818E-2,3.0754229E-2,1.3242713E-1,-2.9951753E-2,2.6756454E-2,2.6972705E-2,2.08987E-3,1.2604047E-1,5.976423E-3,8.6283006E-2,2.17594E-1,-1.4764276E-4,-5.220166E-4,-2.7063282E-4,7.477531E-4,7.459124E-4,-3.9347453E-4,2.1604463E-3,8.4387686E-4,-6.4455543E-4,2.380993E-4,1.9560708E-3,6.0943246E-4,3.234224E-3,5.1201246E-4],"categories":[],"categories_nodes":[],"categories_segments":[],"categories_sizes":[],"default_left":[0,0,0,0,0,0,0,0,0,0,0,0,0,0,0,0,0,0,0,0,0,0,0,0,0,0,0,0,0],"id":47,"left_children":[1,3,5,7,9,11,13,15,17,19,-1,21,23,25,27,-1,-1,-1,-1,-1,-1,-1,-1,-1,-1,-1,-1,-1,-1],"loss_changes":[1.127843E0,2.2723669E-1,4.9781406E-1,2.1596548E-1,1.2668753E-1,6.401142E-1,2.1005356E-1,2.1651798E-1,1.9632792E-1,4.434231E-2,0E0,1.8870384E-1,2.7369085E-1,9.63234E-2,3.3187574E-1,0E0,0E0,0E0,0E0,0E0,0E0,0E0,0E0,0E0,0E0,0E0,0E0,0E0,0E0],"parents":[2147483647,0,0,1,1,2,2,3,3,4,4,5,5,6,6,7,7,8,8,9,9,11,11,12,12,13,13,14,14],"right_children":[2,4,6,8,10,12,14,16,18,20,-1,22,24,26,28,-1,-1,-1,-1,-1,-1,-1,-1,-1,-1,-1,-1,-1,-1],"split_conditions":[1.18909615E-4,5.4717064E-4,2.7525425E-4,2.7632713E-4,-3.6994988E-1,-2.7561188E-4,1.4932464E-4,6.666534E-1,1.10906425E-4,1.1644367E-4,2.08987E-3,6.423611E-2,-2.733469E-4,1.1330809E-4,5.493164E-4,-1.4764276E-4,-5.220166E-4,-2.7063282E-4,7.477531E-4,7.459124E-4,-3.9347453E-4,2.1604463E-3,8.4387686E-4,-6.4455543E-4,2.380993E-4,1.9560708E-3,6.0943246E-4,3.234224E-3,5.1201246E-4],"split_indices":[9,3,4,19,20,4,8,12,8,8,0,22,3,8,4,0,0,0,0,0,0,0,0,0,0,0,0,0,0],"split_type":[0,0,0,0,0,0,0,0,0,0,0,0,0,0,0,0,0,0,0,0,0,0,0,0,0,0,0,0,0],"sum_hessian":[1.064E3,7.35E2,3.29E2,7.18E2,1.7E1,2.71E2,5.8E1,6.44E2,7.4E1,1.2E1,5E0,5.5E1,2.16E2,3.9E1,1.9E1,3.84E2,2.6E2,3.5E1,3.9E1,7E0,5E0,1.6E1,3.9E1,4.3E1,1.73E2,6E0,3.3E1,1.1E1,8E0],"tree_param":{"num_deleted":"0","num_feature":"23","num_nodes":"29","size_leaf_vector":"1"}},{"base_weights":[4.7636073E-4,5.6350436E-2,-1.8183032E-2,3.9817184E-2,1.8060948E-1,-2.5781635E-2,4.583091E-2,1.3269094E-1,1.9661495E-2,7.982953E-2,2.9656875E-1,-4.1091866E-3,-3.9699282E-2,2.344131E-2,2.1040878E-1,2.9847124E-3,7.124486E-4,9.391532E-5,1.3398661E-3,1.4713202E-3,1.0274329E-4,4.8978627E-3,1.3369386E-3,6.1915966E-4,-2.719879E-4,-5.572202E-4,-1.11928224E-4,7.3777273E-4,-2.594864E-4,3.4839523E-3,7.43274E-6],"categories":[],"categories_nodes":[],"categories_segments":[],"categories_sizes":[],"default_left":[0,0,0,0,0,0,0,0,0,0,0,0,0,0,0,0,0,0,0,0,0,0,0,0,0,0,0,0,0,0,0],"id":48,"left_children":[1,3,5,7,9,11,13,15,17,19,21,23,25,27,29,-1,-1,-1,-1,-1,-1,-1,-1,-1,-1,-1,-1,-1,-1,-1,-1],"loss_changes":[1.11175E0,5.391309E-1,3.89628E-1,4.39516E-1,3.348385E-1,2.1506387E-1,3.0594003E-1,4.0287334E-1,2.2743435E-1,8.117653E-2,3.6886764E-1,4.2971984E-1,1.9739407E-1,1.9133562E-1,2.8555965E-1,0E0,0E0,0E0,0E0,0E0,0E0,0E0,0E0,0E0,0E0,0E0,0E0,0E0,0E0,0E0,0E0],"parents":[2147483647,0,0,1,1,2,2,3,3,4,4,5,5,6,6,7,7,8,8,9,9,10,10,11,11,12,12,13,13,14,14],"right_children":[2,4,6,8,10,12,14,16,18,20,22,24,26,28,30,-1,-1,-1,-1,-1,-1,-1,-1,-1,-1,-1,-1,-1,-1,-1,-1],"split_conditions":[1.9618055E-1,4.121065E-4,4.1401386E-4,-2.7561188E-4,9.166733E-1,4.999404E-1,6.877184E-4,2.7441978E-4,5.505085E-4,6.6664016E-1,2.7549267E-4,-3.0453362E-2,1.0001659E-3,5.4848194E-4,8.196831E-4,2.9847124E-3,7.124486E-4,9.391532E-5,1.3398661E-3,1.4713202E-3,1.0274329E-4,4.8978627E-3,1.3369386E-3,6.1915966E-4,-2.719879E-4,-5.572202E-4,-1.11928224E-4,7.3777273E-4,-2.594864E-4,3.4839523E-3,7.43274E-6],"split_indices":[22,3,19,4,14,13,15,19,16,13,17,20,21,19,15,0,0,0,0,0,0,0,0,0,0,0,0,0,0,0,0],"split_type":[0,0,0,0,0,0,0,0,0,0,0,0,0,0,0,0,0,0,0,0,0,0,0,0,0,0,0,0,0,0,0],"sum_hessian":[1.064E3,2.66E2,7.98E2,2.36E2,3E1,7.14E2,8.4E1,4.1E1,1.95E2,1.7E1,1.3E1,2.8E2,4.34E2,7.5E1,9E0,1E1,3.1E1,1.8E2,1.5E1,8E0,9E0,5E0,8E0,7.2E1,2.08E2,2.77E2,1.57E2,3.7E1,3.8E1,5E0,4E0],"tree_param":{"num_deleted":"0","num_feature":"23","num_nodes":"31","size_leaf_vector":"1"}},{"base_weights":[4.8782767E-4,-1.3357202E-2,7.454942E-2,1.22510314E-1,-1.6444793E-2,