{"learner":{"attributes":{"best_iteration":"277","best_score":"0.9320772396434619","scikit_learn":"{\"_estimator_type\": \"regressor\"}"},"feature_names":["f_trades_1","f_trades_2","f_trades_3","f_trades_5","f_trades_10","f_vwap_1","f_vwap_3","f_vwap_5","f_slope_1","f_slope_3","f_slope_5","f_lag_rr_1","f_lag_rr_2","f_lag_rr_3","f_lag_rr_4","f_lag_rr_5","f_spread","f_vol_imb","f_total_vol","f_hour"],"feature_types":["float","float","float","float","float","float","float","float","float","float","float","float","float","float","float","float","float","float","float","int"],"gradient_booster":{"model":{"cats":{"enc":[],"feature_segments":[],"sorted_idx":[]},"gbtree_model_param":{"num_parallel_tree":"1","num_trees":"298"},"iteration_indptr":[0,1,2,3,4,5,6,7,8,9,10,11,12,13,14,15,16,17,18,19,20,21,22,23,24,25,26,27,28,29,30,31,32,33,34,35,36,37,38,39,40,41,42,43,44,45,46,47,48,49,50,51,52,53,54,55,56,57,58,59,60,61,62,63,64,65,66,67,68,69,70,71,72,73,74,75,76,77,78,79,80,81,82,83,84,85,86,87,88,89,90,91,92,93,94,95,96,97,98,99,100,101,102,103,104,105,106,107,108,109,110,111,112,113,114,115,116,117,118,119,120,121,122,123,124,125,126,127,128,129,130,131,132,133,134,135,136,137,138,139,140,141,142,143,144,145,146,147,148,149,150,151,152,153,154,155,156,157,158,159,160,161,162,163,164,165,166,167,168,169,170,171,172,173,174,175,176,177,178,179,180,181,182,183,184,185,186,187,188,189,190,191,192,193,194,195,196,197,198,199,200,201,202,203,204,205,206,207,208,209,210,211,212,213,214,215,216,217,218,219,220,221,222,223,224,225,226,227,228,229,230,231,232,233,234,235,236,237,238,239,240,241,242,243,244,245,246,247,248,249,250,251,252,253,254,255,256,257,258,259,260,261,262,263,264,265,266,267,268,269,270,271,272,273,274,275,276,277,278,279,280,281,282,283,284,285,286,287,288,289,290,291,292,293,294,295,296,297,298],"tree_info":[0,0,0,0,0,0,0,0,0,0,0,0,0,0,0,0,0,0,0,0,0,0,0,0,0,0,0,0,0,0,0,0,0,0,0,0,0,0,0,0,0,0,0,0,0,0,0,0,0,0,0,0,0,0,0,0,0,0,0,0,0,0,0,0,0,0,0,0,0,0,0,0,0,0,0,0,0,0,0,0,0,0,0,0,0,0,0,0,0,0,0,0,0,0,0,0,0,0,0,0,0,0,0,0,0,0,0,0,0,0,0,0,0,0,0,0,0,0,0,0,0,0,0,0,0,0,0,0,0,0,0,0,0,0,0,0,0,0,0,0,0,0,0,0,0,0,0,0,0,0,0,0,0,0,0,0,0,0,0,0,0,0,0,0,0,0,0,0,0,0,0,0,0,0,0,0,0,0,0,0,0,0,0,0,0,0,0,0,0,0,0,0,0,0,0,0,0,0,0,0,0,0,0,0,0,0,0,0,0,0,0,0,0,0,0,0,0,0,0,0,0,0,0,0,0,0,0,0,0,0,0,0,0,0,0,0,0,0,0,0,0,0,0,0,0,0,0,0,0,0,0,0,0,0,0,0,0,0,0,0,0,0,0,0,0,0,0,0,0,0,0,0,0,0,0,0,0,0,0,0,0,0,0,0,0,0,0,0,0,0,0,0,0,0,0,0,0,0],"trees":[{"base_weights":[-0E0,-3.7160166E-2,4.6418433E0,-1.6864634E-1,5.105467E-1,3.4969742E0,8.2865894E-2,3.508729E-1,-2.1648705E-1,2.847114E-1,1.2900915E0,6.084839E-3,3.9053273E0,2.582326E-3,1.0418432E-2,-2.798082E-3,2.1960167E-4,1.9108871E-3,9.309628E-3,1.4742394E-2,3.5766943E-3,2.4355544E-2,4.2761907E-2],"categories":[],"categories_nodes":[],"categories_segments":[],"categories_sizes":[],"default_left":[0,0,0,0,0,0,0,0,0,0,0,0,0,0,0,0,0,0,0,0,0,0,0],"id":0,"left_children":[1,3,5,7,9,11,-1,13,15,17,19,-1,21,-1,-1,-1,-1,-1,-1,-1,-1,-1,-1],"loss_changes":[1.5203439E3,6.297895E2,2.629972E2,1.753462E2,2.9766748E2,6.2452393E1,0E0,3.7804893E1,9.751654E1,7.931286E1,6.470178E1,0E0,1.5682007E1,0E0,0E0,0E0,0E0,0E0,0E0,0E0,0E0,0E0,0E0],"parents":[2147483647,0,0,1,1,2,2,3,3,4,4,5,5,7,7,8,8,9,9,10,10,12,12],"right_children":[2,4,6,8,10,12,-1,14,16,18,20,-1,22,-1,-1,-1,-1,-1,-1,-1,-1,-1,-1],"split_conditions":[8E-3,2.68E2,1.2E-2,1E1,4E-3,4E-3,8.2865894E-2,5E-3,3E-3,2.397E3,1.1E1,6.084839E-3,7E-3,2.582326E-3,1.0418432E-2,-2.798082E-3,2.1960167E-4,1.9108871E-3,9.309628E-3,1.4742394E-2,3.5766943E-3,2.4355544E-2,4.2761907E-2],"split_indices":[11,1,11,19,14,15,0,14,13,4,19,0,13,0,0,0,0,0,0,0,0,0,0],"split_type":[0,0,0,0,0,0,0,0,0,0,0,0,0,0,0,0,0,0,0,0,0,0,0],"sum_hessian":[8.812E3,8.743E3,6.9E1,7.051E3,1.692E3,5.4E1,1.5E1,5.94E2,6.457E3,1.313E3,3.79E2,7E0,4.7E1,5.25E2,6.9E1,5.102E3,1.355E3,1.148E3,1.65E2,3.16E2,6.3E1,1.1E1,3.6E1],"tree_param":{"num_deleted":"0","num_feature":"20","num_nodes":"23","size_leaf_vector":"1"}},{"base_weights":[2.128261E-5,-3.6783915E-2,4.5976586E0,-1.6695835E-1,5.0545883E-1,3.463339E0,8.208903E-2,3.473862E-1,-2.1432257E-1,2.8187287E-1,1.2772391E0,6.031596E-3,3.8676744E0,2.5565522E-3,1.0315735E-2,-2.7701068E-3,2.1740745E-4,1.8917945E-3,9.217094E-3,1.4595436E-2,3.5414856E-3,2.4132285E-2,4.2345844E-2],"categories":[],"categories_nodes":[],"categories_segments":[],"categories_sizes":[],"default_left":[0,0,0,0,0,0,0,0,0,0,0,0,0,0,0,0,0,0,0,0,0,0,0],"id":1,"left_children":[1,3,5,7,9,11,-1,13,15,17,19,-1,21,-1,-1,-1,-1,-1,-1,-1,-1,-1,-1],"loss_changes":[1.4915237E3,6.1728625E2,2.5819446E2,1.718706E2,2.9176715E2,6.1228333E1,0E0,3.7066307E1,9.5576416E1,7.7746056E1,6.341272E1,0E0,1.5329773E1,0E0,0E0,0E0,0E0,0E0,0E0,0E0,0E0,0E0,0E0],"parents":[2147483647,0,0,1,1,2,2,3,3,4,4,5,5,7,7,8,8,9,9,10,10,12,12],"right_children":[2,4,6,8,10,12,-1,14,16,18,20,-1,22,-1,-1,-1,-1,-1,-1,-1,-1,-1,-1],"split_conditions":[8E-3,2.68E2,1.2E-2,1E1,4E-3,4E-3,8.208903E-2,5E-3,3E-3,2.397E3,1.1E1,6.031596E-3,7E-3,2.5565522E-3,1.0315735E-2,-2.7701068E-3,2.1740745E-4,1.8917945E-3,9.217094E-3,1.4595436E-2,3.5414856E-3,2.4132285E-2,4.2345844E-2],"split_indices":[11,1,11,19,14,15,0,14,13,4,19,0,13,0,0,0,0,0,0,0,0,0,0],"split_type":[0,0,0,0,0,0,0,0,0,0,0,0,0,0,0,0,0,0,0,0,0,0,0],"sum_hessian":[8.812E3,8.743E3,6.9E1,7.051E3,1.692E3,5.4E1,1.5E1,5.94E2,6.457E3,1.313E3,3.79E2,7E0,4.7E1,5.25E2,6.9E1,5.102E3,1.355E3,1.148E3,1.65E2,3.16E2,6.3E1,1.1E1,3.6E1],"tree_param":{"num_deleted":"0","num_feature":"20","num_nodes":"23","size_leaf_vector":"1"}},{"base_weights":[4.323587E-5,-3.6411434E-2,4.553895E0,-1.6528721E-1,5.0042164E-1,3.4300277E0,8.1319444E-2,3.4393415E-1,-2.1217966E-1,2.7906263E-1,1.2645146E0,5.9788204E-3,3.8303847E0,2.531035E-3,1.0214052E-2,-2.8361764E-3,-7.847001E-5,1.8728924E-3,9.125479E-3,1.4449941E-2,3.5066244E-3,4.3440085E-2,2.7324554E-2],"categories":[],"categories_nodes":[],"categories_segments":[],"categories_sizes":[],"default_left":[0,0,0,0,0,0,0,0,0,0,0,0,0,0,0,0,0,0,0,0,0,0,0],"id":2,"left_children":[1,3,5,7,9,11,-1,13,15,17,19,-1,21,-1,-1,-1,-1,-1,-1,-1,-1,-1,-1],"loss_changes":[1.4632498E3,6.0503107E2,2.5347937E2,1.684638E2,2.8598376E2,6.002832E1,0E0,3.6342125E1,9.4263E1,7.621022E1,6.2149353E1,0E0,1.5127747E1,0E0,0E0,0E0,0E0,0E0,0E0,0E0,0E0,0E0,0E0],"parents":[2147483647,0,0,1,1,2,2,3,3,4,4,5,5,7,7,8,8,9,9,10,10,12,12],"right_children":[2,4,6,8,10,12,-1,14,16,18,20,-1,22,-1,-1,-1,-1,-1,-1,-1,-1,-1,-1],"split_conditions":[8E-3,2.68E2,1.2E-2,1E1,4E-3,4E-3,8.1319444E-2,5E-3,9.4E2,2.397E3,1.1E1,5.9788204E-3,1.429E3,2.531035E-3,1.0214052E-2,-2.8361764E-3,-7.847001E-5,1.8728924E-3,9.125479E-3,1.4449941E-2,3.5066244E-3,4.3440085E-2,2.7324554E-2],"split_indices":[11,1,11,19,14,15,0,14,4,4,19,0,4,0,0,0,0,0,0,0,0,0,0],"split_type":[0,0,0,0,0,0,0,0,0,0,0,0,0,0,0,0,0,0,0,0,0,0,0],"sum_hessian":[8.812E3,8.743E3,6.9E1,7.051E3,1.692E3,5.4E1,1.5E1,5.94E2,6.457E3,1.313E3,3.79E2,7E0,4.7E1,5.25E2,6.9E1,4.784E3,1.673E3,1.148E3,1.65E2,3.16E2,6.3E1,3E1,1.7E1],"tree_param":{"num_deleted":"0","num_feature":"20","num_nodes":"23","size_leaf_vector":"1"}},{"base_weights":[6.525968E-5,-3.604279E-2,4.510618E0,-1.636329E-1,4.954348E-1,3.3971264E0,8.055708E-2,3.405164E-1,-2.100583E-1,2.7628055E-1,1.251917E0,5.9265057E-3,3.7935574E0,2.505773E-3,1.0113371E-2,-2.7201497E-3,2.32492E-4,1.8541809E-3,9.034773E-3,1.4305899E-2,3.4721056E-3,2.3647169E-2,4.1541662E-2],"categories":[],"categories_nodes":[],"categories_segments":[],"categories_sizes":[],"default_left":[0,0,0,0,0,0,0,0,0,0,0,0,0,0,0,0,0,0,0,0,0,0,0],"id":3,"left_children":[1,3,5,7,9,11,-1,13,15,17,19,-1,21,-1,-1,-1,-1,-1,-1,-1,-1,-1,-1],"loss_changes":[1.4355565E3,5.9301965E2,2.4883923E2,1.6512459E2,2.8031506E2,5.8855835E1,0E0,3.563211E1,9.335895E1,7.4704666E1,6.0911133E1,0E0,1.4843506E1,0E0,0E0,0E0,0E0,0E0,0E0,0E0,0E0,0E0,0E0],"parents":[2147483647,0,0,1,1,2,2,3,3,4,4,5,5,7,7,8,8,9,9,10,10,12,12],"right_children":[2,4,6,8,10,12,-1,14,16,18,20,-1,22,-1,-1,-1,-1,-1,-1,-1,-1,-1,-1],"split_conditions":[8E-3,2.68E2,1.2E-2,1E1,4E-3,4E-3,8.055708E-2,5E-3,3E-3,2.397E3,1.1E1,5.9265057E-3,7E-3,2.505773E-3,1.0113371E-2,-2.7201497E-3,2.32492E-4,1.8541809E-3,9.034773E-3,1.4305899E-2,3.4721056E-3,2.3647169E-2,4.1541662E-2],"split_indices":[11,1,11,19,14,15,0,14,13,4,19,0,13,0,0,0,0,0,0,0,0,0,0],"split_type":[0,0,0,0,0,0,0,0,0,0,0,0,0,0,0,0,0,0,0,0,0,0,0],"sum_hessian":[8.812E3,8.743E3,6.9E1,7.051E3,1.692E3,5.4E1,1.5E1,5.94E2,6.457E3,1.313E3,3.79E2,7E0,4.7E1,5.25E2,6.9E1,5.102E3,1.355E3,1.148E3,1.65E2,3.16E2,6.3E1,1.1E1,3.6E1],"tree_param":{"num_deleted":"0","num_feature":"20","num_nodes":"23","size_leaf_vector":"1"}},{"base_weights":[8.630812E-5,-3.5677858E-2,4.4676833E0,-1.6199511E-1,4.9049756E-1,3.364452E0,7.980186E-2,3.3713257E-1,-2.079581E-1,2.735261E-1,1.239445E0,5.8746478E-3,3.756982E0,2.4807628E-3,1.001368E-2,-2.7856224E-3,-6.0113798E-5,5.2882987E-3,5.357105E-4,1.4163291E-2,3.437927E-3,4.2623457E-2,2.6773566E-2],"categories":[],"categories_nodes":[],"categories_segments":[],"categories_sizes":[],"default_left":[0,0,0,0,0,0,0,0,0,0,0,0,0,0,0,0,0,0,0,0,0,0,0],"id":4,"left_children":[1,3,5,7,9,11,-1,13,15,17,19,-1,21,-1,-1,-1,-1,-1,-1,-1,-1,-1,-1],"loss_changes":[1.4083438E3,5.8124646E2,2.442948E2,1.618516E2,2.7475873E2,5.770227E1,0E0,3.4935936E1,9.207541E1,7.3753975E1,5.969763E1,0E0,1.4707764E1,0E0,0E0,0E0,0E0,0E0,0E0,0E0,0E0,0E0,0E0],"parents":[2147483647,0,0,1,1,2,2,3,3,4,4,5,5,7,7,8,8,9,9,10,10,12,12],"right_children":[2,4,6,8,10,12,-1,14,16,18,20,-1,22,-1,-1,-1,-1,-1,-1,-1,-1,-1,-1],"split_conditions":[8E-3,2.68E2,1.2E-2,1E1,4E-3,4E-3,7.980186E-2,5E-3,9.4E2,1.1E1,1.1E1,5.8746478E-3,1.429E3,2.4807628E-3,1.001368E-2,-2.7856224E-3,-6.0113798E-5,5.2882987E-3,5.357105E-4,1.4163291E-2,3.437927E-3,4.2623457E-2,2.6773566E-2],"split_indices":[11,1,11,19,14,15,0,14,4,19,19,0,4,0,0,0,0,0,0,0,0,0,0],"split_type":[0,0,0,0,0,0,0,0,0,0,0,0,0,0,0,0,0,0,0,0,0,0,0],"sum_hessian":[8.812E3,8.743E3,6.9E1,7.051E3,1.692E3,5.4E1,1.5E1,5.94E2,6.457E3,1.313E3,3.79E2,7E0,4.7E1,5.25E2,6.9E1,4.784E3,1.673E3,6.07E2,7.06E2,3.16E2,6.3E1,3E1,1.7E1],"tree_param":{"num_deleted":"0","num_feature":"20","num_nodes":"23","size_leaf_vector":"1"}},{"base_weights":[1.06895655E-4,-3.5317216E-2,4.4252257E0,-1.6037375E-1,4.8560658E-1,3.3321795E0,7.905371E-2,-2.4517718E-1,1.0571371E-1,2.707953E-1,1.2270972E0,5.823245E-3,3.72086E0,-3.5613857E-3,-1.2696539E-3,2.959716E-4,7.463879E-3,1.8102828E-3,8.904429E-3,1.4022105E-2,3.4040844E-3,4.221097E-2,2.6520707E-2],"categories":[],"categories_nodes":[],"categories_segments":[],"categories_sizes":[],"default_left":[0,0,0,0,0,0,0,0,0,0,0,0,0,0,0,0,0,0,0,0,0,0,0],"id":5,"left_children":[1,3,5,7,9,11,-1,13,15,17,19,-1,21,-1,-1,-1,-1,-1,-1,-1,-1,-1,-1],"loss_changes":[1.3816901E3,5.697018E2,2.3982275E2,1.5915663E2,2.6931473E2,5.6575073E1,0E0,7.0099365E1,8.311601E1,7.291792E1,5.85083E1,0E0,1.4399719E1,0E0,0E0,0E0,0E0,0E0,0E0,0E0,0E0,0E0,0E0],"parents":[2147483647,0,0,1,1,2,2,3,3,4,4,5,5,7,7,8,8,9,9,10,10,12,12],"right_children":[2,4,6,8,10,12,-1,14,16,18,20,-1,22,-1,-1,-1,-1,-1,-1,-1,-1,-1,-1],"split_conditions":[8E-3,2.68E2,1.2E-2,2.6E-3,4E-3,4E-3,7.905371E-2,7.55E2,4E-3,2.397E3,1.1E1,5.823245E-3,1.429E3,-3.5613857E-3,-1.2696539E-3,2.959716E-4,7.463879E-3,1.8102828E-3,8.904429E-3,1.4022105E-2,3.4040844E-3,4.221097E-2,2.6520707E-2],"split_indices":[11,1,11,15,14,15,0,4,13,4,19,0,4,0,0,0,0,0,0,0,0,0,0],"split_type":[0,0,0,0,0,0,0,0,0,0,0,0,0,0,0,0,0,0,0,0,0,0,0],"sum_hessian":[8.812E3,8.743E3,6.9E1,7.051E3,1.692E3,5.4E1,1.5E1,5.347E3,1.704E3,1.313E3,3.79E2,7E0,4.7E1,2.757E3,2.59E3,1.524E3,1.8E2,1.148E3,1.65E2,3.16E2,6.3E1,3E1,1.7E1],"tree_param":{"num_deleted":"0","num_feature":"20","num_nodes":"23","size_leaf_vector":"1"}},{"base_weights":[1.2688548E-4,-3.496041E-2,4.3831725E0,-1.5876955E-1,4.8076728E-1,3.300217E0,7.831258E-2,3.334182E-1,-2.0409364E-1,2.6809555E-1,1.2148722E0,5.7722926E-3,3.6850853E0,2.4565165E-3,9.88015E-3,-2.6507464E-3,2.5537788E-4,5.203077E-3,5.0806894E-4,1.3882327E-2,3.370575E-3,2.2915589E-2,4.0371727E-2],"categories":[],"categories_nodes":[],"categories_segments":[],"categories_sizes":[],"default_left":[0,0,0,0,0,0,0,0,0,0,0,0,0,0,0,0,0,0,0,0,0,0,0],"id":6,"left_children":[1,3,5,7,9,11,-1,13,15,17,19,-1,21,-1,-1,-1,-1,-1,-1,-1,-1,-1,-1],"loss_changes":[1.355541E3,5.5839325E2,2.3543262E2,1.5738248E2,2.6397632E2,5.5469788E1,0E0,3.392872E1,9.044156E1,7.1978775E1,5.734259E1,0E0,1.4236084E1,0E0,0E0,0E0,0E0,0E0,0E0,0E0,0E0,0E0,0E0],"parents":[2147483647,0,0,1,1,2,2,3,3,4,4,5,5,7,7,8,8,9,9,10,10,12,12],"right_children":[2,4,6,8,10,12,-1,14,16,18,20,-1,22,-1,-1,-1,-1,-1,-1,-1,-1,-1,-1],"split_conditions":[8E-3,2.68E2,1.2E-2,1E1,4E-3,4E-3,7.831258E-2,5E-3,3E-3,1.1E1,1.1E1,5.7722926E-3,7E-3,2.4565165E-3,9.88015E-3,-2.6507464E-3,2.5537788E-4,5.203077E-3,5.0806894E-4,1.3882327E-2,3.370575E-3,2.2915589E-2,4.0371727E-2],"split_indices":[11,1,11,19,14,15,0,14,13,19,19,0,13,0,0,0,0,0,0,0,0,0,0],"split_type":[0,0,0,0,0,0,0,0,0,0,0,0,0,0,0,0,0,0,0,0,0,0,0],"sum_hessian":[8.812E3,8.743E3,6.9E1,7.051E3,1.692E3,5.4E1,1.5E1,5.94E2,6.457E3,1.313E3,3.79E2,7E0,4.7E1,5.25E2,6.9E1,5.102E3,1.355E3,6.07E2,7.06E2,3.16E2,6.3E1,1.1E1,3.6E1],"tree_param":{"num_deleted":"0","num_feature":"20","num_nodes":"23","size_leaf_vector":"1"}},{"base_weights":[1.4618157E-4,-3.4606956E-2,4.34145E0,-1.5718038E-1,4.7597337E-1,3.268474E0,7.75784E-2,-2.4087462E-1,1.05426E-1,2.6541904E-1,1.2027692E0,1.764109E0,4.0131636E-2,-3.5033806E-3,-1.2425898E-3,3.0456047E-4,7.364412E-3,1.7673423E-3,8.776083E-3,9.291288E-3,1.7601302E-2,2.8544422E-3,2.2373011E-2],"categories":[],"categories_nodes":[],"categories_segments":[],"categories_sizes":[],"default_left":[0,0,0,0,0,0,0,0,0,0,0,0,0,0,0,0,0,0,0,0,0,0,0],"id":7,"left_children":[1,3,5,7,9,11,-1,13,15,17,19,21,-1,-1,-1,-1,-1,-1,-1,-1,-1,-1,-1],"loss_changes":[1.3298452E3,5.473025E2,2.3113281E2,1.5502011E2,2.5874585E2,5.447827E1,0E0,6.821973E1,8.062864E1,7.117388E1,5.6293945E1,1.3329994E1,0E0,0E0,0E0,0E0,0E0,0E0,0E0,0E0,0E0,0E0,0E0],"parents":[2147483647,0,0,1,1,2,2,3,3,4,4,5,5,7,7,8,8,9,9,10,10,11,11],"right_children":[2,4,6,8,10,12,-1,14,16,18,20,22,-1,-1,-1,-1,-1,-1,-1,-1,-1,-1,-1],"split_conditions":[8E-3,2.68E2,1.2E-2,2.6E-3,4E-3,6E-3,7.75784E-2,7.55E2,4E-3,2.397E3,5E-3,6.11E2,4.0131636E-2,-3.5033806E-3,-1.2425898E-3,3.0456047E-4,7.364412E-3,1.7673423E-3,8.776083E-3,9.291288E-3,1.7601302E-2,2.8544422E-3,2.2373011E-2],"split_indices":[11,1,11,15,14,14,0,4,13,4,12,2,0,0,0,0,0,0,0,0,0,0,0],"split_type":[0,0,0,0,0,0,0,0,0,0,0,0,0,0,0,0,0,0,0,0,0,0,0],"sum_hessian":[8.812E3,8.743E3,6.9E1,7.051E3,1.692E3,5.4E1,1.5E1,5.347E3,1.704E3,1.313E3,3.79E2,1.9E1,3.5E1,2.757E3,2.59E3,1.524E3,1.8E2,1.148E3,1.65E2,2.56E2,1.23E2,5E0,1.4E1],"tree_param":{"num_deleted":"0","num_feature":"20","num_nodes":"23","size_leaf_vector":"1"}},{"base_weights":[1.6560496E-4,-3.4256205E-2,4.300082E0,6.356068E-1,-1.2654877E-1,3.2369814E0,7.685111E-2,4.0996328E-1,1.3641094E0,-1.7693165E-1,6.1048645E-1,5.5992156E-3,3.6155124E0,2.6238381E-3,8.145457E-3,8.63986E-3,1.9073209E-2,-2.4424691E-3,8.140332E-4,4.8650573E-3,1.4318494E-2,4.103477E-2,2.5737116E-2],"categories":[],"categories_nodes":[],"categories_segments":[],"categories_sizes":[],"default_left":[0,0,0,0,0,0,0,0,0,0,0,0,0,0,0,0,0,0,0,0,0,0,0],"id":8,"left_children":[1,3,5,7,9,11,-1,13,15,17,19,-1,21,-1,-1,-1,-1,-1,-1,-1,-1,-1,-1],"loss_changes":[1.3046102E3,5.4065894E2,2.2691809E2,1.7350351E2,2.8551523E2,5.366815E1,0E0,4.8139038E1,6.6242584E1,1.2514172E2,4.938614E1,0E0,1.3773376E1,0E0,0E0,0E0,0E0,0E0,0E0,0E0,0E0,0E0,0E0],"parents":[2147483647,0,0,1,1,2,2,3,3,4,4,5,5,7,7,8,8,9,9,10,10,12,12],"right_children":[2,4,6,8,10,12,-1,14,16,18,20,-1,22,-1,-1,-1,-1,-1,-1,-1,-1,-1,-1],"split_conditions":[8E-3,1E1,1.2E-2,1.92E2,1.803E3,4E-3,7.685111E-2,4E-3,5E-3,3E-3,1.5E-3,5.5992156E-3,1.429E3,2.6238381E-3,8.145457E-3,8.63986E-3,1.9073209E-2,-2.4424691E-3,8.140332E-4,4.8650573E-3,1.4318494E-2,4.103477E-2,2.5737116E-2],"split_indices":[11,19,11,0,4,15,0,14,15,11,10,0,4,0,0,0,0,0,0,0,0,0,0],"split_type":[0,0,0,0,0,0,0,0,0,0,0,0,0,0,0,0,0,0,0,0,0,0,0],"sum_hessian":[8.812E3,8.743E3,6.9E1,1.058E3,7.685E3,5.4E1,1.5E1,8.09E2,2.49E2,7.194E3,4.91E2,7E0,4.7E1,5.94E2,2.15E2,1.31E2,1.18E2,5.707E3,1.487E3,4.28E2,6.3E1,3E1,1.7E1],"tree_param":{"num_deleted":"0","num_feature":"20","num_nodes":"23","size_leaf_vector":"1"}},{"base_weights":[1.8727835E-4,-3.390722E-2,4.2592173E0,6.2928736E-1,-1.2528104E-1,3.205931E0,7.613063E-2,4.5502782E-1,1.5572782E0,-1.7516261E-1,6.0442066E-1,5.5502225E-3,3.5807507E0,2.2684094E-3,7.2326544E-3,9.670478E-3,1.9628787E-2,-2.4180496E-3,8.058991E-4,4.816519E-3,1.4177548E-2,2.2254707E-2,3.9232533E-2],"categories":[],"categories_nodes":[],"categories_segments":[],"categories_sizes":[],"default_left":[0,0,0,0,0,0,0,0,0,0,0,0,0,0,0,0,0,0,0,0,0,0,0],"id":9,"left_children":[1,3,5,7,9,11,-1,13,15,17,19,-1,21,-1,-1,-1,-1,-1,-1,-1,-1,-1,-1],"loss_changes":[1.2799178E3,5.299481E2,2.2276416E2,1.7052347E2,2.798618E2,5.2619934E1,0E0,5.448546E1,3.805194E1,1.2265234E2,4.842534E1,0E0,1.3488403E1,0E0,0E0,0E0,0E0,0E0,0E0,0E0,0E0,0E0,0E0],"parents":[2147483647,0,0,1,1,2,2,3,3,4,4,5,5,7,7,8,8,9,9,10,10,12,12],"right_children":[2,4,6,8,10,12,-1,14,16,18,20,-1,22,-1,-1,-1,-1,-1,-1,-1,-1,-1,-1],"split_conditions":[8E-3,1E1,1.2E-2,5E-3,1.803E3,4E-3,7.613063E-2,6.21E2,1.84E2,3E-3,1.5E-3,5.5502225E-3,7E-3,2.2684094E-3,7.2326544E-3,9.670478E-3,1.9628787E-2,-2.4180496E-3,8.058991E-4,4.816519E-3,1.4177548E-2,2.2254707E-2,3.9232533E-2],"split_indices":[11,19,11,12,4,15,0,3,0,11,10,0,13,0,0,0,0,0,0,0,0,0,0],"split_type":[0,0,0,0,0,0,0,0,0,0,0,0,0,0,0,0,0,0,0,0,0,0,0],"sum_hessian":[8.812E3,8.743E3,6.9E1,1.058E3,7.685E3,5.4E1,1.5E1,8.92E2,1.66E2,7.194E3,4.91E2,7E0,4.7E1,4.83E2,4.09E2,6.9E1,9.7E1,5.707E3,1.487E3,4.28E2,6.3E1,1.1E1,3.6E1],"tree_param":{"num_deleted":"0","num_feature":"20","num_nodes":"23","size_leaf_vector":"1"}},{"base_weights":[2.0813436E-4,-3.3561636E-2,4.2186747E0,-1.531049E-1,4.643962E-1,3.1750944E0,7.54169E-2,-2.3534018E-1,1.04922906E-1,2.5901043E-1,1.1733502E0,5.501658E-3,3.5462263E0,-3.4280627E-3,-1.2085278E-3,3.14093E-4,7.236705E-3,5.0400556E-3,4.794104E-4,1.3420466E-2,3.1928578E-3,4.026347E-2,2.5217835E-2],"categories":[],"categories_nodes":[],"categories_segments":[],"categories_sizes":[],"default_left":[0,0,0,0,0,0,0,0,0,0,0,0,0,0,0,0,0,0,0,0,0,0,0],"id":10,"left_children":[1,3,5,7,9,11,-1,13,15,17,19,-1,21,-1,-1,-1,-1,-1,-1,-1,-1,-1,-1],"loss_changes":[1.2556539E3,5.205764E2,2.1869568E2,1.496623E2,2.4619797E2,5.1588684E1,0E0,6.575314E1,7.752397E1,6.7918526E1,5.4304382E1,0E0,1.3390076E1,0E0,0E0,0E0,0E0,0E0,0E0,0E0,0E0,0E0,0E0],"parents":[2147483647,0,0,1,1,2,2,3,3,4,4,5,5,7,7,8,8,9,9,10,10,12,12],"right_children":[2,4,6,8,10,12,-1,14,16,18,20,-1,22,-1,-1,-1,-1,-1,-1,-1,-1,-1,-1],"split_conditions":[8E-3,2.68E2,1.2E-2,2.6E-3,4E-3,4E-3,7.54169E-2,7.55E2,4E-3,1.1E1,1.1E1,5.501658E-3,1.429E3,-3.4280627E-3,-1.2085278E-3,3.14093E-4,7.236705E-3,5.0400556E-3,4.794104E-4,1.3420466E-2,3.1928578E-3,4.026347E-2,2.5217835E-2],"split_indices":[11,1,11,15,14,15,0,4,13,19,19,0,4,0,0,0,0,0,0,0,0,0,0],"split_type":[0,0,0,0,0,0,0,0,0,0,0,0,0,0,0,0,0,0,0,0,0,0,0],"sum_hessian":[8.812E3,8.743E3,6.9E1,7.051E3,1.692E3,5.4E1,1.5E1,5.347E3,1.704E3,1.313E3,3.79E2,7E0,4.7E1,2.757E3,2.59E3,1.524E3,1.8E2,6.07E2,7.06E2,3.16E2,6.3E1,3E1,1.7E1],"tree_param":{"num_deleted":"0","num_feature":"20","num_nodes":"23","size_leaf_vector":"1"}},{"base_weights":[2.2556706E-4,-3.322312E-2,4.178584E0,6.188953E-1,-1.2307092E-1,3.1446378E0,7.470987E-2,3.9867777E-1,1.3298844E0,-1.7212631E-1,5.9454405E-1,1.6939169E0,3.8629647E-2,2.5481125E-3,7.930847E-3,8.400806E-3,1.8619366E-2,-2.378485E-3,8.009437E-4,4.7342745E-3,1.3969579E-2,2.5033685E-3,2.1577546E-2],"categories":[],"categories_nodes":[],"categories_segments":[],"categories_sizes":[],"default_left":[0,0,0,0,0,0,0,0,0,0,0,0,0,0,0,0,0,0,0,0,0,0,0],"id":11,"left_children":[1,3,5,7,9,11,-1,13,15,17,19,21,-1,-1,-1,-1,-1,-1,-1,-1,-1,-1,-1],"loss_changes":[1.2318903E3,5.123944E2,2.1469202E2,1.6526254E2,2.7066745E2,5.0715942E1,0E0,4.574843E1,6.3559113E1,1.192885E2,4.713527E1,1.2827496E1,0E0,0E0,0E0,0E0,0E0,0E0,0E0,0E0,0E0,0E0,0E0],"parents":[2147483647,0,0,1,1,2,2,3,3,4,4,5,5,7,7,8,8,9,9,10,10,11,11],"right_children":[2,4,6,8,10,12,-1,14,16,18,20,22,-1,-1,-1,-1,-1,-1,-1,-1,-1,-1,-1],"split_conditions":[8E-3,1E1,1.2E-2,1.92E2,1.803E3,6E-3,7.470987E-2,4E-3,5E-3,3E-3,1.5E-3,6.11E2,3.8629647E-2,2.5481125E-3,7.930847E-3,8.400806E-3,1.8619366E-2,-2.378485E-3,8.009437E-4,4.7342745E-3,1.3969579E-2,2.5033685E-3,2.1577546E-2],"split_indices":[11,19,11,0,4,14,0,14,15,11,10,2,0,0,0,0,0,0,0,0,0,0,0],"split_type":[0,0,0,0,0,0,0,0,0,0,0,0,0,0,0,0,0,0,0,0,0,0,0],"sum_hessian":[8.812E3,8.743E3,6.9E1,1.058E3,7.685E3,5.4E1,1.5E1,8.09E2,2.49E2,7.194E3,4.91E2,1.9E1,3.5E1,5.94E2,2.15E2,1.31E2,1.18E2,5.707E3,1.487E3,4.28E2,6.3E1,5E0,1.4E1],"tree_param":{"num_deleted":"0","num_feature":"20","num_nodes":"23","size_leaf_vector":"1"}},{"base_weights":[2.4520155E-4,-3.2884564E-2,4.1387653E0,-1.503521E-1,4.564267E-1,3.1143353E0,7.400946E-2,-2.3145905E-1,1.0413488E-1,3.0645192E-1,1.3948247E0,5.3362423E-3,3.4793634E0,-3.3741237E-3,-1.1858341E-3,3.1698114E-4,7.13814E-3,1.433477E-3,7.241816E-3,9.340616E-3,1.7463801E-2,2.0804381E-2,3.79249E-2],"categories":[],"categories_nodes":[],"categories_segments":[],"categories_sizes":[],"default_left":[0,0,0,0,0,0,0,0,0,0,0,0,0,0,0,0,0,0,0,0,0,0,0],"id":12,"left_children":[1,3,5,7,9,11,-1,13,15,17,19,-1,21,-1,-1,-1,-1,-1,-1,-1,-1,-1,-1],"loss_changes":[1.2085118E3,5.0265488E2,2.107771E2,1.4558333E2,2.3782166E2,4.9914978E1,0E0,6.391507E1,7.526815E1,9.943051E1,3.6084198E1,0E0,1.3077209E1,0E0,0E0,0E0,0E0,0E0,0E0,0E0,0E0,0E0,0E0],"parents":[2147483647,0,0,1,1,2,2,3,3,4,4,5,5,7,7,8,8,9,9,10,10,12,12],"right_children":[2,4,6,8,10,12,-1,14,16,18,20,-1,22,-1,-1,-1,-1,-1,-1,-1,-1,-1,-1],"split_conditions":[8E-3,2.68E2,1.2E-2,2.6E-3,5E-3,4E-3,7.400946E-2,7.55E2,4E-3,1.895E3,1.92E2,5.3362423E-3,-4.1835121E-16,-3.3741237E-3,-1.1858341E-3,3.1698114E-4,7.13814E-3,1.433477E-3,7.241816E-3,9.340616E-3,1.7463801E-2,2.0804381E-2,3.79249E-2],"split_indices":[11,1,11,15,15,15,0,4,13,4,0,0,9,0,0,0,0,0,0,0,0,0,0],"split_type":[0,0,0,0,0,0,0,0,0,0,0,0,0,0,0,0,0,0,0,0,0,0,0],"sum_hessian":[8.812E3,8.743E3,6.9E1,7.051E3,1.692E3,5.4E1,1.5E1,5.347E3,1.704E3,1.46E3,2.32E2,7E0,4.7E1,2.757E3,2.59E3,1.524E3,1.8E2,1.051E3,4.09E2,1.02E2,1.3E2,1E1,3.7E1],"tree_param":{"num_deleted":"0","num_feature":"20","num_nodes":"23","size_leaf_vector":"1"}},{"base_weights":[2.6285613E-4,-3.2551266E-2,4.0993543E0,6.090903E-1,-1.20955616E-1,3.0843601E0,7.331562E-2,4.3990105E-1,1.5100898E0,-1.6907685E-1,5.8299387E-1,1.6587002E0,3.790439E-2,2.5141663E-3,7.3994915E-3,9.383469E-3,1.9029662E-2,-2.3393035E-3,7.9809566E-4,4.034498E-3,1.1125002E-2,2.3864773E-3,2.1154746E-2],"categories":[],"categories_nodes":[],"categories_segments":[],"categories_sizes":[],"default_left":[0,0,0,0,0,0,0,0,0,0,0,0,0,0,0,0,0,0,0,0,0,0,0],"id":13,"left_children":[1,3,5,7,9,11,-1,13,15,17,19,21,-1,-1,-1,-1,-1,-1,-1,-1,-1,-1,-1],"loss_changes":[1.1855939E3,4.9606262E2,2.0692981E2,1.6074957E2,2.6045697E2,4.902289E1,0E0,5.030713E1,3.569821E1,1.1615584E2,4.6310287E1,1.2444473E1,0E0,0E0,0E0,0E0,0E0,0E0,0E0,0E0,0E0,0E0,0E0],"parents":[2147483647,0,0,1,1,2,2,3,3,4,4,5,5,7,7,8,8,9,9,10,10,11,11],"right_children":[2,4,6,8,10,12,-1,14,16,18,20,22,-1,-1,-1,-1,-1,-1,-1,-1,-1,-1,-1],"split_conditions":[8E-3,1E1,1.2E-2,5E-3,1.803E3,6E-3,7.331562E-2,6.86E2,1.84E2,3E-3,2.631E3,6.11E2,3.790439E-2,2.5141663E-3,7.3994915E-3,9.383469E-3,1.9029662E-2,-2.3393035E-3,7.9809566E-4,4.034498E-3,1.1125002E-2,2.3864773E-3,2.1154746E-2],"split_indices":[11,19,11,12,4,14,0,3,0,11,4,2,0,0,0,0,0,0,0,0,0,0,0],"split_type":[0,0,0,0,0,0,0,0,0,0,0,0,0,0,0,0,0,0,0,0,0,0,0],"sum_hessian":[8.812E3,8.743E3,6.9E1,1.058E3,7.685E3,5.4E1,1.5E1,8.92E2,1.66E2,7.194E3,4.91E2,1.9E1,3.5E1,5.49E2,3.43E2,6.9E1,9.7E1,5.707E3,1.487E3,3.68E2,1.23E2,5E0,1.4E1],"tree_param":{"num_deleted":"0","num_feature":"20","num_nodes":"23","size_leaf_vector":"1"}},{"base_weights":[2.815707E-4,-3.2219674E-2,4.0602903E0,6.0303587E-1,-1.1974419E-1,3.0546374E0,7.262829E-2,4.3551326E-1,1.4951596E0,-1.673862E-1,5.771949E-1,5.174827E-3,3.41365E0,2.1812625E-3,6.910493E-3,9.2909755E-3,1.8841308E-2,-2.315914E-3,7.9012115E-4,4.57895E-3,1.3677024E-2,3.8788106E-2,2.422337E-2],"categories":[],"categories_nodes":[],"categories_segments":[],"categories_sizes":[],"default_left":[0,0,0,0,0,0,0,0,0,0,0,0,0,0,0,0,0,0,0,0,0,0,0],"id":14,"left_children":[1,3,5,7,9,11,-1,13,15,17,19,-1,21,-1,-1,-1,-1,-1,-1,-1,-1,-1,-1],"loss_changes":[1.1630936E3,4.8623758E2,2.031565E2,1.5759805E2,2.5529526E2,4.8292114E1,0E0,4.9446518E1,3.49917E1,1.1384514E2,4.5754776E1,0E0,1.2674927E1,0E0,0E0,0E0,0E0,0E0,0E0,0E0,0E0,0E0,0E0],"parents":[2147483647,0,0,1,1,2,2,3,3,4,4,5,5,7,7,8,8,9,9,10,10,12,12],"right_children":[2,4,6,8,10,12,-1,14,16,18,20,-1,22,-1,-1,-1,-1,-1,-1,-1,-1,-1,-1],"split_conditions":[8E-3,1E1,1.2E-2,5E-3,1.803E3,4E-3,7.262829E-2,6.21E2,1.84E2,3E-3,1.5E-3,5.174827E-3,1.429E3,2.1812625E-3,6.910493E-3,9.2909755E-3,1.8841308E-2,-2.315914E-3,7.9012115E-4,4.57895E-3,1.3677024E-2,3.8788106E-2,2.422337E-2],"split_indices":[11,19,11,12,4,15,0,3,0,11,10,0,4,0,0,0,0,0,0,0,0,0,0],"split_type":[0,0,0,0,0,0,0,0,0,0,0,0,0,0,0,0,0,0,0,0,0,0,0],"sum_hessian":[8.812E3,8.743E3,6.9E1,1.058E3,7.685E3,5.4E1,1.5E1,8.92E2,1.66E2,7.194E3,4.91E2,7E0,4.7E1,4.83E2,4.09E2,6.9E1,9.7E1,5.707E3,1.487E3,4.28E2,6.3E1,3E1,1.7E1],"tree_param":{"num_deleted":"0","num_feature":"20","num_nodes":"23","size_leaf_vector":"1"}},{"base_weights":[3.0100107E-4,-3.1891186E-2,4.0217032E0,-1.4644575E-1,4.4528586E-1,3.0253344E0,7.19474E-2,-2.2614965E-1,1.0363804E-1,2.4764262E-1,1.1275172E0,5.129547E-3,3.3808281E0,-3.3017807E-3,-1.1532502E-3,3.2606546E-4,7.0147994E-3,4.830802E-3,4.4808557E-4,1.29003115E-2,3.0479133E-3,2.0149456E-2,3.6869828E-2],"categories":[],"categories_nodes":[],"categories_segments":[],"categories_sizes":[],"default_left":[0,0,0,0,0,0,0,0,0,0,0,0,0,0,0,0,0,0,0,0,0,0,0],"id":15,"left_children":[1,3,5,7,9,11,-1,13,15,17,19,-1,21,-1,-1,-1,-1,-1,-1,-1,-1,-1,-1],"loss_changes":[1.1410791E3,4.780338E2,1.9943738E2,1.4058975E2,2.2798843E2,4.7349274E1,0E0,6.1614075E1,7.237364E1,6.272283E1,5.039856E1,0E0,1.2586182E1,0E0,0E0,0E0,0E0,0E0,0E0,0E0,0E0,0E0,0E0],"parents":[2147483647,0,0,1,1,2,2,3,3,4,4,5,5,7,7,8,8,9,9,10,10,12,12],"right_children":[2,4,6,8,10,12,-1,14,16,18,20,-1,22,-1,-1,-1,-1,-1,-1,-1,-1,-1,-1],"split_conditions":[8E-3,2.68E2,1.2E-2,2.6E-3,4E-3,4E-3,7.19474E-2,7.55E2,4E-3,1.1E1,1.1E1,5.129547E-3,-4.1835121E-16,-3.3017807E-3,-1.1532502E-3,3.2606546E-4,7.0147994E-3,4.830802E-3,4.4808557E-4,1.29003115E-2,3.0479133E-3,2.0149456E-2,3.6869828E-2],"split_indices":[11,1,11,15,14,15,0,4,13,19,19,0,9,0,0,0,0,0,0,0,0,0,0],"split_type":[0,0,0,0,0,0,0,0,0,0,0,0,0,0,0,0,0,0,0,0,0,0,0],"sum_hessian":[8.812E3,8.743E3,6.9E1,7.051E3,1.692E3,5.4E1,1.5E1,5.347E3,1.704E3,1.313E3,3.79E2,7E0,4.7E1,2.757E3,2.59E3,1.524E3,1.8E2,6.07E2,7.06E2,3.16E2,6.3E1,1E1,3.7E1],"tree_param":{"num_deleted":"0","num_feature":"20","num_nodes":"23","size_leaf_vector":"1"}},{"base_weights":[3.1603104E-4,-3.156945E-2,3.9834065E0,5.930568E-1,-1.1762951E-1,2.9962149E0,7.1272895E-2,4.281986E-1,1.4709929E0,-1.6448087E-1,5.677427E-1,1.6073208E0,3.6843166E-2,2.4530983E-3,7.193341E-3,9.122811E-3,1.8549604E-2,-2.2779999E-3,7.851641E-4,3.9163604E-3,1.0871425E-2,2.1671576E-3,2.0557415E-2],"categories":[],"categories_nodes":[],"categories_segments":[],"categories_sizes":[],"default_left":[0,0,0,0,0,0,0,0,0,0,0,0,0,0,0,0,0,0,0,0,0,0,0],"id":16,"left_children":[1,3,5,7,9,11,-1,13,15,17,19,21,-1,-1,-1,-1,-1,-1,-1,-1,-1,-1,-1],"loss_changes":[1.1194406E3,4.7010202E2,1.95797E2,1.5262549E2,2.4689151E2,4.6588715E1,0E0,4.7362045E1,3.410617E1,1.1072432E2,4.4562576E1,1.2003284E1,0E0,0E0,0E0,0E0,0E0,0E0,0E0,0E0,0E0,0E0,0E0],"parents":[2147483647,0,0,1,1,2,2,3,3,4,4,5,5,7,7,8,8,9,9,10,10,11,11],"right_children":[2,4,6,8,10,12,-1,14,16,18,20,22,-1,-1,-1,-1,-1,-1,-1,-1,-1,-1,-1],"split_conditions":[8E-3,1E1,1.2E-2,5E-3,1.803E3,6E-3,7.1272895E-2,6.86E2,1.84E2,3E-3,2.631E3,6.11E2,3.6843166E-2,2.4530983E-3,7.193341E-3,9.122811E-3,1.8549604E-2,-2.2779999E-3,7.851641E-4,3.9163604E-3,1.0871425E-2,2.1671576E-3,2.0557415E-2],"split_indices":[11,19,11,12,4,14,0,3,0,11,4,2,0,0,0,0,0,0,0,0,0,0,0],"split_type":[0,0,0,0,0,0,0,0,0,0,0,0,0,0,0,0,0,0,0,0,0,0,0],"sum_hessian":[8.812E3,8.743E3,6.9E1,1.058E3,7.685E3,5.4E1,1.5E1,8.92E2,1.66E2,7.194E3,4.91E2,1.9E1,3.5E1,5.49E2,3.43E2,6.9E1,9.7E1,5.707E3,1.487E3,3.68E2,1.23E2,5E0,1.4E1],"tree_param":{"num_deleted":"0","num_feature":"20","num_nodes":"23","size_leaf_vector":"1"}},{"base_weights":[3.3363362E-4,-3.1247815E-2,3.9454458E0,-1.438043E-1,4.3760607E-1,2.9673393E0,7.060471E-2,-2.3613633E-1,6.62553E-2,2.4334534E-1,1.1081612E0,4.973749E-3,3.3169723E0,-2.492881E-3,7.6117776E-3,2.2263287E-3,-7.965406E-4,3.4928686E-4,4.641051E-3,1.2679045E-2,2.9946193E-3,3.7715428E-2,2.3492686E-2],"categories":[],"categories_nodes":[],"categories_segments":[],"categories_sizes":[],"default_left":[0,0,0,0,0,0,0,0,0,0,0,0,0,0,0,0,0,0,0,0,0,0,0],"id":17,"left_children":[1,3,5,7,9,11,-1,13,15,17,19,-1,21,-1,-1,-1,-1,-1,-1,-1,-1,-1,-1],"loss_changes":[1.098195E3,4.6150314E2,1.9222668E2,1.3679253E2,2.2025125E2,4.580902E1,0E0,6.444208E1,4.9166878E1,6.0435944E1,4.869467E1,0E0,1.2193176E1,0E0,0E0,0E0,0E0,0E0,0E0,0E0,0E0,0E0,0E0],"parents":[2147483647,0,0,1,1,2,2,3,3,4,4,5,5,7,7,8,8,9,9,10,10,12,12],"right_children":[2,4,6,8,10,12,-1,14,16,18,20,-1,22,-1,-1,-1,-1,-1,-1,-1,-1,-1,-1],"split_conditions":[8E-3,2.68E2,1.2E-2,9.34E2,4E-3,4E-3,7.060471E-2,5E-3,1.1E1,2.6E-3,1.1E1,4.973749E-3,1.429E3,-2.492881E-3,7.6117776E-3,2.2263287E-3,-7.965406E-4,3.4928686E-4,4.641051E-3,1.2679045E-2,2.9946193E-3,3.7715428E-2,2.3492686E-2],"split_indices":[11,1,11,4,14,15,0,14,19,11,19,0,4,0,0,0,0,0,0,0,0,0,0],"split_type":[0,0,0,0,0,0,0,0,0,0,0,0,0,0,0,0,0,0,0,0,0,0,0],"sum_hessian":[8.812E3,8.743E3,6.9E1,7.051E3,1.692E3,5.4E1,1.5E1,4.898E3,2.153E3,1.313E3,3.79E2,7E0,4.7E1,4.835E3,6.3E1,1.039E3,1.114E3,6.76E2,6.37E2,3.16E2,6.3E1,3E1,1.7E1],"tree_param":{"num_deleted":"0","num_feature":"20","num_nodes":"23","size_leaf_vector":"1"}},{"base_weights":[3.4899593E-4,-3.0932156E-2,3.9079497E0,5.8295596E-1,-1.1551277E-1,2.9388728E0,6.9942795E-2,3.7431794E-1,1.2565714E0,-1.6157305E-1,5.5828655E-1,1.0134051E0,3.3969808E0,2.3762248E-3,7.4908403E-3,7.911877E-3,1.7621517E-2,-2.2389712E-3,7.7605323E-4,4.4136397E-3,1.3331534E-2,1.8367128E-3,1.404063E-2,1.514733E-2,3.599199E-2],"categories":[],"categories_nodes":[],"categories_segments":[],"categories_sizes":[],"default_left":[0,0,0,0,0,0,0,0,0,0,0,0,0,0,0,0,0,0,0,0,0,0,0,0,0],"id":18,"left_children":[1,3,5,7,9,11,-1,13,15,17,19,21,23,-1,-1,-1,-1,-1,-1,-1,-1,-1,-1,-1,-1],"loss_changes":[1.07741E3,4.5407767E2,1.8870776E2,1.4834714E2,2.3862422E2,4.5027283E1,0E0,4.1307487E1,5.7402466E1,1.0727164E2,4.396878E1,3.615942E0,1.1244568E1,0E0,0E0,0E0,0E0,0E0,0E0,0E0,0E0,0E0,0E0,0E0,0E0],"parents":[2147483647,0,0,1,1,2,2,3,3,4,4,5,5,7,7,8,8,9,9,10,10,11,11,12,12],"right_children":[2,4,6,8,10,12,-1,14,16,18,20,22,24,-1,-1,-1,-1,-1,-1,-1,-1,-1,-1,-1,-1],"split_conditions":[8E-3,1E1,1.2E-2,1.92E2,1.803E3,4E-3,6.9942795E-2,4E-3,5E-3,3E-3,1.5E-3,1.745E3,5E-3,2.3762248E-3,7.4908403E-3,7.911877E-3,1.7621517E-2,-2.2389712E-3,7.7605323E-4,4.4136397E-3,1.3331534E-2,1.8367128E-3,1.404063E-2,1.514733E-2,3.599199E-2],"split_indices":[11,19,11,0,4,14,0,14,15,11,10,4,13,0,0,0,0,0,0,0,0,0,0,0,0],"split_type":[0,0,0,0,0,0,0,0,0,0,0,0,0,0,0,0,0,0,0,0,0,0,0,0,0],"sum_hessian":[8.812E3,8.743E3,6.9E1,1.058E3,7.685E3,5.4E1,1.5E1,8.09E2,2.49E2,7.194E3,4.91E2,1.1E1,4.3E1,5.94E2,2.15E2,1.31E2,1.18E2,5.707E3,1.487E3,4.28E2,6.3E1,4E0,7E0,5E0,3.8E1],"tree_param":{"num_deleted":"0","num_feature":"20","num_nodes":"25","size_leaf_vector":"1"}},{"base_weights":[3.6702937E-4,-3.061684E-2,3.8708324E0,-1.4121753E-1,4.3009E-1,2.9107082E0,6.928708E-2,-2.1926346E-1,1.0366275E-1,2.8807756E-1,1.3186742E0,4.840954E-3,3.2542953E0,-3.206777E-3,-1.1122422E-3,3.421513E-4,6.8815975E-3,1.3529563E-3,6.7936657E-3,8.797956E-3,1.653604E-2,1.9283742E-2,3.5522122E-2],"categories":[],"categories_nodes":[],"categories_segments":[],"categories_sizes":[],"default_left":[0,0,0,0,0,0,0,0,0,0,0,0,0,0,0,0,0,0,0,0,0,0,0],"id":19,"left_children":[1,3,5,7,9,11,-1,13,15,17,19,-1,21,-1,-1,-1,-1,-1,-1,-1,-1,-1,-1],"loss_changes":[1.0570294E3,4.4560394E2,1.8525E2,1.348011E2,2.1324377E2,4.4243652E1,0E0,5.855652E1,6.917847E1,8.724129E1,3.276935E1,0E0,1.2055847E1,0E0,0E0,0E0,0E0,0E0,0E0,0E0,0E0,0E0,0E0],"parents":[2147483647,0,0,1,1,2,2,3,3,4,4,5,5,7,7,8,8,9,9,10,10,12,12],"right_children":[2,4,6,8,10,12,-1,14,16,18,20,-1,22,-1,-1,-1,-1,-1,-1,-1,-1,-1,-1],"split_conditions":[8E-3,2.68E2,1.2E-2,2.6E-3,5E-3,4E-3,6.928708E-2,7.55E2,4E-3,1.895E3,1.92E2,4.840954E-3,-4.1835121E-16,-3.206777E-3,-1.1122422E-3,3.421513E-4,6.8815975E-3,1.3529563E-3,6.7936657E-3,8.797956E-3,1.653604E-2,1.9283742E-2,3.5522122E-2],"split_indices":[11,1,11,15,15,15,0,4,13,4,0,0,9,0,0,0,0,0,0,0,0,0,0],"split_type":[0,0,0,0,0,0,0,0,0,0,0,0,0,0,0,0,0,0,0,0,0,0,0],"sum_hessian":[8.812E3,8.743E3,6.9E1,7.051E3,1.692E3,5.4E1,1.5E1,5.347E3,1.704E3,1.46E3,2.32E2,7E0,4.7E1,2.757E3,2.59E3,1.524E3,1.8E2,1.051E3,4.09E2,1.02E2,1.3E2,1E1,3.7E1],"tree_param":{"num_deleted":"0","num_feature":"20","num_nodes":"23","size_leaf_vector":"1"}},{"base_weights":[3.8216755E-4,-3.0306483E-2,3.8339703E0,5.7369274E-1,-1.1352465E-1,2.8826892E0,6.863751E-2,4.135063E-1,1.4267633E0,-1.5870677E-1,5.4742837E-1,9.900875E-1,3.3331103E0,2.0826175E-3,6.54762E-3,8.859114E-3,1.7984252E-2,-2.2020654E-3,7.7307626E-4,4.3194224E-3,1.3128365E-2,1.7832918E-3,1.3724255E-2,1.4806275E-2,3.5323866E-2],"categories":[],"categories_nodes":[],"categories_segments":[],"categories_sizes":[],"default_left":[0,0,0,0,0,0,0,0,0,0,0,0,0,0,0,0,0,0,0,0,0,0,0,0,0],"id":20,"left_children":[1,3,5,7,9,11,-1,13,15,17,19,21,23,-1,-1,-1,-1,-1,-1,-1,-1,-1,-1,-1,-1],"loss_changes":[1.0369829E3,4.395664E2,1.8186865E2,1.4410434E2,2.29612E2,4.354242E1,0E0,4.4073166E1,3.194925E1,1.0445265E2,4.290535E1,3.4641418E0,1.0962585E1,0E0,0E0,0E0,0E0,0E0,0E0,0E0,0E0,0E0,0E0,0E0,0E0],"parents":[2147483647,0,0,1,1,2,2,3,3,4,4,5,5,7,7,8,8,9,9,10,10,11,11,12,12],"right_children":[2,4,6,8,10,12,-1,14,16,18,20,22,24,-1,-1,-1,-1,-1,-1,-1,-1,-1,-1,-1,-1],"split_conditions":[8E-3,1E1,1.2E-2,5E-3,1.803E3,4E-3,6.863751E-2,6.21E2,1.84E2,3E-3,1.5E-3,1.745E3,5E-3,2.0826175E-3,6.54762E-3,8.859114E-3,1.7984252E-2,-2.2020654E-3,7.7307626E-4,4.3194224E-3,1.3128365E-2,1.7832918E-3,1.3724255E-2,1.4806275E-2,3.5323866E-2],"split_indices":[11,19,11,12,4,14,0,3,0,11,10,4,13,0,0,0,0,0,0,0,0,0,0,0,0],"split_type":[0,0,0,0,0,0,0,0,0,0,0,0,0,0,0,0,0,0,0,0,0,0,0,0,0],"sum_hessian":[8.812E3,8.743E3,6.9E1,1.058E3,7.685E3,5.4E1,1.5E1,8.92E2,1.66E2,7.194E3,4.91E2,1.1E1,4.3E1,4.83E2,4.09E2,6.9E1,9.7E1,5.707E3,1.487E3,4.28E2,6.3E1,4E0,7E0,5E0,3.8E1],"tree_param":{"num_deleted":"0","num_feature":"20","num_nodes":"25","size_leaf_vector":"1"}},{"base_weights":[3.9949856E-4,-2.999749E-2,3.7975547E0,5.679896E-1,-1.1238733E-1,2.8550613E0,6.799404E-2,4.09381E-1,1.412657E0,-1.5711994E-1,5.4198974E-1,4.711214E-3,3.1926956E0,2.0618348E-3,6.482303E-3,8.771788E-3,1.7806245E-2,-2.670664E-3,-2.6317412E-4,3.7057009E-3,1.04765E-2,1.888254E-2,3.4860156E-2],"categories":[],"categories_nodes":[],"categories_segments":[],"categories_sizes":[],"default_left":[0,0,0,0,0,0,0,0,0,0,0,0,0,0,0,0,0,0,0,0,0,0,0],"id":21,"left_children":[1,3,5,7,9,11,-1,13,15,17,19,-1,21,-1,-1,-1,-1,-1,-1,-1,-1,-1,-1],"loss_changes":[1.01736646E3,4.3085916E2,1.7853632E2,1.4127933E2,2.2506589E2,4.272873E1,0E0,4.3198273E1,3.1316956E1,1.0346335E2,4.22442E1,0E0,1.1729462E1,0E0,0E0,0E0,0E0,0E0,0E0,0E0,0E0,0E0,0E0],"parents":[2147483647,0,0,1,1,2,2,3,3,4,4,5,5,7,7,8,8,9,9,10,10,12,12],"right_children":[2,4,6,8,10,12,-1,14,16,18,20,-1,22,-1,-1,-1,-1,-1,-1,-1,-1,-1,-1],"split_conditions":[8E-3,1E1,1.2E-2,5E-3,1.803E3,4E-3,6.799404E-2,6.21E2,1.84E2,8.15E2,2.631E3,4.711214E-3,-4.1835121E-16,2.0618348E-3,6.482303E-3,8.771788E-3,1.7806245E-2,-2.670664E-3,-2.6317412E-4,3.7057009E-3,1.04765E-2,1.888254E-2,3.4860156E-2],"split_indices":[11,19,11,12,4,15,0,3,0,4,4,0,9,0,0,0,0,0,0,0,0,0,0],"split_type":[0,0,0,0,0,0,0,0,0,0,0,0,0,0,0,0,0,0,0,0,0,0,0],"sum_hessian":[8.812E3,8.743E3,6.9E1,1.058E3,7.685E3,5.4E1,1.5E1,8.92E2,1.66E2,7.194E3,4.91E2,7E0,4.7E1,4.83E2,4.09E2,6.9E1,9.7E1,3.908E3,3.286E3,3.68E2,1.23E2,1E1,3.7E1],"tree_param":{"num_deleted":"0","num_feature":"20","num_nodes":"23","size_leaf_vector":"1"}},{"base_weights":[4.1524335E-4,-2.9692102E-2,3.7613897E0,-1.01560436E-1,6.4400095E-1,2.8275769E0,6.735659E-2,-2.3259583E-1,1.1297117E-1,3.22341E-1,1.2930472E0,9.672695E-1,3.270443E0,-3.7180765E-3,-1.5839259E-3,5.9325463E-4,6.589779E-3,6.7731687E-3,1.5863465E-3,8.7947985E-3,1.6915068E-2,1.7313357E-3,1.3414457E-2,1.4472277E-2,3.4668237E-2],"categories":[],"categories_nodes":[],"categories_segments":[],"categories_sizes":[],"default_left":[0,0,0,0,0,0,0,0,0,0,0,0,0,0,0,0,0,0,0,0,0,0,0,0,0],"id":22,"left_children":[1,3,5,7,9,11,-1,13,15,17,19,21,23,-1,-1,-1,-1,-1,-1,-1,-1,-1,-1,-1,-1],"loss_changes":[9.98071E2,4.2341995E2,1.7527753E2,2.2216243E2,1.7556198E2,4.2106934E1,0E0,5.0614655E1,8.7738594E1,3.2717358E1,4.4463043E1,3.318368E0,1.06875305E1,0E0,0E0,0E0,0E0,0E0,0E0,0E0,0E0,0E0,0E0,0E0,0E0],"parents":[2147483647,0,0,1,1,2,2,3,3,4,4,5,5,7,7,8,8,9,9,10,10,11,11,12,12],"right_children":[2,4,6,8,10,12,-1,14,16,18,20,22,24,-1,-1,-1,-1,-1,-1,-1,-1,-1,-1,-1,-1],"split_conditions":[8E-3,4E-3,1.2E-2,9.34E2,1.62E2,4E-3,6.735659E-2,2E-3,2.169E3,1E1,4E-3,1.745E3,5E-3,-3.7180765E-3,-1.5839259E-3,5.9325463E-4,6.589779E-3,6.7731687E-3,1.5863465E-3,8.7947985E-3,1.6915068E-2,1.7313357E-3,1.3414457E-2,1.4472277E-2,3.4668237E-2],"split_indices":[11,14,11,4,0,14,0,12,4,19,12,4,13,0,0,0,0,0,0,0,0,0,0,0,0],"split_type":[0,0,0,0,0,0,0,0,0,0,0,0,0,0,0,0,0,0,0,0,0,0,0,0,0],"sum_hessian":[8.812E3,8.743E3,6.9E1,7.901E3,8.42E2,5.4E1,1.5E1,4.905E3,2.996E3,5.64E2,2.78E2,1.1E1,4.3E1,1.704E3,3.201E3,2.729E3,2.67E2,1.77E2,3.87E2,1.38E2,1.4E2,4E0,7E0,5E0,3.8E1],"tree_param":{"num_deleted":"0","num_feature":"20","num_nodes":"25","size_leaf_vector":"1"}},{"base_weights":[4.3018325E-4,-2.9391028E-2,3.7256622E0,-1.3636096E-1,4.1619155E-1,2.8004756E0,6.672513E-2,-2.126762E-1,1.0308787E-1,2.7870065E-1,1.2764834E0,1.4943684E0,3.4480214E-2,-3.1065473E-3,-1.0829661E-3,3.5320682E-4,6.734297E-3,1.323492E-3,6.5351296E-3,8.519278E-3,1.600474E-2,1.6960955E-3,1.9239808E-2],"categories":[],"categories_nodes":[],"categories_segments":[],"categories_sizes":[],"default_left":[0,0,0,0,0,0,0,0,0,0,0,0,0,0,0,0,0,0,0,0,0,0,0],"id":23,"left_children":[1,3,5,7,9,11,-1,13,15,17,19,21,-1,-1,-1,-1,-1,-1,-1,-1,-1,-1,-1],"loss_changes":[9.7919086E2,4.1682742E2,1.7206616E2,1.2888843E2,1.9988065E2,4.1315002E1,0E0,5.4655945E1,6.5868164E1,8.004782E1,3.066159E1,1.1035393E1,0E0,0E0,0E0,0E0,0E0,0E0,0E0,0E0,0E0,0E0,0E0],"parents":[2147483647,0,0,1,1,2,2,3,3,4,4,5,5,7,7,8,8,9,9,10,10,11,11],"right_children":[2,4,6,8,10,12,-1,14,16,18,20,22,-1,-1,-1,-1,-1,-1,-1,-1,-1,-1,-1],"split_conditions":[8E-3,2.68E2,1.2E-2,2.6E-3,5E-3,6E-3,6.672513E-2,7.55E2,4E-3,1.895E3,1.92E2,6.11E2,3.4480214E-2,-3.1065473E-3,-1.0829661E-3,3.5320682E-4,6.734297E-3,1.323492E-3,6.5351296E-3,8.519278E-3,1.600474E-2,1.6960955E-3,1.9239808E-2],"split_indices":[11,1,11,15,15,14,0,4,13,4,0,2,0,0,0,0,0,0,0,0,0,0,0],"split_type":[0,0,0,0,0,0,0,0,0,0,0,0,0,0,0,0,0,0,0,0,0,0,0],"sum_hessian":[8.812E3,8.743E3,6.9E1,7.051E3,1.692E3,5.4E1,1.5E1,5.347E3,1.704E3,1.46E3,2.32E2,1.9E1,3.5E1,2.757E3,2.59E3,1.524E3,1.8E2,1.051E3,4.09E2,1.02E2,1.3E2,5E0,1.4E1],"tree_param":{"num_deleted":"0","num_feature":"20","num_nodes":"23","size_leaf_vector":"1"}},{"base_weights":[4.438432E-4,-2.9093007E-2,3.6901548E0,5.549681E-1,-1.0956421E-1,2.773482E0,6.609958E-2,4.0032467E-1,1.378511E0,-1.5307714E-1,5.2697057E-1,4.4819037E-3,3.1030414E0,2.9471489E-3,8.380953E-3,8.572895E-3,1.7366434E-2,-2.1350053E-3,7.8804424E-4,4.1361665E-3,1.278406E-2,1.8291008E-2,3.3898916E-2],"categories":[],"categories_nodes":[],"categories_segments":[],"categories_sizes":[],"default_left":[0,0,0,0,0,0,0,0,0,0,0,0,0,0,0,0,0,0,0,0,0,0,0],"id":24,"left_children":[1,3,5,7,9,11,-1,13,15,17,19,-1,21,-1,-1,-1,-1,-1,-1,-1,-1,-1,-1],"loss_changes":[9.6060626E2,4.1102524E2,1.6892883E2,1.3429984E2,2.1295987E2,4.0721405E1,0E0,4.102762E1,2.9658539E1,1.00827805E2,4.136197E1,0E0,1.1288025E1,0E0,0E0,0E0,0E0,0E0,0E0,0E0,0E0,0E0,0E0],"parents":[2147483647,0,0,1,1,2,2,3,3,4,4,5,5,7,7,8,8,9,9,10,10,12,12],"right_children":[2,4,6,8,10,12,-1,14,16,18,20,-1,22,-1,-1,-1,-1,-1,-1,-1,-1,-1,-1],"split_conditions":[8E-3,1E1,1.2E-2,5E-3,1.803E3,4E-3,6.609958E-2,1.81E2,1.84E2,3E-3,1.5E-3,4.4819037E-3,-4.1835121E-16,2.9471489E-3,8.380953E-3,8.572895E-3,1.7366434E-2,-2.1350053E-3,7.8804424E-4,4.1361665E-3,1.278406E-2,1.8291008E-2,3.3898916E-2],"split_indices":[11,19,11,12,4,15,0,0,0,11,10,0,9,0,0,0,0,0,0,0,0,0,0],"split_type":[0,0,0,0,0,0,0,0,0,0,0,0,0,0,0,0,0,0,0,0,0,0,0],"sum_hessian":[8.812E3,8.743E3,6.9E1,1.058E3,7.685E3,5.4E1,1.5E1,8.92E2,1.66E2,7.194E3,4.91E2,7E0,4.7E1,7.2E2,1.72E2,6.9E1,9.7E1,5.707E3,1.487E3,4.28E2,6.3E1,1E1,3.7E1],"tree_param":{"num_deleted":"0","num_feature":"20","num_nodes":"23","size_leaf_vector":"1"}},{"base_weights":[4.594787E-4,-2.879591E-2,3.6550117E0,-9.910411E-2,6.302719E-1,2.7467813E0,6.54799E-2,-2.2692126E-1,1.101585E-1,3.170944E-1,1.2621896E0,9.318526E-1,3.1791077E0,-3.6428263E-3,-1.5370512E-3,5.8095E-4,6.400585E-3,6.633729E-3,1.5739161E-3,8.589881E-3,1.6506493E-2,1.6329737E-3,1.294468E-2,1.401997E-2,3.3707373E-2],"categories":[],"categories_nodes":[],"categories_segments":[],"categories_sizes":[],"default_left":[0,0,0,0,0,0,0,0,0,0,0,0,0,0,0,0,0,0,0,0,0,0,0,0,0],"id":25,"left_children":[1,3,5,7,9,11,-1,13,15,17,19,21,23,-1,-1,-1,-1,-1,-1,-1,-1,-1,-1,-1,-1],"loss_changes":[9.423864E2,4.052355E2,1.6584546E2,2.1138373E2,1.6641574E2,4.0151703E1,0E0,4.927881E1,8.263843E1,3.1132816E1,4.2256134E1,3.1183195E0,1.0210602E1,0E0,0E0,0E0,0E0,0E0,0E0,0E0,0E0,0E0,0E0,0E0,0E0],"parents":[2147483647,0,0,1,1,2,2,3,3,4,4,5,5,7,7,8,8,9,9,10,10,11,11,12,12],"right_children":[2,4,6,8,10,12,-1,14,16,18,20,22,24,-1,-1,-1,-1,-1,-1,-1,-1,-1,-1,-1,-1],"split_conditions":[8E-3,4E-3,1.2E-2,9.34E2,1.62E2,4E-3,6.54799E-2,2E-3,2.169E3,1E1,4E-3,1.745E3,5E-3,-3.6428263E-3,-1.5370512E-3,5.8095E-4,6.400585E-3,6.633729E-3,1.5739161E-3,8.589881E-3,1.6506493E-2,1.6329737E-3,1.294468E-2,1.401997E-2,3.3707373E-2],"split_indices":[11,14,11,4,0,14,0,12,4,19,12,4,13,0,0,0,0,0,0,0,0,0,0,0,0],"split_type":[0,0,0,0,0,0,0,0,0,0,0,0,0,0,0,0,0,0,0,0,0,0,0,0,0],"sum_hessian":[8.812E3,8.743E3,6.9E1,7.901E3,8.42E2,5.4E1,1.5E1,4.905E3,2.996E3,5.64E2,2.78E2,1.1E1,4.3E1,1.704E3,3.201E3,2.729E3,2.67E2,1.77E2,3.87E2,1.38E2,1.4E2,4E0,7E0,5E0,3.8E1],"tree_param":{"num_deleted":"0","num_feature":"20","num_nodes":"25","size_leaf_vector":"1"}},{"base_weights":[4.7344476E-4,-2.8503891E-2,3.6202927E0,-7.5868644E-2,9.319739E-1,2.7204518E0,6.486602E-2,-1.2706898E-1,5.646988E-1,5.614967E-1,1.5594877E0,9.237572E-1,3.1484036E0,-2.5626933E-3,7.248374E-5,2.5444196E-3,8.1834765E-3,2.1656314E-3,7.3665706E-3,1.1210114E-2,1.9103775E-2,1.6199101E-3,1.2831413E-2,1.3903137E-2,3.3378944E-2],"categories":[],"categories_nodes":[],"categories_segments":[],"categories_sizes":[],"default_left":[0,0,0,0,0,0,0,0,0,0,0,0,0,0,0,0,0,0,0,0,0,0,0,0,0],"id":26,"left_children":[1,3,5,7,9,11,-1,13,15,17,19,21,23,-1,-1,-1,-1,-1,-1,-1,-1,-1,-1,-1,-1],"loss_changes":[9.245586E2,3.9785114E2,1.6280713E2,2.7339984E2,9.465228E1,3.9340393E1,0E0,1.3394135E2,4.833664E1,1.5539795E1,2.1214355E1,3.062892E0,9.970215E0,0E0,0E0,0E0,0E0,0E0,0E0,0E0,0E0,0E0,0E0,0E0,0E0],"parents":[2147483647,0,0,1,1,2,2,3,3,4,4,5,5,7,7,8,8,9,9,10,10,11,11,12,12],"right_children":[2,4,6,8,10,12,-1,14,16,18,20,22,24,-1,-1,-1,-1,-1,-1,-1,-1,-1,-1,-1,-1],"split_conditions":[8E-3,5E-3,1.2E-2,1.803E3,1.84E2,4E-3,6.486602E-2,8.15E2,2.6E-3,3E2,5E-3,1.745E3,5E-3,-2.5626933E-3,7.248374E-5,2.5444196E-3,8.1834765E-3,2.1656314E-3,7.3665706E-3,1.1210114E-2,1.9103775E-2,1.6199101E-3,1.2831413E-2,1.3903137E-2,3.3378944E-2],"split_indices":[11,15,11,4,0,14,0,4,13,2,12,4,13,0,0,0,0,0,0,0,0,0,0,0,0],"split_type":[0,0,0,0,0,0,0,0,0,0,0,0,0,0,0,0,0,0,0,0,0,0,0,0,0],"sum_hessian":[8.812E3,8.743E3,6.9E1,8.333E3,4.1E2,5.4E1,1.5E1,7.717E3,6.16E2,2.59E2,1.51E2,1.1E1,4.3E1,3.933E3,3.784E3,2.78E2,3.38E2,8.8E1,1.71E2,6.9E1,8.2E1,4E0,7E0,5E0,3.8E1],"tree_param":{"num_deleted":"0","num_feature":"20","num_nodes":"25","size_leaf_vector":"1"}},{"base_weights":[4.8867613E-4,-2.821324E-2,3.5859041E0,-9.736205E-2,6.199862E-1,2.6943753E0,6.4257905E-2,-2.2270687E-1,1.07852854E-1,3.1265175E-1,1.2401079E0,4.278126E-3,3.0157945E0,-3.5850725E-3,-1.5032325E-3,5.6830834E-4,6.271523E-3,6.5305126E-3,1.556575E-3,8.448284E-3,1.6209146E-2,1.7696768E-2,3.2968864E-2],"categories":[],"categories_nodes":[],"categories_segments":[],"categories_sizes":[],"default_left":[0,0,0,0,0,0,0,0,0,0,0,0,0,0,0,0,0,0,0,0,0,0,0],"id":27,"left_children":[1,3,5,7,9,11,-1,13,15,17,19,-1,21,-1,-1,-1,-1,-1,-1,-1,-1,-1,-1],"loss_changes":[9.0706757E2,3.919806E2,1.5982416E2,2.0328537E2,1.602597E2,3.8743805E1,0E0,4.8165665E1,7.936514E1,3.0084297E1,4.0602478E1,0E0,1.0928009E1,0E0,0E0,0E0,0E0,0E0,0E0,0E0,0E0,0E0,0E0],"parents":[2147483647,0,0,1,1,2,2,3,3,4,4,5,5,7,7,8,8,9,9,10,10,12,12],"right_children":[2,4,6,8,10,12,-1,14,16,18,20,-1,22,-1,-1,-1,-1,-1,-1,-1,-1,-1,-1],"split_conditions":[8E-3,4E-3,1.2E-2,9.34E2,1.62E2,4E-3,6.4257905E-2,2E-3,2.169E3,1E1,4E-3,4.278126E-3,-4.1835121E-16,-3.5850725E-3,-1.5032325E-3,5.6830834E-4,6.271523E-3,6.5305126E-3,1.556575E-3,8.448284E-3,1.6209146E-2,1.7696768E-2,3.2968864E-2],"split_indices":[11,14,11,4,0,15,0,12,4,19,12,0,9,0,0,0,0,0,0,0,0,0,0],"split_type":[0,0,0,0,0,0,0,0,0,0,0,0,0,0,0,0,0,0,0,0,0,0,0],"sum_hessian":[8.812E3,8.743E3,6.9E1,7.901E3,8.42E2,5.4E1,1.5E1,4.905E3,2.996E3,5.64E2,2.78E2,7E0,4.7E1,1.704E3,3.201E3,2.729E3,2.67E2,1.77E2,3.87E2,1.38E2,1.4E2,1E1,3.7E1],"tree_param":{"num_deleted":"0","num_feature":"20","num_nodes":"23","size_leaf_vector":"1"}},{"base_weights":[5.0128007E-4,-2.7927134E-2,3.551752E0,5.38014E-1,-1.0590186E-1,2.668434E0,6.365548E-2,3.4625962E-1,1.157106E0,-1.4781259E-1,5.0719494E-1,9.024015E-1,3.0892057E0,2.2066103E-3,6.9058794E-3,7.3360438E-3,1.6170649E-2,-2.0718484E-3,8.003331E-4,3.9602555E-3,1.24429595E-2,1.5727262E-3,1.2540568E-2,1.3588898E-2,3.2759413E-2],"categories":[],"categories_nodes":[],"categories_segments":[],"categories_sizes":[],"default_left":[0,0,0,0,0,0,0,0,0,0,0,0,0,0,0,0,0,0,0,0,0,0,0,0,0],"id":28,"left_children":[1,3,5,7,9,11,-1,13,15,17,19,21,23,-1,-1,-1,-1,-1,-1,-1,-1,-1,-1,-1,-1],"loss_changes":[8.898634E2,3.859175E2,1.5690704E2,1.2530203E2,1.9756572E2,3.8042664E1,0E0,3.4868706E1,4.7488556E1,9.734985E1,3.980681E1,2.9330006E0,9.718964E0,0E0,0E0,0E0,0E0,0E0,0E0,0E0,0E0,0E0,0E0,0E0,0E0],"parents":[2147483647,0,0,1,1,2,2,3,3,4,4,5,5,7,7,8,8,9,9,10,10,11,11,12,12],"right_children":[2,4,6,8,10,12,-1,14,16,18,20,22,24,-1,-1,-1,-1,-1,-1,-1,-1,-1,-1,-1,-1],"split_conditions":[8E-3,1E1,1.2E-2,1.92E2,1.803E3,4E-3,6.365548E-2,4E-3,5E-3,3E-3,1.5E-3,1.745E3,5E-3,2.2066103E-3,6.9058794E-3,7.3360438E-3,1.6170649E-2,-2.0718484E-3,8.003331E-4,3.9602555E-3,1.24429595E-2,1.5727262E-3,1.2540568E-2,1.3588898E-2,3.2759413E-2],"split_indices":[11,19,11,0,4,14,0,14,15,11,10,4,13,0,0,0,0,0,0,0,0,0,0,0,0],"split_type":[0,0,0,0,0,0,0,0,0,0,0,0,0,0,0,0,0,0,0,0,0,0,0,0,0],"sum_hessian":[8.812E3,8.743E3,6.9E1,1.058E3,7.685E3,5.4E1,1.5E1,8.09E2,2.49E2,7.194E3,4.91E2,1.1E1,4.3E1,5.94E2,2.15E2,1.31E2,1.18E2,5.707E3,1.487E3,4.28E2,6.3E1,4E0,7E0,5E0,3.8E1],"tree_param":{"num_deleted":"0","num_feature":"20","num_nodes":"25","size_leaf_vector":"1"}},{"base_weights":[5.158791E-4,-2.7642326E-2,3.5180135E0,-7.386597E-2,9.0969473E-1,2.6428545E0,6.305871E-2,-1.23671554E-1,5.492512E-1,5.500846E-1,1.5187668E0,4.160528E-3,2.9587202E0,-2.4992109E-3,7.577961E-5,2.4375452E-3,7.990279E-3,2.1413926E-3,7.2066044E-3,1.0904853E-2,1.861549E-2,1.7327119E-2,3.2354932E-2],"categories":[],"categories_nodes":[],"categories_segments":[],"categories_sizes":[],"default_left":[0,0,0,0,0,0,0,0,0,0,0,0,0,0,0,0,0,0,0,0,0,0,0],"id":29,"left_children":[1,3,5,7,9,11,-1,13,15,17,19,-1,21,-1,-1,-1,-1,-1,-1,-1,-1,-1,-1],"loss_changes":[8.7302826E2,3.7891135E2,1.5403229E2,2.5870694E2,8.916455E1,3.7420654E1,0E0,1.2789307E2,4.687558E1,1.473542E1,2.0255188E1,0E0,1.0631805E1,0E0,0E0,0E0,0E0,0E0,0E0,0E0,0E0,0E0,0E0],"parents":[2147483647,0,0,1,1,2,2,3,3,4,4,5,5,7,7,8,8,9,9,10,10,12,12],"right_children":[2,4,6,8,10,12,-1,14,16,18,20,-1,22,-1,-1,-1,-1,-1,-1,-1,-1,-1,-1],"split_conditions":[8E-3,5E-3,1.2E-2,1.803E3,1.84E2,4E-3,6.305871E-2,8.15E2,2.6E-3,3E2,5E-3,4.160528E-3,-4.1835121E-16,-2.4992109E-3,7.577961E-5,2.4375452E-3,7.990279E-3,2.1413926E-3,7.2066044E-3,1.0904853E-2,1.861549E-2,1.7327119E-2,3.2354932E-2],"split_indices":[11,15,11,4,0,15,0,4,13,2,12,0,9,0,0,0,0,0,0,0,0,0,0],"split_type":[0,0,0,0,0,0,0,0,0,0,0,0,0,0,0,0,0,0,0,0,0,0,0],"sum_hessian":[8.812E3,8.743E3,6.9E1,8.333E3,4.1E2,5.4E1,1.5E1,7.717E3,6.16E2,2.59E2,1.51E2,7E0,4.7E1,3.933E3,3.784E3,2.78E2,3.38E2,8.8E1,1.71E2,6.9E1,8.2E1,1E1,3.7E1],"tree_param":{"num_deleted":"0","num_feature":"20","num_nodes":"23","size_leaf_vector":"1"}},{"base_weights":[5.2933546E-4,-2.7360532E-2,3.4845076E0,-9.488204E-2,6.055841E-1,2.6174085E0,6.2467534E-2,-2.2616833E-1,9.241947E-2,3.0641398E-1,1.209224E0,8.815051E-1,3.031123E0,-3.403536E-3,-1.6281009E-3,2.889201E-3,-6.0007133E-4,6.360467E-3,1.5437524E-3,8.245144E-3,1.5798297E-2,1.5268602E-3,1.2255788E-2,1.3281171E-2,3.215146E-2],"categories":[],"categories_nodes":[],"categories_segments":[],"categories_sizes":[],"default_left":[0,0,0,0,0,0,0,0,0,0,0,0,0,0,0,0,0,0,0,0,0,0,0,0,0],"id":30,"left_children":[1,3,5,7,9,11,-1,13,15,17,19,21,23,-1,-1,-1,-1,-1,-1,-1,-1,-1,-1,-1,-1],"loss_changes":[8.564689E2,3.7374796E2,1.5122095E2,1.943334E2,1.5185251E2,3.6788177E1,0E0,3.3551422E1,9.7573044E1,2.8209972E1,3.8451965E1,2.808298E0,9.473755E0,0E0,0E0,0E0,0E0,0E0,0E0,0E0,0E0,0E0,0E0,0E0,0E0],"parents":[2147483647,0,0,1,1,2,2,3,3,4,4,5,5,7,7,8,8,9,9,10,10,11,11,12,12],"right_children":[2,4,6,8,10,12,-1,14,16,18,20,22,24,-1,-1,-1,-1,-1,-1,-1,-1,-1,-1,-1,-1],"split_conditions":[8E-3,4E-3,1.2E-2,4.41E2,1.62E2,4E-3,6.2467534E-2,2E-3,1.1E1,1E1,4E-3,1.745E3,5E-3,-3.403536E-3,-1.6281009E-3,2.889201E-3,-6.0007133E-4,6.360467E-3,1.5437524E-3,8.245144E-3,1.5798297E-2,1.5268602E-3,1.2255788E-2,1.3281171E-2,3.215146E-2],"split_indices":[11,14,11,3,0,14,0,12,19,19,12,4,13,0,0,0,0,0,0,0,0,0,0,0,0],"split_type":[0,0,0,0,0,0,0,0,0,0,0,0,0,0,0,0,0,0,0,0,0,0,0,0,0],"sum_hessian":[8.812E3,8.743E3,6.9E1,7.901E3,8.42E2,5.4E1,1.5E1,4.645E3,3.256E3,5.64E2,2.78E2,1.1E1,4.3E1,1.656E3,2.989E3,1.422E3,1.834E3,1.77E2,3.87E2,1.38E2,1.4E2,4E0,7E0,5E0,3.8E1],"tree_param":{"num_deleted":"0","num_feature":"20","num_nodes":"25","size_leaf_vector":"1"}},{"base_weights":[5.4124073E-4,-2.7083544E-2,3.4514067E0,-1.2742743E-1,3.9089766E-1,2.5923166E0,6.1881904E-2,-2.0075944E-1,1.0265882E-1,2.1817692E-1,9.870928E-1,4.0456597E-3,2.902727E0,-2.4974816E-3,-3.2712727E-5,3.783653E-4,6.48191E-3,2.3210052E-4,4.2470414E-3,1.1329118E-2,2.492533E-3,1.6964953E-2,3.1752482E-2],"categories":[],"categories_nodes":[],"categories_segments":[],"categories_sizes":[],"default_left":[0,0,0,0,0,0,0,0,0,0,0,0,0,0,0,0,0,0,0,0,0,0,0],"id":31,"left_children":[1,3,5,7,9,11,-1,13,15,17,19,-1,21,-1,-1,-1,-1,-1,-1,-1,-1,-1,-1],"loss_changes":[8.4026587E2,3.6678677E2,1.484505E2,1.19007774E2,1.7410971E2,3.6143097E1,0E0,5.1736923E1,6.0261925E1,5.289516E1,4.058838E1,0E0,1.0343231E1,0E0,0E0,0E0,0E0,0E0,0E0,0E0,0E0,0E0,0E0],"parents":[2147483647,0,0,1,1,2,2,3,3,4,4,5,5,7,7,8,8,9,9,10,10,12,12],"right_children":[2,4,6,8,10,12,-1,14,16,18,20,-1,22,-1,-1,-1,-1,-1,-1,-1,-1,-1,-1],"split_conditions":[8E-3,2.68E2,1.2E-2,2.6E-3,4E-3,4E-3,6.1881904E-2,3E-3,4E-3,2.6E-3,1.1E1,4.0456597E-3,-4.1835121E-16,-2.4974816E-3,-3.2712727E-5,3.783653E-4,6.48191E-3,2.3210052E-4,4.2470414E-3,1.1329118E-2,2.492533E-3,1.6964953E-2,3.1752482E-2],"split_indices":[11,1,11,15,14,15,0,13,13,11,19,0,9,0,0,0,0,0,0,0,0,0,0],"split_type":[0,0,0,0,0,0,0,0,0,0,0,0,0,0,0,0,0,0,0,0,0,0,0],"sum_hessian":[8.812E3,8.743E3,6.9E1,7.051E3,1.692E3,5.4E1,1.5E1,5.347E3,1.704E3,1.313E3,3.79E2,7E0,4.7E1,4.284E3,1.063E3,1.524E3,1.8E2,6.76E2,6.37E2,3.16E2,6.3E1,1E1,3.7E1],"tree_param":{"num_deleted":"0","num_feature":"20","num_nodes":"23","size_leaf_vector":"1"}},{"base_weights":[5.5145065E-4,-2.6810097E-2,3.4185345E0,5.2151614E-1,-1.0235793E-1,2.5673563E0,6.130176E0,3.7650368E-1,1.2937593E0,-1.4289223E-1,4.9060264E-1,1.357833E0,3.1677205E-2,4.827061E-2,8.029617E-2,2.7745354E-3,7.870738E-3,8.111998E-3,1.625141E-2,-2.0101028E-3,8.0139225E-4,3.2472198E-3,9.647106E-3,1.1484587E-3,1.7638389E-2],"categories":[],"categories_nodes":[],"categories_segments":[],"categories_sizes":[],"default_left":[0,0,0,0,0,0,0,0,0,0,0,0,0,0,0,0,0,0,0,0,0,0,0,0,0],"id":32,"left_children":[1,3,5,7,9,11,13,15,17,19,21,23,-1,-1,-1,-1,-1,-1,-1,-1,-1,-1,-1,-1,-1],"loss_changes":[8.243289E2,3.6226813E2,1.457409E2,1.18088196E2,1.8480145E2,3.559201E1,7.1502686E-1,3.608663E1,2.5362518E1,9.328003E1,3.836734E1,9.871845E0,0E0,0E0,0E0,0E0,0E0,0E0,0E0,0E0,0E0,0E0,0E0,0E0,0E0],"parents":[2147483647,0,0,1,1,2,2,3,3,4,4,5,5,6,6,7,7,8,8,9,9,10,10,11,11],"right_children":[2,4,6,8,10,12,14,16,18,20,22,24,-1,-1,-1,-1,-1,-1,-1,-1,-1,-1,-1,-1,-1],"split_conditions":[8E-3,1E1,1.2E-2,5E-3,1.803E3,6E-3,1.7E-2,1.81E2,1.84E2,3E-3,4E-3,6.11E2,3.1677205E-2,4.827061E-2,8.029617E-2,2.7745354E-3,7.870738E-3,8.111998E-3,1.625141E-2,-2.0101028E-3,8.0139225E-4,3.2472198E-3,9.647106E-3,1.1484587E-3,1.7638389E-2],"split_indices":[11,19,11,12,4,14,11,0,0,11,12,2,0,0,0,0,0,0,0,0,0,0,0,0,0],"split_type":[0,0,0,0,0,0,0,0,0,0,0,0,0,0,0,0,0,0,0,0,0,0,0,0,0],"sum_hessian":[8.812E3,8.743E3,6.9E1,1.058E3,7.685E3,5.4E1,1.5E1,8.92E2,1.66E2,7.194E3,4.91E2,1.9E1,3.5E1,1.1E1,4E0,7.2E2,1.72E2,6.9E1,9.7E1,5.707E3,1.487E3,3.65E2,1.26E2,5E0,1.4E1],"tree_param":{"num_deleted":"0","num_feature":"20","num_nodes":"25","size_leaf_vector":"1"}},{"base_weights":[5.716813E-4,-2.6536556E-2,3.3869126E0,-7.137892E-2,8.8278896E-1,2.542604E0,6.076916E0,-1.1959946E-1,5.319072E-1,5.3460073E-1,1.4725004E0,8.490124E-1,2.9464788E0,4.782813E-2,7.965379E-2,-2.4218203E-3,7.837643E-5,2.3244773E-3,7.767664E-3,2.1004723E-3,6.9937203E-3,1.0589165E-2,1.8034449E-2,1.4401121E-3,1.1822615E-2,1.2864411E-2,3.126062E-2],"categories":[],"categories_nodes":[],"categories_segments":[],"categories_sizes":[],"default_left":[0,0,0,0,0,0,0,0,0,0,0,0,0,0,0,0,0,0,0,0,0,0,0,0,0,0,0],"id":33,"left_children":[1,3,5,7,9,11,13,15,17,19,21,23,25,-1,-1,-1,-1,-1,-1,-1,-1,-1,-1,-1,-1,-1,-1],"loss_changes":[8.091369E2,3.566029E2,1.434461E2,2.4250206E2,8.358359E1,3.5080414E1,8.774414E-1,1.2057152E2,4.5051132E1,1.37480545E1,1.8866394E1,2.6357708E0,9.051453E0,0E0,0E0,0E0,0E0,0E0,0E0,0E0,0E0,0E0,0E0,0E0,0E0,0E0,0E0],"parents":[2147483647,0,0,1,1,2,2,3,3,4,4,5,5,6,6,7,7,8,8,9,9,10,10,11,11,12,12],"right_children":[2,4,6,8,10,12,14,16,18,20,22,24,26,-1,-1,-1,-1,-1,-1,-1,-1,-1,-1,-1,-1,-1,-1],"split_conditions":[8E-3,5E-3,1.2E-2,1.803E3,1.84E2,4E-3,1.7E-2,8.15E2,2.6E-3,3E2,5E-3,1.745E3,5E-3,4.782813E-2,7.965379E-2,-2.4218203E-3,7.837643E-5,2.3244773E-3,7.767664E-3,2.1004723E-3,6.9937203E-3,1.0589165E-2,1.8034449E-2,1.4401121E-3,1.1822615E-2,1.2864411E-2,3.126062E-2],"split_indices":[11,15,11,4,0,14,11,4,13,2,12,4,13,0,0,0,0,0,0,0,0,0,0,0,0,0,0],"split_type":[0,0,0,0,0,0,0,0,0,0,0,0,0,0,0,0,0,0,0,0,0,0,0,0,0,0,0],"sum_hessian":[8.812E3,8.743E3,6.9E1,8.333E3,4.1E2,5.4E1,1.5E1,7.717E3,6.16E2,2.59E2,1.51E2,1.1E1,4.3E1,1.1E1,4E0,3.933E3,3.784E3,2.78E2,3.38E2,8.8E1,1.71E2,6.9E1,8.2E1,4E0,7E0,5E0,3.8E1],"tree_param":{"num_deleted":"0","num_feature":"20","num_nodes":"27","size_leaf_vector":"1"}},{"base_weights":[5.92209E-4,-2.6265927E-2,3.3556914E0,-9.178195E-2,5.878787E-1,2.5182266E0,6.024121E0,-2.1901253E-1,8.973325E-2,2.992555E-1,1.1702236E0,3.841928E-3,2.8212276E0,4.73897E-2,7.9016574E-2,-3.3155882E-3,-1.5656496E-3,2.8158666E-3,-5.908809E-4,6.1769662E-3,1.5236946E-3,7.981574E-3,1.5286418E-2,1.6430633E-2,3.0877689E-2],"categories":[],"categories_nodes":[],"categories_segments":[],"categories_sizes":[],"default_left":[0,0,0,0,0,0,0,0,0,0,0,0,0,0,0,0,0,0,0,0,0,0,0,0,0],"id":34,"left_children":[1,3,5,7,9,11,13,15,17,19,21,-1,23,-1,-1,-1,-1,-1,-1,-1,-1,-1,-1,-1,-1],"loss_changes":[7.942759E2,3.5187537E2,1.4117462E2,1.8251198E2,1.4132507E2,3.4447845E1,1.0345459E0,3.259642E1,9.301237E1,2.6325806E1,3.596277E1,0E0,9.952728E0,0E0,0E0,0E0,0E0,0E0,0E0,0E0,0E0,0E0,0E0,0E0,0E0],"parents":[2147483647,0,0,1,1,2,2,3,3,4,4,5,5,6,6,7,7,8,8,9,9,10,10,12,12],"right_children":[2,4,6,8,10,12,14,16,18,20,22,-1,24,-1,-1,-1,-1,-1,-1,-1,-1,-1,-1,-1,-1],"split_conditions":[8E-3,4E-3,1.2E-2,4.41E2,1.62E2,4E-3,1.7E-2,2E-3,1.1E1,1E1,4E-3,3.841928E-3,-4.1835121E-16,4.73897E-2,7.9016574E-2,-3.3155882E-3,-1.5656496E-3,2.8158666E-3,-5.908809E-4,6.1769662E-3,1.5236946E-3,7.981574E-3,1.5286418E-2,1.6430633E-2,3.0877689E-2],"split_indices":[11,14,11,3,0,15,11,12,19,19,12,0,9,0,0,0,0,0,0,0,0,0,0,0,0],"split_type":[0,0,0,0,0,0,0,0,0,0,0,0,0,0,0,0,0,0,0,0,0,0,0,0,0],"sum_hessian":[8.812E3,8.743E3,6.9E1,7.901E3,8.42E2,5.4E1,1.5E1,4.645E3,3.256E3,5.64E2,2.78E2,7E0,4.7E1,1.1E1,4E0,1.656E3,2.989E3,1.422E3,1.834E3,1.77E2,3.87E2,1.38E2,1.4E2,1E1,3.7E1],"tree_param":{"num_deleted":"0","num_feature":"20","num_nodes":"25","size_leaf_vector":"1"}},{"base_weights":[6.097158E-4,-2.5999993E-2,3.3246768E0,-9.086448E-2,5.82037E-1,2.493978E0,5.971786E0,-2.0863925E-1,1.0195631E-1,2.9627675E-1,1.1586051E0,8.29257E-1,2.8910844E0,4.69553E-2,7.838443E-2,-3.3987004E-3,-1.3869326E-3,2.6501003E-3,-4.307252E-4,6.1155437E-3,1.5084967E-3,7.9023335E-3,1.5134637E-2,1.3978566E-3,1.1552693E-2,1.2572129E-2,3.0680625E-2],"categories":[],"categories_nodes":[],"categories_segments":[],"categories_sizes":[],"default_left":[0,0,0,0,0,0,0,0,0,0,0,0,0,0,0,0,0,0,0,0,0,0,0,0,0,0,0],"id":35,"left_children":[1,3,5,7,9,11,13,15,17,19,21,23,25,-1,-1,-1,-1,-1,-1,-1,-1,-1,-1,-1,-1,-1,-1],"loss_changes":[7.7965094E2,3.4491138E2,1.3894836E2,1.7947221E2,1.385351E2,3.3924255E1,1.1863403E0,4.498059E1,7.088516E1,2.5805325E1,3.52518E1,2.5228748E0,8.822571E0,0E0,0E0,0E0,0E0,0E0,0E0,0E0,0E0,0E0,0E0,0E0,0E0,0E0,0E0],"parents":[2147483647,0,0,1,1,2,2,3,3,4,4,5,5,6,6,7,7,8,8,9,9,10,10,11,11,12,12],"right_children":[2,4,6,8,10,12,14,16,18,20,22,24,26,-1,-1,-1,-1,-1,-1,-1,-1,-1,-1,-1,-1,-1,-1],"split_conditions":[8E-3,4E-3,1.2E-2,9.34E2,1.62E2,4E-3,1.7E-2,2E-3,1.1E1,1E1,4E-3,1.745E3,5E-3,4.69553E-2,7.838443E-2,-3.3987004E-3,-1.3869326E-3,2.6501003E-3,-4.307252E-4,6.1155437E-3,1.5084967E-3,7.9023335E-3,1.5134637E-2,1.3978566E-3,1.1552693E-2,1.2572129E-2,3.0680625E-2],"split_indices":[11,14,11,4,0,14,11,12,19,19,12,4,13,0,0,0,0,0,0,0,0,0,0,0,0,0,0],"split_type":[0,0,0,0,0,0,0,0,0,0,0,0,0,0,0,0,0,0,0,0,0,0,0,0,0,0,0],"sum_hessian":[8.812E3,8.743E3,6.9E1,7.901E3,8.42E2,5.4E1,1.5E1,4.905E3,2.996E3,5.64E2,2.78E2,1.1E1,4.3E1,1.1E1,4E0,1.704E3,3.201E3,1.41E3,1.586E3,1.77E2,3.87E2,1.38E2,1.4E2,4E0,7E0,5E0,3.8E1],"tree_param":{"num_deleted":"0","num_feature":"20","num_nodes":"27","size_leaf_vector":"1"}},{"base_weights":[6.2749116E-4,-2.5736742E-2,3.2940307E0,-1.4407057E-1,3.0333325E-1,2.4700656E0,5.9199085E0,-2.4017881E-1,4.2066004E-2,2.0501842E-1,1.106555E0,3.7340894E-3,2.7678404E0,4.6524875E-2,7.775736E-2,-3.5214769E-3,-1.7752089E-3,-9.667309E-5,4.438021E-3,3.2955263E-4,4.54776E-3,6.42461E-3,1.4229926E-2,3.1639002E-2,1.9314123E-2],"categories":[],"categories_nodes":[],"categories_segments":[],"categories_sizes":[],"default_left":[0,0,0,0,0,0,0,0,0,0,0,0,0,0,0,0,0,0,0,0,0,0,0,0,0],"id":36,"left_children":[1,3,5,7,9,11,13,15,17,19,21,-1,23,-1,-1,-1,-1,-1,-1,-1,-1,-1,-1,-1,-1],"loss_changes":[7.65333E2,3.4053445E2,1.3674774E2,1.1507579E2,1.8241443E2,3.3273285E1,1.3330688E0,2.9692947E1,4.5544487E1,8.8592674E1,3.607303E1,0E0,9.739502E0,0E0,0E0,0E0,0E0,0E0,0E0,0E0,0E0,0E0,0E0,0E0,0E0],"parents":[2147483647,0,0,1,1,2,2,3,3,4,4,5,5,6,6,7,7,8,8,9,9,10,10,12,12],"right_children":[2,4,6,8,10,12,14,16,18,20,22,-1,24,-1,-1,-1,-1,-1,-1,-1,-1,-1,-1,-1,-1],"split_conditions":[8E-3,3E-3,1.2E-2,9.34E2,5E-3,4E-3,1.7E-2,2E-3,4E-3,1.146E3,1.62E2,3.7340894E-3,1.429E3,4.6524875E-2,7.775736E-2,-3.5214769E-3,-1.7752089E-3,-9.667309E-5,4.438021E-3,3.2955263E-4,4.54776E-3,6.42461E-3,1.4229926E-2,3.1639002E-2,1.9314123E-2],"split_indices":[11,11,11,4,14,15,11,12,13,4,0,0,4,0,0,0,0,0,0,0,0,0,0,0,0],"split_type":[0,0,0,0,0,0,0,0,0,0,0,0,0,0,0,0,0,0,0,0,0,0,0,0,0],"sum_hessian":[8.812E3,8.743E3,6.9E1,6.431E3,2.312E3,5.4E1,1.5E1,4.241E3,2.19E3,2.061E3,2.51E2,7E0,4.7E1,1.1E1,4E0,1.52E3,2.721E3,1.941E3,2.49E2,1.221E3,8.4E2,1.03E2,1.48E2,3E1,1.7E1],"tree_param":{"num_deleted":"0","num_feature":"20","num_nodes":"25","size_leaf_vector":"1"}},{"base_weights":[6.443687E-4,-2.5476541E-2,3.2636528E0,-6.897889E-2,8.566745E-1,2.446363E0,5.8684835E0,-1.1580994E-1,5.1692224E-1,5.2010846E-1,1.4266777E0,8.121373E-1,2.8362343E0,4.60984E-2,7.71353E-2,-2.337421E-3,6.7926936E-5,2.235423E-3,7.568221E-3,2.0585286E-3,6.796354E-3,3.078775E-2,1.3376272E-2,1.3568009E-3,1.1321559E-2,1.2306412E-2,3.0102683E-2],"categories":[],"categories_nodes":[],"categories_segments":[],"categories_sizes":[],"default_left":[0,0,0,0,0,0,0,0,0,0,0,0,0,0,0,0,0,0,0,0,0,0,0,0,0,0,0],"id":37,"left_children":[1,3,5,7,9,11,13,15,17,19,21,23,25,-1,-1,-1,-1,-1,-1,-1,-1,-1,-1,-1,-1,-1,-1],"loss_changes":[7.512717E2,3.3560785E2,1.3458356E2,2.2872714E2,7.80863E1,3.2702698E1,1.4746704E0,1.11596825E2,4.3246597E1,1.288562E1,1.8199799E1,2.4314575E0,8.547821E0,0E0,0E0,0E0,0E0,0E0,0E0,0E0,0E0,0E0,0E0,0E0,0E0,0E0,0E0],"parents":[2147483647,0,0,1,1,2,2,3,3,4,4,5,5,6,6,7,7,8,8,9,9,10,10,11,11,12,12],"right_children":[2,4,6,8,10,12,14,16,18,20,22,24,26,-1,-1,-1,-1,-1,-1,-1,-1,-1,-1,-1,-1,-1,-1],"split_conditions":[8E-3,5E-3,1.2E-2,1.803E3,1.84E2,4E-3,1.7E-2,8.15E2,2.6E-3,3E2,-3.5E-3,1.745E3,5E-3,4.60984E-2,7.71353E-2,-2.337421E-3,6.7926936E-5,2.235423E-3,7.568221E-3,2.0585286E-3,6.796354E-3,3.078775E-2,1.3376272E-2,1.3568009E-3,1.1321559E-2,1.2306412E-2,3.0102683E-2],"split_indices":[11,15,11,4,0,14,11,4,13,2,9,4,13,0,0,0,0,0,0,0,0,0,0,0,0,0,0],"split_type":[0,0,0,0,0,0,0,0,0,0,0,0,0,0,0,0,0,0,0,0,0,0,0,0,0,0,0],"sum_hessian":[8.812E3,8.743E3,6.9E1,8.333E3,4.1E2,5.4E1,1.5E1,7.717E3,6.16E2,2.59E2,1.51E2,1.1E1,4.3E1,1.1E1,4E0,3.933E3,3.784E3,2.78E2,3.38E2,8.8E1,1.71E2,6E0,1.45E2,4E0,7E0,5E0,3.8E1],"tree_param":{"num_deleted":"0","num_feature":"20","num_nodes":"27","size_leaf_vector":"1"}},{"base_weights":[6.651653E-4,-2.521476E-2,3.2335708E0,-1.4176218E-1,2.988874E-1,2.4229064E0,5.817507E0,-2.3597862E-1,4.071059E-2,2.1171173E-1,1.1800557E0,3.6286993E-3,2.7155602E0,4.567583E-2,7.651822E-2,-3.466547E-3,-1.7404462E-3,-1.02439495E-4,4.3640262E-3,1.5221816E-3,9.647588E-3,5.269994E-3,1.3887747E-2,1.5697544E-2,2.9755153E-2],"categories":[],"categories_nodes":[],"categories_segments":[],"categories_sizes":[],"default_left":[0,0,0,0,0,0,0,0,0,0,0,0,0,0,0,0,0,0,0,0,0,0,0,0,0],"id":38,"left_children":[1,3,5,7,9,11,13,15,17,19,21,-1,23,-1,-1,-1,-1,-1,-1,-1,-1,-1,-1,-1,-1],"loss_changes":[7.3747406E2,3.303303E2,1.3245172E2,1.1059007E2,1.7741266E2,3.214209E1,1.6115112E0,2.9011703E1,4.4184338E1,9.419388E1,2.7600403E1,0E0,9.580902E0,0E0,0E0,0E0,0E0,0E0,0E0,0E0,0E0,0E0,0E0,0E0,0E0],"parents":[2147483647,0,0,1,1,2,2,3,3,4,4,5,5,6,6,7,7,8,8,9,9,10,10,12,12],"right_children":[2,4,6,8,10,12,14,16,18,20,22,-1,24,-1,-1,-1,-1,-1,-1,-1,-1,-1,-1,-1,-1],"split_conditions":[8E-3,3E-3,1.2E-2,9.34E2,5E-3,4E-3,1.7E-2,2E-3,4E-3,2.545E3,2.6E-3,3.6286993E-3,-4.1835121E-16,4.567583E-2,7.651822E-2,-3.466547E-3,-1.7404462E-3,-1.02439495E-4,4.3640262E-3,1.5221816E-3,9.647588E-3,5.269994E-3,1.3887747E-2,1.5697544E-2,2.9755153E-2],"split_indices":[11,11,11,4,12,15,11,12,13,4,14,0,9,0,0,0,0,0,0,0,0,0,0,0,0],"split_type":[0,0,0,0,0,0,0,0,0,0,0,0,0,0,0,0,0,0,0,0,0,0,0,0,0],"sum_hessian":[8.812E3,8.743E3,6.9E1,6.431E3,2.312E3,5.4E1,1.5E1,4.241E3,2.19E3,2.105E3,2.07E2,7E0,4.7E1,1.1E1,4E0,1.52E3,2.721E3,1.941E3,2.49E2,1.952E3,1.53E2,5.1E1,1.56E2,1E1,3.7E1],"tree_param":{"num_deleted":"0","num_feature":"20","num_nodes":"25","size_leaf_vector":"1"}},{"base_weights":[6.814089E-4,-2.4959158E-2,3.2036877E0,4.947652E-1,-9.656639E-2,2.3995733E0,5.7669754E0,3.1908536E-1,1.0619488E0,-1.3484426E-1,4.633845E-1,7.932114E-1,2.782909E0,4.525714E-2,7.5906076E-2,2.4054986E-3,7.867843E-3,6.8019996E-3,1.4763933E-2,-1.9041249E-3,7.840061E-4,3.5672395E-3,1.1709468E-2,1.3169164E-3,1.1062598E-2,1.2026187E-2,2.9544175E-2],"categories":[],"categories_nodes":[],"categories_segments":[],"categories_sizes":[],"default_left":[0,0,0,0,0,0,0,0,0,0,0,0,0,0,0,0,0,0,0,0,0,0,0,0,0,0,0],"id":39,"left_children":[1,3,5,7,9,11,13,15,17,19,21,23,25,-1,-1,-1,-1,-1,-1,-1,-1,-1,-1,-1,-1,-1,-1],"loss_changes":[7.2389606E2,3.2546066E2,1.3036243E2,1.05168976E2,1.6479883E2,3.162445E1,1.7435913E0,2.9552559E1,3.852762E1,8.527423E1,3.6697754E1,2.3269887E0,8.330872E0,0E0,0E0,0E0,0E0,0E0,0E0,0E0,0E0,0E0,0E0,0E0,0E0,0E0,0E0],"parents":[2147483647,0,0,1,1,2,2,3,3,4,4,5,5,6,6,7,7,8,8,9,9,10,10,11,11,12,12],"right_children":[2,4,6,8,10,12,14,16,18,20,22,24,26,-1,-1,-1,-1,-1,-1,-1,-1,-1,-1,-1,-1,-1,-1],"split_conditions":[8E-3,1E1,1.2E-2,1.92E2,1.803E3,4E-3,1.7E-2,4E-3,5E-3,3E-3,1.5E-3,1.745E3,5E-3,4.525714E-2,7.5906076E-2,2.4054986E-3,7.867843E-3,6.8019996E-3,1.4763933E-2,-1.9041249E-3,7.840061E-4,3.5672395E-3,1.1709468E-2,1.3169164E-3,1.1062598E-2,1.2026187E-2,2.9544175E-2],"split_indices":[11,19,11,0,4,14,11,11,15,11,10,4,13,0,0,0,0,0,0,0,0,0,0,0,0,0,0],"split_type":[0,0,0,0,0,0,0,0,0,0,0,0,0,0,0,0,0,0,0,0,0,0,0,0,0,0,0],"sum_hessian":[8.812E3,8.743E3,6.9E1,1.058E3,7.685E3,5.4E1,1.5E1,8.09E2,2.49E2,7.194E3,4.91E2,1.1E1,4.3E1,1.1E1,4E0,6.94E2,1.15E2,1.31E2,1.18E2,5.707E3,1.487E3,4.28E2,6.3E1,4E0,7E0,5E0,3.8E1],"tree_param":{"num_deleted":"0","num_feature":"20","num_nodes":"27","size_leaf_vector":"1"}},{"base_weights":[6.997584E-4,-2.4704278E-2,3.1741595E0,-8.730088E-2,5.620728E-1,2.3765638E0,5.7168846E0,-2.0858712E-1,8.573358E-2,2.8846905E-1,1.1140944E0,3.525776E-3,2.6641748E0,4.484228E-2,7.529883E-2,-2.1904125E-3,4.227854E-3,2.7054339E-3,-5.762344E-4,5.9234244E-3,1.4829397E-3,7.600228E-3,1.4551714E-2,1.5367636E-2,2.9201576E-2],"categories":[],"categories_nodes":[],"categories_segments":[],"categories_sizes":[],"default_left":[0,0,0,0,0,0,0,0,0,0,0,0,0,0,0,0,0,0,0,0,0,0,0,0,0],"id":40,"left_children":[1,3,5,7,9,11,13,15,17,19,21,-1,23,-1,-1,-1,-1,-1,-1,-1,-1,-1,-1,-1,-1],"loss_changes":[7.1060236E2,3.2121362E2,1.2829718E2,1.6585602E2,1.2698724E2,3.104712E1,1.8709717E0,3.0756195E1,8.6307976E1,2.3971195E1,3.256549E1,0E0,9.320526E0,0E0,0E0,0E0,0E0,0E0,0E0,0E0,0E0,0E0,0E0,0E0,0E0],"parents":[2147483647,0,0,1,1,2,2,3,3,4,4,5,5,6,6,7,7,8,8,9,9,10,10,12,12],"right_children":[2,4,6,8,10,12,14,16,18,20,22,-1,24,-1,-1,-1,-1,-1,-1,-1,-1,-1,-1,-1,-1],"split_conditions":[8E-3,4E-3,1.2E-2,4.41E2,1.62E2,4E-3,1.7E-2,1.75E-3,1.1E1,1E1,4E-3,3.525776E-3,-4.1835121E-16,4.484228E-2,7.529883E-2,-2.1904125E-3,4.227854E-3,2.7054339E-3,-5.762344E-4,5.9234244E-3,1.4829397E-3,7.600228E-3,1.4551714E-2,1.5367636E-2,2.9201576E-2],"split_indices":[11,14,11,3,0,15,11,9,19,19,12,0,9,0,0,0,0,0,0,0,0,0,0,0,0],"split_type":[0,0,0,0,0,0,0,0,0,0,0,0,0,0,0,0,0,0,0,0,0,0,0,0,0],"sum_hessian":[8.812E3,8.743E3,6.9E1,7.901E3,8.42E2,5.4E1,1.5E1,4.645E3,3.256E3,5.64E2,2.78E2,7E0,4.7E1,1.1E1,4E0,4.57E3,7.5E1,1.422E3,1.834E3,1.77E2,3.87E2,1.38E2,1.4E2,1E1,3.7E1],"tree_param":{"num_deleted":"0","num_feature":"20","num_nodes":"25","size_leaf_vector":"1"}},{"base_weights":[7.157543E-4,-2.4453335E-2,3.1448271E0,-6.6663876E-2,8.3150077E-1,2.3536763E0,5.667231E0,-1.1201168E-1,5.006797E-1,5.069989E-1,1.3810335E0,7.746947E-1,2.7305877E0,4.443123E-2,7.469644E-2,-2.2628536E-3,6.787433E-5,2.13147E-3,7.358152E-3,2.0260024E-3,6.615016E-3,3.0159596E-2,1.293119E-2,1.2781743E-3,1.0809061E-2,1.1751792E-2,2.89961E-2],"categories":[],"categories_nodes":[],"categories_segments":[],"categories_sizes":[],"default_left":[0,0,0,0,0,0,0,0,0,0,0,0,0,0,0,0,0,0,0,0,0,0,0,0,0,0,0],"id":41,"left_children":[1,3,5,7,9,11,13,15,17,19,21,23,25,-1,-1,-1,-1,-1,-1,-1,-1,-1,-1,-1,-1,-1,-1],"loss_changes":[6.975197E2,3.15971E2,1.2627301E2,2.1446756E2,7.257233E1,3.0582062E1,1.9939575E0,1.047803E2,4.1548523E1,1.2085251E1,1.7904419E1,2.2267284E0,8.119232E0,0E0,0E0,0E0,0E0,0E0,0E0,0E0,0E0,0E0,0E0,0E0,0E0,0E0,0E0],"parents":[2147483647,0,0,1,1,2,2,3,3,4,4,5,5,6,6,7,7,8,8,9,9,10,10,11,11,12,12],"right_children":[2,4,6,8,10,12,14,16,18,20,22,24,26,-1,-1,-1,-1,-1,-1,-1,-1,-1,-1,-1,-1,-1,-1],"split_conditions":[8E-3,5E-3,1.2E-2,1.803E3,1.84E2,4E-3,1.7E-2,8.15E2,2.6E-3,3E2,-3.5E-3,1.745E3,5E-3,4.443123E-2,7.469644E-2,-2.2628536E-3,6.787433E-5,2.13147E-3,7.358152E-3,2.0260024E-3,6.615016E-3,3.0159596E-2,1.293119E-2,1.2781743E-3,1.0809061E-2,1.1751792E-2,2.89961E-2],"split_indices":[11,15,11,4,0,14,11,4,13,2,9,4,13,0,0,0,0,0,0,0,0,0,0,0,0,0,0],"split_type":[0,0,0,0,0,0,0,0,0,0,0,0,0,0,0,0,0,0,0,0,0,0,0,0,0,0,0],"sum_hessian":[8.812E3,8.743E3,6.9E1,8.333E3,4.1E2,5.4E1,1.5E1,7.717E3,6.16E2,2.59E2,1.51E2,1.1E1,4.3E1,1.1E1,4E0,3.933E3,3.784E3,2.78E2,3.38E2,8.8E1,1.71E2,6E0,1.45E2,4E0,7E0,5E0,3.8E1],"tree_param":{"num_deleted":"0","num_feature":"20","num_nodes":"27","size_leaf_vector":"1"}},{"base_weights":[7.348961E-4,-2.4202008E-2,3.1158426E0,-1.4074953E-1,2.8198886E-1,2.331106E0,5.61801E0,-2.3682642E-1,1.9285426E-2,1.4398697E-1,9.246644E-1,3.4252678E-3,2.6137626E0,4.4023942E-2,7.409886E-2,-2.4740093E-3,4.207146E-3,1.8301177E-3,-8.4951427E-4,1.18252865E-4,3.4404208E-3,5.6628236E-3,1.4557236E-2,1.5044427E-2,2.865835E-2],"categories":[],"categories_nodes":[],"categories_segments":[],"categories_sizes":[],"default_left":[0,0,0,0,0,0,0,0,0,0,0,0,0,0,0,0,0,0,0,0,0,0,0,0,0],"id":42,"left_children":[1,3,5,7,9,11,13,15,17,19,21,-1,23,-1,-1,-1,-1,-1,-1,-1,-1,-1,-1,-1,-1],"loss_changes":[6.8471027E2,3.1207483E2,1.2427228E2,9.739619E1,2.1368883E2,2.9989868E1,2.1123657E0,2.7623001E1,4.0583168E1,5.250147E1,8.0232605E1,0E0,9.066986E0,0E0,0E0,0E0,0E0,0E0,0E0,0E0,0E0,0E0,0E0,0E0,0E0],"parents":[2147483647,0,0,1,1,2,2,3,3,4,4,5,5,6,6,7,7,8,8,9,9,10,10,12,12],"right_children":[2,4,6,8,10,12,14,16,18,20,22,-1,24,-1,-1,-1,-1,-1,-1,-1,-1,-1,-1,-1,-1],"split_conditions":[8E-3,3E-3,1.2E-2,4.38E2,1.81E2,4E-3,1.7E-2,1.75E-3,1.1E1,2.6E-3,4E-3,3.4252678E-3,-4.1835121E-16,4.4023942E-2,7.409886E-2,-2.4740093E-3,4.207146E-3,1.8301177E-3,-8.4951427E-4,1.18252865E-4,3.4404208E-3,5.6628236E-3,1.4557236E-2,1.5044427E-2,2.865835E-2],"split_indices":[11,14,11,3,0,15,11,9,19,15,12,0,9,0,0,0,0,0,0,0,0,0,0,0,0],"split_type":[0,0,0,0,0,0,0,0,0,0,0,0,0,0,0,0,0,0,0,0,0,0,0,0,0],"sum_hessian":[8.812E3,8.743E3,6.9E1,6.333E3,2.41E3,5.4E1,1.5E1,3.957E3,2.376E3,1.985E3,4.25E2,7E0,4.7E1,1.1E1,4E0,3.895E3,6.2E1,9.24E2,1.452E3,1.196E3,7.89E2,2.55E2,1.7E2,1E1,3.7E1],"tree_param":{"num_deleted":"0","num_feature":"20","num_nodes":"25","size_leaf_vector":"1"}},{"base_weights":[7.4942026E-4,-2.3956873E-2,3.0870507E0,-1.3641581E-1,2.887754E-1,2.3086553E0,5.569219E0,-2.2680673E-1,3.864797E-2,2.0479144E-1,1.1376767E0,1.120654E0,2.8103752E0,4.362039E-2,7.350607E-2,-3.356544E-3,-1.6589779E-3,-1.09706845E-4,4.2397105E-3,1.474795E-3,9.302163E-3,5.1363343E-3,1.3370561E-2,5.362423E-4,1.5261559E-2,2.487291E-2,3.5739474E-2],"categories":[],"categories_nodes":[],"categories_segments":[],"categories_sizes":[],"default_left":[0,0,0,0,0,0,0,0,0,0,0,0,0,0,0,0,0,0,0,0,0,0,0,0,0,0,0],"id":43,"left_children":[1,3,5,7,9,11,13,15,17,19,21,23,25,-1,-1,-1,-1,-1,-1,-1,-1,-1,-1,-1,-1,-1,-1],"loss_changes":[6.7210516E2,3.0756033E2,1.223114E2,1.0179173E2,1.6465686E2,2.9593689E1,2.2265625E0,2.8062897E1,4.1898975E1,8.741004E1,2.5174377E1,7.690649E0,4.24469E-1,0E0,0E0,0E0,0E0,0E0,0E0,0E0,0E0,0E0,0E0,0E0,0E0,0E0,0E0],"parents":[2147483647,0,0,1,1,2,2,3,3,4,4,5,5,6,6,7,7,8,8,9,9,10,10,11,11,12,12],"right_children":[2,4,6,8,10,12,14,16,18,20,22,24,26,-1,-1,-1,-1,-1,-1,-1,-1,-1,-1,-1,-1,-1,-1],"split_conditions":[8E-3,3E-3,1.2E-2,9.34E2,5E-3,7E-3,1.7E-2,2E-3,4E-3,2.545E3,2.6E-3,5.17E2,3.2770023E-1,4.362039E-2,7.350607E-2,-3.356544E-3,-1.6589779E-3,-1.09706845E-4,4.2397105E-3,1.474795E-3,9.302163E-3,5.1363343E-3,1.3370561E-2,5.362423E-4,1.5261559E-2,2.487291E-2,3.5739474E-2],"split_indices":[11,11,11,4,12,13,11,12,13,4,14,1,17,0,0,0,0,0,0,0,0,0,0,0,0,0,0],"split_type":[0,0,0,0,0,0,0,0,0,0,0,0,0,0,0,0,0,0,0,0,0,0,0,0,0,0,0],"sum_hessian":[8.812E3,8.743E3,6.9E1,6.431E3,2.312E3,5.4E1,1.5E1,4.241E3,2.19E3,2.105E3,2.07E2,1.7E1,3.7E1,1.1E1,4E0,1.52E3,2.721E3,1.941E3,2.49E2,1.952E3,1.53E2,5.1E1,1.56E2,5E0,1.2E1,2.9E1,8E0],"tree_param":{"num_deleted":"0","num_feature":"20","num_nodes":"27","size_leaf_vector":"1"}},{"base_weights":[7.671319E-4,-2.3714079E-2,3.058952E0,-1.3848634E-1,2.7781275E-1,2.2869635E0,5.5208535E0,-2.3287953E-1,1.874411E-2,1.4212404E-1,9.0971416E-1,7.437628E-1,2.6556325E0,4.3220535E-2,7.291802E-2,-2.4331752E-3,4.1615707E-3,1.8024844E-3,-8.407781E-4,1.189067E-4,3.3925974E-3,5.5743335E-3,1.4317268E-2,1.2068057E-3,1.03896875E-2,1.1405014E-2,2.8203802E-2],"categories":[],"categories_nodes":[],"categories_segments":[],"categories_sizes":[],"default_left":[0,0,0,0,0,0,0,0,0,0,0,0,0,0,0,0,0,0,0,0,0,0,0,0,0,0,0],"id":44,"left_children":[1,3,5,7,9,11,13,15,17,19,21,23,25,-1,-1,-1,-1,-1,-1,-1,-1,-1,-1,-1,-1,-1,-1],"loss_changes":[6.5991516E2,3.0263995E2,1.2033508E2,9.401247E1,2.065839E2,2.9282013E1,2.3365479E0,2.6913574E1,3.948902E1,5.0980324E1,7.75213E1,2.070272E0,7.726776E0,0E0,0E0,0E0,0E0,0E0,0E0,0E0,0E0,0E0,0E0,0E0,0E0,0E0,0E0],"parents":[2147483647,0,0,1,1,2,2,3,3,4,4,5,5,6,6,7,7,8,8,9,9,10,10,11,11,12,12],"right_children":[2,4,6,8,10,12,14,16,18,20,22,24,26,-1,-1,-1,-1,-1,-1,-1,-1,-1,-1,-1,-1,-1,-1],"split_conditions":[8E-3,3E-3,1.2E-2,4.38E2,1.81E2,4E-3,1.7E-2,1.75E-3,1.1E1,2.6E-3,4E-3,1.745E3,5E-3,4.3220535E-2,7.291802E-2,-2.4331752E-3,4.1615707E-3,1.8024844E-3,-8.407781E-4,1.189067E-4,3.3925974E-3,5.5743335E-3,1.4317268E-2,1.2068057E-3,1.03896875E-2,1.1405014E-2,2.8203802E-2],"split_indices":[11,14,11,3,0,14,11,9,19,15,12,4,13,0,0,0,0,0,0,0,0,0,0,0,0,0,0],"split_type":[0,0,0,0,0,0,0,0,0,0,0,0,0,0,0,0,0,0,0,0,0,0,0,0,0,0,0],"sum_hessian":[8.812E3,8.743E3,6.9E1,6.333E3,2.41E3,5.4E1,1.5E1,3.957E3,2.376E3,1.985E3,4.25E2,1.1E1,4.3E1,1.1E1,4E0,3.895E3,6.2E1,9.24E2,1.452E3,1.196E3,7.89E2,2.55E2,1.7E2,4E0,7E0,5E0,3.8E1],"tree_param":{"num_deleted":"0","num_feature":"20","num_nodes":"27","size_leaf_vector":"1"}},{"base_weights":[7.814317E-4,-2.3473978E-2,3.0307603E0,-8.2355544E-2,5.573125E-1,2.2650301E0,5.47291E0,-1.626591E-1,1.7212458E-1,3.8435254E-1,1.297763E0,7.372998E-1,2.6299787E0,4.2824343E-2,7.233468E-2,-2.3445273E-3,-1.11824535E-4,4.5606671E-4,4.2388136E-3,2.6655167E-3,9.399308E-3,1.0353054E-2,1.7823873E-2,1.1971507E-3,1.0298777E-2,1.1309973E-2,2.7928993E-2],"categories":[],"categories_nodes":[],"categories_segments":[],"categories_sizes":[],"default_left":[0,0,0,0,0,0,0,0,0,0,0,0,0,0,0,0,0,0,0,0,0,0,0,0,0,0,0],"id":45,"left_children":[1,3,5,7,9,11,13,15,17,19,21,23,25,-1,-1,-1,-1,-1,-1,-1,-1,-1,-1,-1,-1,-1,-1],"loss_changes":[6.4779834E2,2.9906512E2,1.1842816E2,1.6228702E2,1.0257933E2,2.8692108E1,2.4423828E0,6.5636795E1,6.065354E1,4.2540123E1,1.74599E1,2.0335116E0,7.5474854E0,0E0,0E0,0E0,0E0,0E0,0E0,0E0,0E0,0E0,0E0,0E0,0E0,0E0,0E0],"parents":[2147483647,0,0,1,1,2,2,3,3,4,4,5,5,6,6,7,7,8,8,9,9,10,10,11,11,12,12],"right_children":[2,4,6,8,10,12,14,16,18,20,22,24,26,-1,-1,-1,-1,-1,-1,-1,-1,-1,-1,-1,-1,-1,-1],"split_conditions":[8E-3,4E-3,1.2E-2,3E-3,5E-3,4E-3,1.7E-2,9.34E2,2.73E2,2.293E3,2.5E2,1.745E3,5E-3,4.2824343E-2,7.233468E-2,-2.3445273E-3,-1.11824535E-4,4.5606671E-4,4.2388136E-3,2.6655167E-3,9.399308E-3,1.0353054E-2,1.7823873E-2,1.1971507E-3,1.0298777E-2,1.1309973E-2,2.7928993E-2],"split_indices":[11,13,11,11,12,14,11,4,1,4,0,4,13,0,0,0,0,0,0,0,0,0,0,0,0,0,0],"split_type":[0,0,0,0,0,0,0,0,0,0,0,0,0,0,0,0,0,0,0,0,0,0,0,0,0,0,0],"sum_hessian":[8.812E3,8.743E3,6.9E1,7.939E3,8.04E2,5.4E1,1.5E1,6.035E3,1.904E3,6.53E2,1.51E2,1.1E1,4.3E1,1.1E1,4E0,4.094E3,1.941E3,1.268E3,6.36E2,5.4E2,1.13E2,1E2,5.1E1,4E0,7E0,5E0,3.8E1],"tree_param":{"num_deleted":"0","num_feature":"20","num_nodes":"27","size_leaf_vector":"1"}},{"base_weights":[7.97391E-4,-2.3234295E-2,3.0028296E0,-8.314634E-2,5.3837687E-1,2.2433078E0,5.4253845E0,-1.8921569E-1,9.439028E-2,2.7864558E-1,1.0623904E0,3.1710556E-3,2.5173976E0,4.2431787E-2,7.1756E-2,-2.2562023E-3,5.5450513E-5,2.728009E-3,-4.834614E-4,5.724854E-3,1.4309881E-3,7.283443E-3,1.3840928E-2,1.7646067E-2,2.9099185E-2],"categories":[],"categories_nodes":[],"categories_segments":[],"categories_sizes":[],"default_left":[0,0,0,0,0,0,0,0,0,0,0,0,0,0,0,0,0,0,0,0,0,0,0,0,0],"id":46,"left_children":[1,3,5,7,9,11,13,15,17,19,21,-1,23,-1,-1,-1,-1,-1,-1,-1,-1,-1,-1,-1,-1],"loss_changes":[6.359037E2,2.9425195E2,1.1655133E2,1.488229E2,1.14425186E2,2.8210754E1,2.544281E0,3.5078568E1,7.529202E1,2.2414326E1,2.8953094E1,0E0,9.0017395E0,0E0,0E0,0E0,0E0,0E0,0E0,0E0,0E0,0E0,0E0,0E0,0E0],"parents":[2147483647,0,0,1,1,2,2,3,3,4,4,5,5,6,6,7,7,8,8,9,9,10,10,12,12],"right_children":[2,4,6,8,10,12,14,16,18,20,22,-1,24,-1,-1,-1,-1,-1,-1,-1,-1,-1,-1,-1,-1],"split_conditions":[8E-3,4E-3,1.2E-2,4.63E2,1.62E2,4E-3,1.7E-2,2.6E-3,1.1E1,1E1,4E-3,3.1710556E-3,-7.965362E-2,4.2431787E-2,7.1756E-2,-2.2562023E-3,5.5450513E-5,2.728009E-3,-4.834614E-4,5.724854E-3,1.4309881E-3,7.283443E-3,1.3840928E-2,1.7646067E-2,2.9099185E-2],"split_indices":[11,14,11,3,0,15,11,11,19,19,12,0,17,0,0,0,0,0,0,0,0,0,0,0,0],"split_type":[0,0,0,0,0,0,0,0,0,0,0,0,0,0,0,0,0,0,0,0,0,0,0,0,0],"sum_hessian":[8.812E3,8.743E3,6.9E1,7.901E3,8.42E2,5.4E1,1.5E1,4.946E3,2.955E3,5.64E2,2.78E2,7E0,4.7E1,1.1E1,4E0,4.167E3,7.79E2,1.313E3,1.642E3,1.77E2,3.87E2,1.38E2,1.4E2,1.8E1,2.9E1],"tree_param":{"num_deleted":"0","num_feature":"20","num_nodes":"25","size_leaf_vector":"1"}},{"base_weights":[8.113235E-4,-2.2998674E-2,2.9751515E0,-6.3423224E-2,7.9673666E-1,2.2792716E0,5.5951513E-2,-1.0687425E-1,4.801885E-1,4.8881727E-1,1.3181335E0,1.156301E0,2.8100647E-2,-2.152602E-3,5.80399E-5,2.0101683E-3,7.0850323E-3,1.9630787E-3,6.3727377E-3,2.9326174E-2,1.2316299E-2,3.6936282E-4,1.5262934E-2],"categories":[],"categories_nodes":[],"categories_segments":[],"categories_sizes":[],"default_left":[0,0,0,0,0,0,0,0,0,0,0,0,0,0,0,0,0,0,0,0,0,0,0],"id":47,"left_children":[1,3,5,7,9,11,-1,13,15,17,19,21,-1,-1,-1,-1,-1,-1,-1,-1,-1,-1,-1],"loss_changes":[6.242261E2,2.8979694E2,1.14792725E2,1.9690073E2,6.5322876E1,3.0686768E1,0E0,9.426125E1,3.9175446E1,1.115704E1,1.7574585E1,8.211126E0,0E0,0E0,0E0,0E0,0E0,0E0,0E0,0E0,0E0,0E0,0E0],"parents":[2147483647,0,0,1,1,2,2,3,3,4,4,5,5,7,7,8,8,9,9,10,10,11,11],"right_children":[2,4,6,8,10,12,-1,14,16,18,20,22,-1,-1,-1,-1,-1,-1,-1,-1,-1,-1,-1],"split_conditions":[8E-3,5E-3,1.3E-2,1.803E3,1.84E2,6E-3,5.5951513E-2,8.15E2,2.6E-3,3E2,-3.5E-3,6.11E2,2.8100647E-2,-2.152602E-3,5.80399E-5,2.0101683E-3,7.0850323E-3,1.9630787E-3,6.3727377E-3,2.9326174E-2,1.2316299E-2,3.6936282E-4,1.5262934E-2],"split_indices":[11,15,11,4,0,14,0,4,13,2,9,2,0,0,0,0,0,0,0,0,0,0,0],"split_type":[0,0,0,0,0,0,0,0,0,0,0,0,0,0,0,0,0,0,0,0,0,0,0],"sum_hessian":[8.812E3,8.743E3,6.9E1,8.333E3,4.1E2,5.6E1,1.3E1,7.717E3,6.16E2,2.59E2,1.51E2,1.9E1,3.7E1,3.933E3,3.784E3,2.78E2,3.38E2,8.8E1,1.71E2,6E0,1.45E2,5E0,1.4E1],"tree_param":{"num_deleted":"0","num_feature":"20","num_nodes":"23","size_leaf_vector":"1"}},{"base_weights":[8.211703E-4,-2.276201E-2,2.9468284E0,-1.3444546E-1,2.7064973E-1,2.199985E0,5.3293004E0,-2.2532904E-1,1.6939359E-2,1.3940115E-1,8.818681E-1,7.097787E-1,2.5561779E0,4.157636E-2,7.0734344E-2,-2.3562417E-3,4.1475296E-3,1.7393148E-3,-8.300878E-4,1.2469428E-4,3.3153768E-3,5.400337E-3,1.3884046E-2,1.1294646E-3,9.928266E-3,1.0931555E-2,2.7154587E-2],"categories":[],"categories_nodes":[],"categories_segments":[],"categories_sizes":[],"default_left":[0,0,0,0,0,0,0,0,0,0,0,0,0,0,0,0,0,0,0,0,0,0,0,0,0,0,0],"id":48,"left_children":[1,3,5,7,9,11,13,15,17,19,21,23,25,-1,-1,-1,-1,-1,-1,-1,-1,-1,-1,-1,-1,-1,-1],"loss_changes":[6.123902E2,2.865692E2,1.127536E2,8.715158E1,1.9328098E2,2.7347107E1,3.1755676E0,2.6178085E1,3.731302E1,4.842744E1,7.299353E1,1.9039907E0,7.246887E0,0E0,0E0,0E0,0E0,0E0,0E0,0E0,0E0,0E0,0E0,0E0,0E0,0E0,0E0],"parents":[2147483647,0,0,1,1,2,2,3,3,4,4,5,5,6,6,7,7,8,8,9,9,10,10,11,11,12,12],"right_children":[2,4,6,8,10,12,14,16,18,20,22,24,26,-1,-1,-1,-1,-1,-1,-1,-1,-1,-1,-1,-1,-1,-1],"split_conditions":[8E-3,3E-3,1.2E-2,4.38E2,1.81E2,4E-3,1.7E-2,1.75E-3,1.1E1,2.6E-3,4E-3,1.745E3,5E-3,4.157636E-2,7.0734344E-2,-2.3562417E-3,4.1475296E-3,1.7393148E-3,-8.300878E-4,1.2469428E-4,3.3153768E-3,5.400337E-3,1.3884046E-2,1.1294646E-3,9.928266E-3,1.0931555E-2,2.7154587E-2],"split_indices":[11,14,11,3,0,14,11,9,19,15,12,4,13,0,0,0,0,0,0,0,0,0,0,0,0,0,0],"split_type":[0,0,0,0,0,0,0,0,0,0,0,0,0,0,0,0,0,0,0,0,0,0,0,0,0,0,0],"sum_hessian":[8.812E3,8.743E3,6.9E1,6.333E3,2.41E3,5.4E1,1.5E1,3.957E3,2.376E3,1.985E3,4.25E2,1.1E1,4.3E1,1.1E1,4E0,3.895E3,6.2E1,9.24E2,1.452E3,1.196E3,7.89E2,2.55E2,1.7E2,4E0,7E0,5E0,3.8E1],"tree_param":{"num_deleted":"0","num_feature":"20","num_nodes":"27","size_leaf_vector":"1"}},{"base_weights":[8.3429745E-4,-2.2531392E-2,2.9196734E0,-7.9769745E-2,5.4204637E-1,2.2354302E0,5.4962587E-2,-1.579521E-1,1.6798796E-1,3.7453356E-1,1.2591602E0,1.1342068E0,2.7559314E-2,-2.269903E-3,-1.2288139E-4,4.5210967E-4,4.122988E-3,2.6039018E-3,9.1284085E-3,1.0051051E-2,1.7282063E-2,3.2419997E-4,1.498641E-2],"categories":[],"categories_nodes":[],"categories_segments":[],"categories_sizes":[],"default_left":[0,0,0,0,0,0,0,0,0,0,0,0,0,0,0,0,0,0,0,0,0,0,0],"id":49,"left_children":[1,3,5,7,9,11,-1,13,15,17,19,21,-1,-1,-1,-1,-1,-1,-1,-1,-1,-1,-1],"loss_changes":[6.011474E2,2.8260535E2,1.11047E2,1.5382643E2,9.621327E1,2.9506989E1,0E0,6.069513E1,5.7118683E1,3.993509E1,1.634851E1,7.9666786E0,0E0,0E0,0E0,0E0,0E0,0E0,0E0,0E0,0E0,0E0,0E0],"parents":[2147483647,0,0,1,1,2,2,3,3,4,4,5,5,7,7,8,8,9,9,10,10,11,11],"right_children":[2,4,6,8,10,12,-1,14,16,18,20,22,-1,-1,-1,-1,-1,-1,-1,-1,-1,-1,-1],"split_conditions":[8E-3,4E-3,1.3E-2,3E-3,5E-3,6E-3,5.4962587E-2,9.34E2,2.73E2,2.293E3,2.5E2,6.11E2,2.7559314E-2,-2.269903E-3,-1.2288139E-4,4.5210967E-4,4.122988E-3,2.6039018E-3,9.1284085E-3,1.0051051E-2,1.7282063E-2,3.2419997E-4,1.498641E-2],"split_indices":[11,13,11,11,12,14,0,4,1,4,0,2,0,0,0,0,0,0,0,0,0,0,0],"split_type":[0,0,0,0,0,0,0,0,0,0,0,0,0,0,0,0,0,0,0,0,0,0,0],"sum_hessian":[8.812E3,8.743E3,6.9E1,7.939E3,8.04E2,5.6E1,1.3E1,6.035E3,1.904E3,6.53E2,1.51E2,1.9E1,3.7E1,4.094E3,1.941E3,1.268E3,6.36E2,5.4E2,1.13E2,1E2,5.1E1,5E0,1.4E1],"tree_param":{"num_deleted":"0","num_feature":"20","num_nodes":"23","size_leaf_vector":"1"}},{"base_weights":[8.418368E-4,-2.0769248E-2,3.1020055E0,-7.970834E-2,5.557148E-1,2.3537338E0,5.4452218E-2,-1.5637296E-1,1.6298562E-1,3.29216E-1,1.1308657E0,8.4824586E-1,2.7781155E0,-2.2472085E-3,-1.21654186E-4,4.4759284E-4,3.975024E-3,2.5931234E-3,9.13416E-3,8.093861E-3,1.7931623E-2,1.4317928E-2,2.4400113E-4,3.0169763E-2,1.322001E-2],"categories":[],"categories_nodes":[],"categories_segments":[],"categories_sizes":[],"default_left":[0,0,0,0,0,0,0,0,0,0,0,0,0,0,0,0,0,0,0,0,0,0,0,0,0],"id":50,"left_children":[1,3,5,7,9,11,-1,13,15,17,19,21,23,-1,-1,-1,-1,-1,-1,-1,-1,-1,-1,-1,-1],"loss_changes":[5.9073816E2,2.9744412E2,9.4060486E1,1.4779459E2,1.0539313E2,2.8274475E1,0E0,5.9487442E1,5.2851383E1,2.360065E1,4.728012E1,5.719535E0,8.837097E0,0E0,0E0,0E0,0E0,0E0,0E0,0E0,0E0,0E0,0E0,0E0,0E0],"parents":[2147483647,0,0,1,1,2,2,3,3,4,4,5,5,7,7,8,8,9,9,10,10,11,11,12,12],"right_children":[2,4,6,8,10,12,-1,14,16,18,20,22,24,-1,-1,-1,-1,-1,-1,-1,-1,-1,-1,-1,-1],"split_conditions":[9E-3,4E-3,1.3E-2,3E-3,1.88E2,2.22E2,5.4452218E-2,9.34E2,2.73E2,5E-3,6E-3,3.2098E6,1.809E3,-2.2472085E-3,-1.21654186E-4,4.4759284E-4,3.975024E-3,2.5931234E-3,9.13416E-3,8.093861E-3,1.7931623E-2,1.4317928E-2,2.4400113E-4,3.0169763E-2,1.322001E-2],"split_indices":[12,13,11,11,0,0,0,4,1,12,14,18,3,0,0,0,0,0,0,0,0,0,0,0,0],"split_type":[0,0,0,0,0,0,0,0,0,0,0,0,0,0,0,0,0,0,0,0,0,0,0,0,0],"sum_hessian":[8.812E3,8.752E3,6E1,7.941E3,8.11E2,4.7E1,1.3E1,6.035E3,1.906E3,5.83E2,2.28E2,1.1E1,3.6E1,4.094E3,1.941E3,1.268E3,6.38E2,5.22E2,6.1E1,1.55E2,7.3E1,6E0,5E0,3E1,6E0],"tree_param":{"num_deleted":"0","num_feature":"20","num_nodes":"25","size_leaf_vector":"1"}},{"base_weights":[8.5073966E-4,-2.0556992E-2,3.0728347E0,-7.8911036E-2,5.502045E-1,2.3314102E0,5.394659E-2,-1.5480974E-1,1.6135822E-1,3.259442E-1,1.1196711E0,5.495964E-1,2.6737828E0,-2.2247431E-3,-1.2043887E-4,4.4312121E-4,3.935337E-3,2.5672424E-3,9.044293E-3,8.013441E-3,1.775473E-2,7.464157E-3,2.4085778E-3,2.875489E-2,1.3106696E-2],"categories":[],"categories_nodes":[],"categories_segments":[],"categories_sizes":[],"default_left":[0,0,0,0,0,0,0,0,0,0,0,0,0,0,0,0,0,0,0,0,0,0,0,0,0],"id":51,"left_children":[1,3,5,7,9,11,-1,13,15,17,19,21,23,-1,-1,-1,-1,-1,-1,-1,-1,-1,-1,-1,-1],"loss_changes":[5.796735E2,2.9156824E2,9.235455E1,1.4485622E2,1.03320145E2,2.7780426E1,0E0,5.8303894E1,5.1801365E1,2.3141144E1,4.635736E1,3.5723877E-1,7.187256E0,0E0,0E0,0E0,0E0,0E0,0E0,0E0,0E0,0E0,0E0,0E0,0E0],"parents":[2147483647,0,0,1,1,2,2,3,3,4,4,5,5,7,7,8,8,9,9,10,10,11,11,12,12],"right_children":[2,4,6,8,10,12,-1,14,16,18,20,22,24,-1,-1,-1,-1,-1,-1,-1,-1,-1,-1,-1,-1],"split_conditions":[9E-3,4E-3,1.3E-2,3E-3,1.88E2,1.84E2,5.394659E-2,9.34E2,2.73E2,5E-3,6E-3,1.41E2,1.809E3,-2.2247431E-3,-1.2043887E-4,4.4312121E-4,3.935337E-3,2.5672424E-3,9.044293E-3,8.013441E-3,1.775473E-2,7.464157E-3,2.4085778E-3,2.875489E-2,1.3106696E-2],"split_indices":[12,13,11,11,0,0,0,4,1,12,14,0,3,0,0,0,0,0,0,0,0,0,0,0,0],"split_type":[0,0,0,0,0,0,0,0,0,0,0,0,0,0,0,0,0,0,0,0,0,0,0,0,0],"sum_hessian":[8.812E3,8.752E3,6E1,7.941E3,8.11E2,4.7E1,1.3E1,6.035E3,1.906E3,5.83E2,2.28E2,8E0,3.9E1,4.094E3,1.941E3,1.268E3,6.38E2,5.22E2,6.1E1,1.55E2,7.3E1,4E0,4E0,3.3E1,6E0],"tree_param":{"num_deleted":"0","num_feature":"20","num_nodes":"25","size_leaf_vector":"1"}},{"base_weights":[8.5873145E-4,-2.1878434E-2,2.841186E0,-1.3080338E-1,2.64286E-1,2.1207485E0,5.139491E0,-2.1837051E-1,1.5057608E-2,1.3766147E-1,8.539621E-1,2.8020157E-3,2.3831158E0,3.982589E-2,6.8861574E-2,-2.2849839E-3,4.1125715E-3,1.6876025E-3,-8.279511E-4,1.3489123E-4,3.2561924E-3,5.2179527E-3,1.3461888E-2,1.649687E-2,2.7678499E-2],"categories":[],"categories_nodes":[],"categories_segments":[],"categories_sizes":[],"default_left":[0,0,0,0,0,0,0,0,0,0,0,0,0,0,0,0,0,0,0,0,0,0,0,0,0],"id":52,"left_children":[1,3,5,7,9,11,13,15,17,19,21,-1,23,-1,-1,-1,-1,-1,-1,-1,-1,-1,-1,-1,-1],"loss_changes":[5.692426E2,2.725876E2,1.049328E2,8.090716E1,1.7989577E2,2.5865082E1,4.798126E0,2.5331467E1,3.576544E1,4.6343784E1,6.893048E1,0E0,8.934143E0,0E0,0E0,0E0,0E0,0E0,0E0,0E0,0E0,0E0,0E0,0E0,0E0],"parents":[2147483647,0,0,1,1,2,2,3,3,4,4,5,5,6,6,7,7,8,8,9,9,10,10,12,12],"right_children":[2,4,6,8,10,12,14,16,18,20,22,-1,24,-1,-1,-1,-1,-1,-1,-1,-1,-1,-1,-1,-1],"split_conditions":[8E-3,3E-3,1.2E-2,4.38E2,1.81E2,4E-3,1.7E-2,1.75E-3,1.1E1,2.6E-3,4E-3,2.8020157E-3,-7.965362E-2,3.982589E-2,6.8861574E-2,-2.2849839E-3,4.1125715E-3,1.6876025E-3,-8.279511E-4,1.3489123E-4,3.2561924E-3,5.2179527E-3,1.3461888E-2,1.649687E-2,2.7678499E-2],"split_indices":[11,14,11,3,0,15,11,9,19,15,12,0,17,0,0,0,0,0,0,0,0,0,0,0,0],"split_type":[0,0,0,0,0,0,0,0,0,0,0,0,0,0,0,0,0,0,0,0,0,0,0,0,0],"sum_hessian":[8.812E3,8.743E3,6.9E1,6.333E3,2.41E3,5.4E1,1.5E1,3.957E3,2.376E3,1.985E3,4.25E2,7E0,4.7E1,1.1E1,4E0,3.895E3,6.2E1,9.24E2,1.452E3,1.196E3,7.89E2,2.55E2,1.7E2,1.8E1,2.9E1],"tree_param":{"num_deleted":"0","num_feature":"20","num_nodes":"25","size_leaf_vector":"1"}},{"base_weights":[8.707387E-4,-2.0165136E-2,3.019496E0,-6.01194E-2,7.888365E-1,2.2914417E0,5.299289E0,-1.3502039E-1,2.2518082E-1,4.9706993E-1,1.3058587E0,8.243791E-1,2.7050445E0,4.0024705E-2,6.8310685E-2,-2.754681E-3,-7.111769E-4,1.1330908E-3,5.0281542E-3,4.4662864E-3,1.3687943E-2,9.701077E-3,1.7432988E-2,1.4062644E-2,6.449698E-5,2.9380202E-2,1.2854322E-2],"categories":[],"categories_nodes":[],"categories_segments":[],"categories_sizes":[],"default_left":[0,0,0,0,0,0,0,0,0,0,0,0,0,0,0,0,0,0,0,0,0,0,0,0,0,0,0],"id":53,"left_children":[1,3,5,7,9,11,13,15,17,19,21,23,25,-1,-1,-1,-1,-1,-1,-1,-1,-1,-1,-1,-1,-1,-1],"loss_changes":[5.597113E2,2.8296393E2,8.902966E1,1.7829193E2,6.148297E1,2.6860245E1,3.6065674E-1,5.928367E1,5.3825027E1,1.1022804E1,2.0018555E1,5.688097E0,8.418335E0,0E0,0E0,0E0,0E0,0E0,0E0,0E0,0E0,0E0,0E0,0E0,0E0,0E0,0E0],"parents":[2147483647,0,0,1,1,2,2,3,3,4,4,5,5,6,6,7,7,8,8,9,9,10,10,11,11,12,12],"right_children":[2,4,6,8,10,12,14,16,18,20,22,24,26,-1,-1,-1,-1,-1,-1,-1,-1,-1,-1,-1,-1,-1,-1],"split_conditions":[9E-3,5E-3,1.3E-2,1.222E3,1.92E2,2.22E2,1.7E-2,2E-3,1.936E3,7.87E2,6E-3,3.2098E6,1.809E3,4.0024705E-2,6.8310685E-2,-2.754681E-3,-7.111769E-4,1.1330908E-3,5.0281542E-3,4.4662864E-3,1.3687943E-2,9.701077E-3,1.7432988E-2,1.4062644E-2,6.449698E-5,2.9380202E-2,1.2854322E-2],"split_indices":[12,15,11,4,0,0,11,12,4,2,13,18,3,0,0,0,0,0,0,0,0,0,0,0,0,0,0],"split_type":[0,0,0,0,0,0,0,0,0,0,0,0,0,0,0,0,0,0,0,0,0,0,0,0,0,0,0],"sum_hessian":[8.812E3,8.752E3,6E1,8.341E3,4.11E2,4.7E1,1.3E1,6.607E3,1.734E3,2.64E2,1.47E2,1.1E1,3.6E1,9E0,4E0,2.065E3,4.542E3,1.237E3,4.97E2,2.51E2,1.3E1,8.5E1,6.2E1,6E0,5E0,3E1,6E0],"tree_param":{"num_deleted":"0","num_feature":"20","num_nodes":"27","size_leaf_vector":"1"}},{"base_weights":[8.862601E-4,-1.995795E-2,2.992009E0,-7.7036954E-2,5.38332E-1,2.2697077E0,5.254041E0,-1.5149012E-1,1.5865594E-1,3.8942087E-1,1.3535521E0,5.3369296E-1,2.6033182E0,3.9664477E-2,6.776419E-2,-2.173248E-3,-1.2584636E-4,4.4589906E-4,3.8491753E-3,2.625707E-3,8.709646E-3,8.279895E-3,1.986156E-2,7.3001324E-3,2.2863408E-3,2.8000537E-2,1.2744142E-2],"categories":[],"categories_nodes":[],"categories_segments":[],"categories_sizes":[],"default_left":[0,0,0,0,0,0,0,0,0,0,0,0,0,0,0,0,0,0,0,0,0,0,0,0,0,0,0],"id":54,"left_children":[1,3,5,7,9,11,13,15,17,19,21,23,25,-1,-1,-1,-1,-1,-1,-1,-1,-1,-1,-1,-1,-1,-1],"loss_changes":[5.495588E2,2.789655E2,8.766565E1,1.3939084E2,9.802846E1,2.6378586E1,4.570923E-1,5.5192947E1,4.9195854E1,4.178569E1,3.988646E1,3.6251116E-1,6.8485413E0,0E0,0E0,0E0,0E0,0E0,0E0,0E0,0E0,0E0,0E0,0E0,0E0,0E0,0E0],"parents":[2147483647,0,0,1,1,2,2,3,3,4,4,5,5,6,6,7,7,8,8,9,9,10,10,11,11,12,12],"right_children":[2,4,6,8,10,12,14,16,18,20,22,24,26,-1,-1,-1,-1,-1,-1,-1,-1,-1,-1,-1,-1,-1,-1],"split_conditions":[9E-3,4E-3,1.3E-2,3E-3,6E-3,1.84E2,1.7E-2,9.34E2,2.73E2,2.169E3,3.3328E6,1.41E2,1.809E3,3.9664477E-2,6.776419E-2,-2.173248E-3,-1.2584636E-4,4.4589906E-4,3.8491753E-3,2.625707E-3,8.709646E-3,8.279895E-3,1.986156E-2,7.3001324E-3,2.2863408E-3,2.8000537E-2,1.2744142E-2],"split_indices":[12,13,11,11,14,0,11,4,1,4,18,0,3,0,0,0,0,0,0,0,0,0,0,0,0,0,0],"split_type":[0,0,0,0,0,0,0,0,0,0,0,0,0,0,0,0,0,0,0,0,0,0,0,0,0,0,0],"sum_hessian":[8.812E3,8.752E3,6E1,7.941E3,8.11E2,4.7E1,1.3E1,6.035E3,1.906E3,6.87E2,1.24E2,8E0,3.9E1,9E0,4E0,4.094E3,1.941E3,1.268E3,6.38E2,5.45E2,1.42E2,6.9E1,5.5E1,4E0,4E0,3.3E1,6E0],"tree_param":{"num_deleted":"0","num_feature":"20","num_nodes":"27","size_leaf_vector":"1"}},{"base_weights":[9.000889E-4,-5.0679673E-2,1.1914873E0,-1.2720166E-1,2.2943097E-1,9.59542E-1,4.4563103E0,1.7375398E-2,-1.9101746E-1,6.121574E-2,4.3259576E-1,5.024235E-1,1.3611006E0,2.267032E-2,5.059568E0,-7.5908547E-4,2.5579105E-3,-3.1630304E-3,-1.2481627E-3,-3.1137088E-4,2.195391E-3,3.276647E-3,8.639818E-3,1.3320611E-3,7.889205E-3,9.4920825E-3,1.8859826E-2,4.103656E-2,6.722208E-2],"categories":[],"categories_nodes":[],"categories_segments":[],"categories_sizes":[],"default_left":[0,0,0,0,0,0,0,0,0,0,0,0,0,0,0,0,0,0,0,0,0,0,0,0,0,0,0,0,0],"id":55,"left_children":[1,3,5,7,9,11,13,15,17,19,21,23,25,-1,27,-1,-1,-1,-1,-1,-1,-1,-1,-1,-1,-1,-1,-1,-1],"loss_changes":[5.4127997E2,1.8110785E2,2.7282715E2,6.1230774E1,6.1928596E1,6.2258514E1,2.015332E1,4.5235855E1,3.8141968E1,1.4527982E1,3.6868225E1,1.7021996E1,3.752893E1,0E0,9.141846E-1,0E0,0E0,0E0,0E0,0E0,0E0,0E0,0E0,0E0,0E0,0E0,0E0,0E0,0E0],"parents":[2147483647,0,0,1,1,2,2,3,3,4,4,5,5,6,6,7,7,8,8,9,9,10,10,11,11,12,12,14,14],"right_children":[2,4,6,8,10,12,14,16,18,20,22,24,26,-1,28,-1,-1,-1,-1,-1,-1,-1,-1,-1,-1,-1,-1,-1,-1],"split_conditions":[5E-3,1.214E3,1E-2,1.1E1,2.6E-3,4E-3,4.82E2,2.88E2,2E-3,2.6E-3,2.545E3,2.6E-3,2.5E2,2.267032E-2,1.7E-2,-7.5908547E-4,2.5579105E-3,-3.1630304E-3,-1.2481627E-3,-3.1137088E-4,2.195391E-3,3.276647E-3,8.639818E-3,1.3320611E-3,7.889205E-3,9.4920825E-3,1.8859826E-2,4.103656E-2,6.722208E-2],"split_indices":[12,4,11,19,14,13,0,2,12,11,4,11,0,0,11,0,0,0,0,0,0,0,0,0,0,0,0,0,0],"split_type":[0,0,0,0,0,0,0,0,0,0,0,0,0,0,0,0,0,0,0,0,0,0,0,0,0,0,0,0,0],"sum_hessian":[8.812E3,8.447E3,3.65E2,6.635E3,1.812E3,3.42E2,2.3E1,2.032E3,4.603E3,9.92E2,8.2E2,1.61E2,1.81E2,6E0,1.7E1,1.461E3,5.71E2,1.59E3,3.013E3,6.27E2,3.65E2,6.61E2,1.59E2,7.1E1,9E1,1.03E2,7.8E1,1.3E1,4E0],"tree_param":{"num_deleted":"0","num_feature":"20","num_nodes":"29","size_leaf_vector":"1"}},{"base_weights":[9.1154955E-4,-2.105868E-2,2.7454371E0,-1.270045E-1,2.5727892E-1,2.1031625E0,5.1635947E0,-2.1169844E-1,1.4070632E-2,1.3496763E-1,8.268633E-1,9.862486E-1,2.5529447E0,3.8938172E-2,6.6684306E-2,-2.216784E-3,4.0867697E-3,1.6363286E-3,-8.1145565E-4,3.1885772E-4,3.5119727E-3,5.0466135E-3,1.3043301E-2,4.222431E-5,1.36285685E-2,2.210522E-2,3.166887E-2],"categories":[],"categories_nodes":[],"categories_segments":[],"categories_sizes":[],"default_left":[0,0,0,0,0,0,0,0,0,0,0,0,0,0,0,0,0,0,0,0,0,0,0,0,0,0,0],"id":56,"left_children":[1,3,5,7,9,11,13,15,17,19,21,23,25,-1,-1,-1,-1,-1,-1,-1,-1,-1,-1,-1,-1,-1,-1],"loss_changes":[5.3149005E2,2.578806E2,9.778595E1,7.568492E1,1.6784494E2,2.6081757E1,6.799927E-1,2.459401E1,3.386436E1,4.425163E1,6.485983E1,6.637678E0,1.3548584E0,0E0,0E0,0E0,0E0,0E0,0E0,0E0,0E0,0E0,0E0,0E0,0E0,0E0,0E0],"parents":[2147483647,0,0,1,1,2,2,3,3,4,4,5,5,6,6,7,7,8,8,9,9,10,10,11,11,12,12],"right_children":[2,4,6,8,10,12,14,16,18,20,22,24,26,-1,-1,-1,-1,-1,-1,-1,-1,-1,-1,-1,-1,-1,-1],"split_conditions":[8E-3,3E-3,1.3E-2,4.38E2,1.81E2,7E-3,1.7E-2,1.75E-3,1.1E1,2.6E-3,4E-3,5.17E2,1E-2,3.8938172E-2,6.6684306E-2,-2.216784E-3,4.0867697E-3,1.6363286E-3,-8.1145565E-4,3.1885772E-4,3.5119727E-3,5.0466135E-3,1.3043301E-2,4.222431E-5,1.36285685E-2,2.210522E-2,3.166887E-2],"split_indices":[11,14,11,3,0,13,11,9,19,11,12,1,11,0,0,0,0,0,0,0,0,0,0,0,0,0,0],"split_type":[0,0,0,0,0,0,0,0,0,0,0,0,0,0,0,0,0,0,0,0,0,0,0,0,0,0,0],"sum_hessian":[8.812E3,8.743E3,6.9E1,6.333E3,2.41E3,5.6E1,1.3E1,3.957E3,2.376E3,1.985E3,4.25E2,1.7E1,3.9E1,9E0,4E0,3.895E3,6.2E1,9.24E2,1.452E3,1.345E3,6.4E2,2.55E2,1.7E2,5E0,1.2E1,2.8E1,1.1E1],"tree_param":{"num_deleted":"0","num_feature":"20","num_nodes":"27","size_leaf_vector":"1"}},{"base_weights":[9.2498615E-4,-4.9765494E-2,1.1709858E0,-1.2498398E-1,2.2557352E-1,9.431242E-1,4.3782997E0,1.738144E-2,-1.8782367E-1,6.044638E-2,4.2500797E-1,4.9380168E-1,1.3378336E0,2.2204556E-2,4.973667E0,-7.420913E-4,2.5146892E-3,-3.1160011E-3,-1.2242016E-3,-3.075029E-4,2.1678808E-3,3.2171216E-3,8.496757E-3,1.3046091E-3,7.757438E-3,9.342557E-3,1.852065E-2,4.0314708E-2,6.615084E-2],"categories":[],"categories_nodes":[],"categories_segments":[],"categories_sizes":[],"default_left":[0,0,0,0,0,0,0,0,0,0,0,0,0,0,0,0,0,0,0,0,0,0,0,0,0,0,0,0,0],"id":57,"left_children":[1,3,5,7,9,11,13,15,17,19,21,23,25,-1,27,-1,-1,-1,-1,-1,-1,-1,-1,-1,-1,-1,-1,-1,-1],"loss_changes":[5.227768E2,1.7499022E2,2.6329898E2,5.9371933E1,5.967524E1,6.015274E1,1.9717316E1,4.3608376E1,3.722879E1,1.4166563E1,3.5729263E1,1.6485188E1,3.6012726E1,0E0,1.0626831E0,0E0,0E0,0E0,0E0,0E0,0E0,0E0,0E0,0E0,0E0,0E0,0E0,0E0,0E0],"parents":[2147483647,0,0,1,1,2,2,3,3,4,4,5,5,6,6,7,7,8,8,9,9,10,10,11,11,12,12,14,14],"right_children":[2,4,6,8,10,12,14,16,18,20,22,24,26,-1,28,-1,-1,-1,-1,-1,-1,-1,-1,-1,-1,-1,-1,-1,-1],"split_conditions":[5E-3,1.214E3,1E-2,1.1E1,2.6E-3,4E-3,4.82E2,2.88E2,2E-3,2.6E-3,2.545E3,2.6E-3,2.5E2,2.2204556E-2,1.7E-2,-7.420913E-4,2.5146892E-3,-3.1160011E-3,-1.2242016E-3,-3.075029E-4,2.1678808E-3,3.2171216E-3,8.496757E-3,1.3046091E-3,7.757438E-3,9.342557E-3,1.852065E-2,4.0314708E-2,6.615084E-2],"split_indices":[12,4,11,19,14,13,0,2,12,11,4,11,0,0,11,0,0,0,0,0,0,0,0,0,0,0,0,0,0],"split_type":[0,0,0,0,0,0,0,0,0,0,0,0,0,0,0,0,0,0,0,0,0,0,0,0,0,0,0,0,0],"sum_hessian":[8.812E3,8.447E3,3.65E2,6.635E3,1.812E3,3.42E2,2.3E1,2.032E3,4.603E3,9.92E2,8.2E2,1.61E2,1.81E2,6E0,1.7E1,1.461E3,5.71E2,1.59E3,3.013E3,6.27E2,3.65E2,6.61E2,1.59E2,7.1E1,9E1,1.03E2,7.8E1,1.3E1,4E0],"tree_param":{"num_deleted":"0","num_feature":"20","num_nodes":"29","size_leaf_vector":"1"}},{"base_weights":[9.358662E-4,-2.0660631E-2,2.6987765E0,-1.2478885E-1,2.529017E-1,2.0676954E0,5.0746937E0,-2.0801766E-1,1.3845759E-2,1.3281977E-1,8.121031E-1,9.711068E-1,2.5092177E0,6.119734E-2,3.5246965E-2,-2.1788056E-3,4.0505915E-3,1.6044352E-3,-7.948305E-4,1.2721738E-4,3.1461034E-3,4.954598E-3,1.2813346E-2,-0E0,1.3439526E-2,2.1724867E-2,3.1130493E-2],"categories":[],"categories_nodes":[],"categories_segments":[],"categories_sizes":[],"default_left":[0,0,0,0,0,0,0,0,0,0,0,0,0,0,0,0,0,0,0,0,0,0,0,0,0,0,0],"id":58,"left_children":[1,3,5,7,9,11,13,15,17,19,21,23,25,-1,-1,-1,-1,-1,-1,-1,-1,-1,-1,-1,-1,-1,-1],"loss_changes":[5.135623E2,2.4910797E2,9.43934E1,7.308903E1,1.6178133E2,2.5126099E1,1.0107117E0,2.4019257E1,3.2535183E1,4.3352448E1,6.264203E1,6.5058403E0,1.3172302E0,0E0,0E0,0E0,0E0,0E0,0E0,0E0,0E0,0E0,0E0,0E0,0E0,0E0,0E0],"parents":[2147483647,0,0,1,1,2,2,3,3,4,4,5,5,6,6,7,7,8,8,9,9,10,10,11,11,12,12],"right_children":[2,4,6,8,10,12,14,16,18,20,22,24,26,-1,-1,-1,-1,-1,-1,-1,-1,-1,-1,-1,-1,-1,-1],"split_conditions":[8E-3,3E-3,1.3E-2,4.38E2,1.81E2,7E-3,7.91E2,1.75E-3,1.1E1,2.6E-3,4E-3,5.17E2,1E-2,6.119734E-2,3.5246965E-2,-2.1788056E-3,4.0505915E-3,1.6044352E-3,-7.948305E-4,1.2721738E-4,3.1461034E-3,4.954598E-3,1.2813346E-2,-0E0,1.3439526E-2,2.1724867E-2,3.1130493E-2],"split_indices":[11,14,11,3,0,13,0,9,19,15,12,1,11,0,0,0,0,0,0,0,0,0,0,0,0,0,0],"split_type":[0,0,0,0,0,0,0,0,0,0,0,0,0,0,0,0,0,0,0,0,0,0,0,0,0,0,0],"sum_hessian":[8.812E3,8.743E3,6.9E1,6.333E3,2.41E3,5.6E1,1.3E1,3.957E3,2.376E3,1.985E3,4.25E2,1.7E1,3.9E1,6E0,7E0,3.895E3,6.2E1,9.24E2,1.452E3,1.196E3,7.89E2,2.55E2,1.7E2,5E0,1.2E1,2.8E1,1.1E1],"tree_param":{"num_deleted":"0","num_feature":"20","num_nodes":"27","size_leaf_vector":"1"}},{"base_weights":[9.4781496E-4,-5.5694293E-2,1.0133691E0,-9.635297E-2,4.476604E-1,7.295795E-1,3.0416875E0,-1.501847E-1,9.462783E-2,1.8160021E-1,6.6226673E-1,4.556184E-1,1.1933315E0,2.3394177E0,5.030843E0,-1.955807E-3,3.065218E-4,5.1865604E-4,5.358066E-3,1.3743716E-3,1.0772999E-2,5.654269E-3,1.2950784E-2,-2.046074E-3,5.115314E-3,2.7664449E-2,1.1096662E-2,1.0186766E-2,2.5208853E-2,3.7803873E-2,6.523585E-2],"categories":[],"categories_nodes":[],"categories_segments":[],"categories_sizes":[],"default_left":[0,0,0,0,0,0,0,0,0,0,0,0,0,0,0,0,0,0,0,0,0,0,0,0,0,0,0,0,0,0,0],"id":59,"left_children":[1,3,5,7,9,11,13,15,17,19,21,23,25,27,29,-1,-1,-1,-1,-1,-1,-1,-1,-1,-1,-1,-1,-1,-1,-1,-1],"loss_changes":[5.0545343E2,1.7086713E2,2.6655563E2,7.942388E1,3.5500587E1,5.1657364E1,6.778168E1,4.94767E1,3.2019302E1,1.0915704E1,2.0391205E1,9.705685E0,1.6896896E1,7.9421997E0,1.3677673E0,0E0,0E0,0E0,0E0,0E0,0E0,0E0,0E0,0E0,0E0,0E0,0E0,0E0,0E0,0E0,0E0],"parents":[2147483647,0,0,1,1,2,2,3,3,4,4,5,5,6,6,7,7,8,8,9,9,10,10,11,11,12,12,13,13,14,14],"right_children":[2,4,6,8,10,12,14,16,18,20,22,24,26,28,30,-1,-1,-1,-1,-1,-1,-1,-1,-1,-1,-1,-1,-1,-1,-1,-1],"split_conditions":[5E-3,1.803E3,8E-3,3E-3,2.6E-3,1.84E2,1.3E-2,2.6E-3,2E-3,6E-3,5E-3,2E-3,-3.5E-3,6E-3,1.7E-2,-1.955807E-3,3.065218E-4,5.1865604E-4,5.358066E-3,1.3743716E-3,1.0772999E-2,5.654269E-3,1.2950784E-2,-2.046074E-3,5.115314E-3,2.7664449E-2,1.1096662E-2,1.0186766E-2,2.5208853E-2,3.7803873E-2,6.523585E-2],"split_indices":[15,4,11,11,13,0,11,13,9,11,12,11,9,14,11,0,0,0,0,0,0,0,0,0,0,0,0,0,0,0,0],"split_type":[0,0,0,0,0,0,0,0,0,0,0,0,0,0,0,0,0,0,0,0,0,0,0,0,0,0,0,0,0,0,0],"sum_hessian":[8.812E3,8.346E3,4.66E2,7.723E3,6.23E2,4.1E2,5.6E1,6.025E3,1.698E3,2.79E2,3.44E2,2.59E2,1.51E2,4.3E1,1.3E1,4.816E3,1.209E3,1.549E3,1.49E2,2.67E2,1.2E1,3E2,4.4E1,2E1,2.39E2,6E0,1.45E2,6E0,3.7E1,9E0,4E0],"tree_param":{"num_deleted":"0","num_feature":"20","num_nodes":"31","size_leaf_vector":"1"}},{"base_weights":[9.628541E-4,-1.8854978E-2,2.8448076E0,-7.349498E-2,5.1557815E-1,2.160263E0,