{"learner":{"attributes":{"best_iteration":"53","best_score":"0.16811962178585146","scikit_learn":"{\"_estimator_type\": \"regressor\"}"},"feature_names":["f_obi_l1","f_spread_l1","f_obi_l2","f_spread_l2","f_obi_l3","f_spread_l3","f_obi_l4","f_spread_l4","f_obi_l5","f_spread_l5","f_tick_flow","f_log_ret_5","f_past_rr_10","f_norm_time"],"feature_types":["float","float","float","float","float","float","float","float","float","float","float","float","float","float"],"gradient_booster":{"model":{"cats":{"enc":[],"feature_segments":[],"sorted_idx":[]},"gbtree_model_param":{"num_parallel_tree":"1","num_trees":"74"},"iteration_indptr":[0,1,2,3,4,5,6,7,8,9,10,11,12,13,14,15,16,17,18,19,20,21,22,23,24,25,26,27,28,29,30,31,32,33,34,35,36,37,38,39,40,41,42,43,44,45,46,47,48,49,50,51,52,53,54,55,56,57,58,59,60,61,62,63,64,65,66,67,68,69,70,71,72,73,74],"tree_info":[0,0,0,0,0,0,0,0,0,0,0,0,0,0,0,0,0,0,0,0,0,0,0,0,0,0,0,0,0,0,0,0,0,0,0,0,0,0,0,0,0,0,0,0,0,0,0,0,0,0,0,0,0,0,0,0,0,0,0,0,0,0,0,0,0,0,0,0,0,0,0,0,0,0],"trees":[{"base_weights":[-0E0,8.9784995E-2,-2.6031023E-2,2.3424554E-1,6.4260714E-2,-5.0273202E-2,7.543778E-3,4.782978E-1,1.3098523E-1,1.483815E-1,4.1189123E-2,-5.6403372E-2,1.0550579E-2,1.3358949E-1,-2.7866077E-3,2.4560227E-3,6.5987287E-3,5.437319E-4,2.4712714E-3,1.0671089E-3,2.7422342E-3,-4.251218E-4,5.5624463E-4,-3.0826405E-4,-7.448087E-4,1.2788953E-3,-4.1305553E-5,6.4976857E-4,2.073895E-3,-7.6819306E-5,2.136751E-3],"categories":[],"categories_nodes":[],"categories_segments":[],"categories_sizes":[],"default_left":[0,0,0,0,0,0,0,0,0,0,0,0,0,0,0,0,0,0,0,0,0,0,0,0,0,0,0,0,0,0,0],"id":0,"left_children":[1,3,5,7,9,11,13,15,17,19,21,23,25,27,29,-1,-1,-1,-1,-1,-1,-1,-1,-1,-1,-1,-1,-1,-1,-1,-1],"loss_changes":[2.4540553E0,8.521534E-1,6.633426E-1,8.1328917E-1,3.8403434E-1,1.7741644E-1,4.4699875E-1,2.5139618E-1,2.148925E-1,1.9241619E-1,1.95817E-1,1.954689E-1,7.756328E-2,1.1545473E-1,3.3549055E-1,0E0,0E0,0E0,0E0,0E0,0E0,0E0,0E0,0E0,0E0,0E0,0E0,0E0,0E0,0E0,0E0],"parents":[2147483647,0,0,1,1,2,2,3,3,4,4,5,5,6,6,7,7,8,8,9,9,10,10,11,11,12,12,13,13,14,14],"right_children":[2,4,6,8,10,12,14,16,18,20,22,24,26,28,30,-1,-1,-1,-1,-1,-1,-1,-1,-1,-1,-1,-1,-1,-1,-1,-1],"split_conditions":[2.1666667E-1,5E-2,4.081726E-4,-1.5881446E-1,-4.3064365E-1,1.3768673E-4,4.1019917E-4,-5.624792E-1,5.441904E-4,5.49078E-4,-3.0850473E-1,-7.461722E-2,1.3780594E-4,4.0972233E-4,6.8867207E-4,2.4560227E-3,6.5987287E-3,5.437319E-4,2.4712714E-3,1.0671089E-3,2.7422342E-3,-4.251218E-4,5.5624463E-4,-3.0826405E-4,-7.448087E-4,1.2788953E-3,-4.1305553E-5,6.4976857E-4,2.073895E-3,-7.6819306E-5,2.136751E-3],"split_indices":[13,13,12,6,6,11,12,8,12,12,4,8,11,12,12,0,0,0,0,0,0,0,0,0,0,0,0,0,0,0,0],"split_type":[0,0,0,0,0,0,0,0,0,0,0,0,0,0,0,0,0,0,0,0,0,0,0,0,0,0,0,0,0,0,0],"sum_hessian":[1.048E3,2.35E2,8.13E2,3.4E1,2.01E2,4.72E2,3.41E2,9E0,2.5E1,4.2E1,1.59E2,4.29E2,4.3E1,2.5E1,3.16E2,5E0,4E0,1.6E1,9E0,3.3E1,9E0,2.3E1,1.36E2,1.79E2,2.5E2,4E0,3.9E1,1.4E1,1.1E1,3.1E2,6E0],"tree_param":{"num_deleted":"0","num_feature":"14","num_nodes":"31","size_leaf_vector":"1"}},{"base_weights":[1.1052249E-5,8.895711E-2,-2.5764477E-2,2.322565E-1,6.363812E-2,-4.977028E-2,7.4826297E-3,4.744303E-1,1.2979518E-1,1.4698862E-1,4.0777437E-2,-5.584201E-2,1.0470926E-2,1.323622E-1,-2.751917E-3,2.435556E-3,6.5459386E-3,5.3861435E-4,2.44903E-3,1.0567518E-3,2.717554E-3,-4.2104765E-4,5.5072294E-4,-3.0519842E-4,-7.3739013E-4,1.268664E-3,-4.090282E-5,6.4370397E-4,2.0548843E-3,-7.6053475E-5,2.1184362E-3],"categories":[],"categories_nodes":[],"categories_segments":[],"categories_sizes":[],"default_left":[0,0,0,0,0,0,0,0,0,0,0,0,0,0,0,0,0,0,0,0,0,0,0,0,0,0,0,0,0,0,0],"id":1,"left_children":[1,3,5,7,9,11,13,15,17,19,21,23,25,27,29,-1,-1,-1,-1,-1,-1,-1,-1,-1,-1,-1,-1,-1,-1,-1,-1],"loss_changes":[2.4078944E0,8.385149E-1,6.504679E-1,8.008497E-1,3.7702924E-1,1.7404675E-1,4.3876567E-1,2.4754071E-1,2.1107632E-1,1.8915331E-1,1.9201478E-1,1.915791E-1,7.632047E-2,1.1334565E-1,3.2973197E-1,0E0,0E0,0E0,0E0,0E0,0E0,0E0,0E0,0E0,0E0,0E0,0E0,0E0,0E0,0E0,0E0],"parents":[2147483647,0,0,1,1,2,2,3,3,4,4,5,5,6,6,7,7,8,8,9,9,10,10,11,11,12,12,13,13,14,14],"right_children":[2,4,6,8,10,12,14,16,18,20,22,24,26,28,30,-1,-1,-1,-1,-1,-1,-1,-1,-1,-1,-1,-1,-1,-1,-1,-1],"split_conditions":[2.1666667E-1,5E-2,4.081726E-4,-1.5881446E-1,-4.3064365E-1,1.3768673E-4,4.1019917E-4,-5.624792E-1,5.441904E-4,5.49078E-4,-3.0850473E-1,-7.461722E-2,1.3780594E-4,4.0972233E-4,6.8867207E-4,2.435556E-3,6.5459386E-3,5.3861435E-4,2.44903E-3,1.0567518E-3,2.717554E-3,-4.2104765E-4,5.5072294E-4,-3.0519842E-4,-7.3739013E-4,1.268664E-3,-4.090282E-5,6.4370397E-4,2.0548843E-3,-7.6053475E-5,2.1184362E-3],"split_indices":[13,13,12,6,6,11,12,8,12,12,4,8,11,12,12,0,0,0,0,0,0,0,0,0,0,0,0,0,0,0,0],"split_type":[0,0,0,0,0,0,0,0,0,0,0,0,0,0,0,0,0,0,0,0,0,0,0,0,0,0,0,0,0,0,0],"sum_hessian":[1.048E3,2.35E2,8.13E2,3.4E1,2.01E2,4.72E2,3.41E2,9E0,2.5E1,4.2E1,1.59E2,4.29E2,4.3E1,2.5E1,3.16E2,5E0,4E0,1.6E1,9E0,3.3E1,9E0,2.3E1,1.36E2,1.79E2,2.5E2,4E0,3.9E1,1.4E1,1.1E1,3.1E2,6E0],"tree_param":{"num_deleted":"0","num_feature":"14","num_nodes":"31","size_leaf_vector":"1"}},{"base_weights":[3.125024E-5,8.813692E-2,-2.5500653E-2,2.3028448E-1,6.302156E-2,-4.9272392E-2,7.421961E-3,4.7059417E-1,1.2861598E-1,1.4560883E-1,4.0369853E-2,-5.528624E-2,1.0391837E-2,1.3114622E-1,-2.7176375E-3,2.4152594E-3,6.4935717E-3,5.33545E-4,2.4269887E-3,1.0464949E-3,2.693096E-3,-4.170126E-4,5.4525596E-4,-3.0216333E-4,-7.300455E-4,1.2585148E-3,-4.0504154E-5,6.3769607E-4,2.0360479E-3,-7.5295364E-5,2.1002782E-3],"categories":[],"categories_nodes":[],"categories_segments":[],"categories_sizes":[],"default_left":[0,0,0,0,0,0,0,0,0,0,0,0,0,0,0,0,0,0,0,0,0,0,0,0,0,0,0,0,0,0,0],"id":2,"left_children":[1,3,5,7,9,11,13,15,17,19,21,23,25,27,29,-1,-1,-1,-1,-1,-1,-1,-1,-1,-1,-1,-1,-1,-1,-1,-1],"loss_changes":[2.362605E0,8.250946E-1,6.3784325E-1,7.885994E-1,3.7015188E-1,1.7074132E-1,4.306846E-1,2.4374366E-1,2.073277E-1,1.8594545E-1,1.8828648E-1,1.877662E-1,7.509764E-2,1.1127481E-1,3.2407236E-1,0E0,0E0,0E0,0E0,0E0,0E0,0E0,0E0,0E0,0E0,0E0,0E0,0E0,0E0,0E0,0E0],"parents":[2147483647,0,0,1,1,2,2,3,3,4,4,5,5,6,6,7,7,8,8,9,9,10,10,11,11,12,12,13,13,14,14],"right_children":[2,4,6,8,10,12,14,16,18,20,22,24,26,28,30,-1,-1,-1,-1,-1,-1,-1,-1,-1,-1,-1,-1,-1,-1,-1,-1],"split_conditions":[2.1666667E-1,5E-2,4.081726E-4,-1.5881446E-1,-4.3064365E-1,1.3768673E-4,4.1019917E-4,-5.624792E-1,5.441904E-4,5.49078E-4,-3.0850473E-1,-7.461722E-2,1.3780594E-4,4.0972233E-4,6.8867207E-4,2.4152594E-3,6.4935717E-3,5.33545E-4,2.4269887E-3,1.0464949E-3,2.693096E-3,-4.170126E-4,5.4525596E-4,-3.0216333E-4,-7.300455E-4,1.2585148E-3,-4.0504154E-5,6.3769607E-4,2.0360479E-3,-7.5295364E-5,2.1002782E-3],"split_indices":[13,13,12,6,6,11,12,8,12,12,4,8,11,12,12,0,0,0,0,0,0,0,0,0,0,0,0,0,0,0,0],"split_type":[0,0,0,0,0,0,0,0,0,0,0,0,0,0,0,0,0,0,0,0,0,0,0,0,0,0,0,0,0,0,0],"sum_hessian":[1.048E3,2.35E2,8.13E2,3.4E1,2.01E2,4.72E2,3.41E2,9E0,2.5E1,4.2E1,1.59E2,4.29E2,4.3E1,2.5E1,3.16E2,5E0,4E0,1.6E1,9E0,3.3E1,9E0,2.3E1,1.36E2,1.79E2,2.5E2,4E0,3.9E1,1.4E1,1.1E1,3.1E2,6E0],"tree_param":{"num_deleted":"0","num_feature":"14","num_nodes":"31","size_leaf_vector":"1"}},{"base_weights":[5.1065686E-5,8.732434E-2,-2.5239531E-2,2.2832933E-1,6.2410984E-2,-4.877949E-2,7.361759E-3,4.667891E-1,1.2744753E-1,1.4424202E-1,3.9966326E-2,-5.4736014E-2,1.0313325E-2,1.2994143E-1,-2.6837722E-3,2.395132E-3,6.441623E-3,5.2852335E-4,2.405146E-3,1.0363377E-3,2.6688585E-3,-4.130161E-4,5.398431E-4,-2.9915845E-4,-7.2277425E-4,1.2484468E-3,-4.010927E-5,6.317441E-4,2.0173842E-3,-8.1099075E-5,1.8280061E-3],"categories":[],"categories_nodes":[],"categories_segments":[],"categories_sizes":[],"default_left":[0,0,0,0,0,0,0,0,0,0,0,0,0,0,0,0,0,0,0,0,0,0,0,0,0,0,0,0,0,0,0],"id":3,"left_children":[1,3,5,7,9,11,13,15,17,19,21,23,25,27,29,-1,-1,-1,-1,-1,-1,-1,-1,-1,-1,-1,-1,-1,-1,-1,-1],"loss_changes":[2.3181708E0,8.118887E-1,6.2546384E-1,7.7653515E-1,3.6340028E-1,1.6749895E-1,4.227526E-1,2.4000454E-1,2.0364532E-1,1.8279141E-1,1.8463057E-1,1.8402946E-1,7.389442E-2,1.09241635E-1,3.187845E-1,0E0,0E0,0E0,0E0,0E0,0E0,0E0,0E0,0E0,0E0,0E0,0E0,0E0,0E0,0E0,0E0],"parents":[2147483647,0,0,1,1,2,2,3,3,4,4,5,5,6,6,7,7,8,8,9,9,10,10,11,11,12,12,13,13,14,14],"right_children":[2,4,6,8,10,12,14,16,18,20,22,24,26,28,30,-1,-1,-1,-1,-1,-1,-1,-1,-1,-1,-1,-1,-1,-1,-1,-1],"split_conditions":[2.1666667E-1,5E-2,4.081726E-4,-1.5881446E-1,-4.3064365E-1,1.3768673E-4,4.1019917E-4,-5.624792E-1,5.441904E-4,5.49078E-4,-3.0850473E-1,-7.461722E-2,1.3780594E-4,4.0972233E-4,6.881952E-4,2.395132E-3,6.441623E-3,5.2852335E-4,2.405146E-3,1.0363377E-3,2.6688585E-3,-4.130161E-4,5.398431E-4,-2.9915845E-4,-7.2277425E-4,1.2484468E-3,-4.010927E-5,6.317441E-4,2.0173842E-3,-8.1099075E-5,1.8280061E-3],"split_indices":[13,13,12,6,6,11,12,8,12,12,4,8,11,12,12,0,0,0,0,0,0,0,0,0,0,0,0,0,0,0,0],"split_type":[0,0,0,0,0,0,0,0,0,0,0,0,0,0,0,0,0,0,0,0,0,0,0,0,0,0,0,0,0,0,0],"sum_hessian":[1.048E3,2.35E2,8.13E2,3.4E1,2.01E2,4.72E2,3.41E2,9E0,2.5E1,4.2E1,1.59E2,4.29E2,4.3E1,2.5E1,3.16E2,5E0,4E0,1.6E1,9E0,3.3E1,9E0,2.3E1,1.36E2,1.79E2,2.5E2,4E0,3.9E1,1.4E1,1.1E1,3.08E2,8E0],"tree_param":{"num_deleted":"0","num_feature":"14","num_nodes":"31","size_leaf_vector":"1"}},{"base_weights":[7.0270085E-5,8.651934E-2,-2.4981389E-2,2.2639091E-1,6.1806343E-2,-4.829152E-2,7.301281E-3,4.630149E-1,1.2628974E-1,1.4288808E-1,3.9566837E-2,-5.419127E-2,1.0235384E-2,1.2874776E-1,-2.6511152E-3,2.3751727E-3,6.3900906E-3,5.235491E-4,2.3834996E-3,1.0262791E-3,2.6448385E-3,-4.0905792E-4,5.3448416E-4,-2.961835E-4,-7.1557536E-4,1.2384591E-3,-3.9718154E-5,6.258478E-4,1.9988916E-3,-7.385943E-5,2.066607E-3],"categories":[],"categories_nodes":[],"categories_segments":[],"categories_sizes":[],"default_left":[0,0,0,0,0,0,0,0,0,0,0,0,0,0,0,0,0,0,0,0,0,0,0,0,0,0,0,0,0,0,0],"id":4,"left_children":[1,3,5,7,9,11,13,15,17,19,21,23,25,27,29,-1,-1,-1,-1,-1,-1,-1,-1,-1,-1,-1,-1,-1,-1,-1,-1],"loss_changes":[2.274588E0,7.988939E-1,6.1330837E-1,7.646549E-1,3.567719E-1,1.643182E-1,4.1497204E-1,2.3632145E-1,2.0002818E-1,1.7969054E-1,1.8104571E-1,1.80367E-1,7.2710484E-2,1.07245326E-1,3.1369823E-1,0E0,0E0,0E0,0E0,0E0,0E0,0E0,0E0,0E0,0E0,0E0,0E0,0E0,0E0,0E0,0E0],"parents":[2147483647,0,0,1,1,2,2,3,3,4,4,5,5,6,6,7,7,8,8,9,9,10,10,11,11,12,12,13,13,14,14],"right_children":[2,4,6,8,10,12,14,16,18,20,22,24,26,28,30,-1,-1,-1,-1,-1,-1,-1,-1,-1,-1,-1,-1,-1,-1,-1,-1],"split_conditions":[2.1666667E-1,5E-2,4.081726E-4,-1.5881446E-1,-4.3064365E-1,1.3768673E-4,4.1019917E-4,-5.624792E-1,5.441904E-4,5.49078E-4,-3.0850473E-1,-7.461722E-2,1.3780594E-4,4.0972233E-4,6.8867207E-4,2.3751727E-3,6.3900906E-3,5.235491E-4,2.3834996E-3,1.0262791E-3,2.6448385E-3,-4.0905792E-4,5.3448416E-4,-2.961835E-4,-7.1557536E-4,1.2384591E-3,-3.9718154E-5,6.258478E-4,1.9988916E-3,-7.385943E-5,2.066607E-3],"split_indices":[13,13,12,6,6,11,12,8,12,12,4,8,11,12,12,0,0,0,0,0,0,0,0,0,0,0,0,0,0,0,0],"split_type":[0,0,0,0,0,0,0,0,0,0,0,0,0,0,0,0,0,0,0,0,0,0,0,0,0,0,0,0,0,0,0],"sum_hessian":[1.048E3,2.35E2,8.13E2,3.4E1,2.01E2,4.72E2,3.41E2,9E0,2.5E1,4.2E1,1.59E2,4.29E2,4.3E1,2.5E1,3.16E2,5E0,4E0,1.6E1,9E0,3.3E1,9E0,2.3E1,1.36E2,1.79E2,2.5E2,4E0,3.9E1,1.4E1,1.1E1,3.1E2,6E0],"tree_param":{"num_deleted":"0","num_feature":"14","num_nodes":"31","size_leaf_vector":"1"}},{"base_weights":[8.9370136E-5,8.572182E-2,-2.4725553E-2,2.2446908E-1,6.120758E-2,-4.7808416E-2,7.2420533E-3,4.5927125E-1,1.251425E-1,1.415469E-1,3.9171338E-2,-5.365194E-2,1.0158009E-2,1.2756507E-1,-2.6180118E-3,2.3553795E-3,6.3389693E-3,5.186217E-4,2.3620483E-3,1.0163182E-3,2.6210353E-3,-4.051377E-4,5.291784E-4,-2.932382E-4,-7.0844806E-4,1.2285513E-3,-3.9330822E-5,6.200065E-4,1.9805685E-3,-7.9554666E-5,1.7981438E-3],"categories":[],"categories_nodes":[],"categories_segments":[],"categories_sizes":[],"default_left":[0,0,0,0,0,0,0,0,0,0,0,0,0,0,0,0,0,0,0,0,0,0,0,0,0,0,0,0,0,0,0],"id":5,"left_children":[1,3,5,7,9,11,13,15,17,19,21,23,25,27,29,-1,-1,-1,-1,-1,-1,-1,-1,-1,-1,-1,-1,-1,-1,-1,-1],"loss_changes":[2.231815E0,7.8610694E-1,6.014056E-1,7.5295496E-1,3.502643E-1,1.6119838E-1,4.073298E-1,2.3269463E-1,1.96475E-1,1.7664176E-1,1.7753063E-1,1.76777E-1,7.154554E-2,1.0528532E-1,3.0838266E-1,0E0,0E0,0E0,0E0,0E0,0E0,0E0,0E0,0E0,0E0,0E0,0E0,0E0,0E0,0E0,0E0],"parents":[2147483647,0,0,1,1,2,2,3,3,4,4,5,5,6,6,7,7,8,8,9,9,10,10,11,11,12,12,13,13,14,14],"right_children":[2,4,6,8,10,12,14,16,18,20,22,24,26,28,30,-1,-1,-1,-1,-1,-1,-1,-1,-1,-1,-1,-1,-1,-1,-1,-1],"split_conditions":[2.1666667E-1,5E-2,4.081726E-4,-1.5881446E-1,-4.3064365E-1,1.3768673E-4,4.1019917E-4,-5.624792E-1,5.441904E-4,5.49078E-4,-3.0850473E-1,-7.461722E-2,1.3780594E-4,4.0972233E-4,6.881952E-4,2.3553795E-3,6.3389693E-3,5.186217E-4,2.3620483E-3,1.0163182E-3,2.6210353E-3,-4.051377E-4,5.291784E-4,-2.932382E-4,-7.0844806E-4,1.2285513E-3,-3.9330822E-5,6.200065E-4,1.9805685E-3,-7.9554666E-5,1.7981438E-3],"split_indices":[13,13,12,6,6,11,12,8,12,12,4,8,11,12,12,0,0,0,0,0,0,0,0,0,0,0,0,0,0,0,0],"split_type":[0,0,0,0,0,0,0,0,0,0,0,0,0,0,0,0,0,0,0,0,0,0,0,0,0,0,0,0,0,0,0],"sum_hessian":[1.048E3,2.35E2,8.13E2,3.4E1,2.01E2,4.72E2,3.41E2,9E0,2.5E1,4.2E1,1.59E2,4.29E2,4.3E1,2.5E1,3.16E2,5E0,4E0,1.6E1,9E0,3.3E1,9E0,2.3E1,1.36E2,1.79E2,2.5E2,4E0,3.9E1,1.4E1,1.1E1,3.08E2,8E0],"tree_param":{"num_deleted":"0","num_feature":"14","num_nodes":"31","size_leaf_vector":"1"}},{"base_weights":[1.078678E-4,8.493171E-2,-2.447264E-2,2.2256367E-1,6.0614623E-2,-4.7330145E-2,7.1825427E-3,4.5555797E-1,1.2400573E-1,1.4021836E-1,3.877978E-2,-5.311798E-2,1.00811925E-2,1.2639329E-1,-2.5861068E-3,2.3357517E-3,6.288258E-3,5.137405E-4,2.34079E-3,1.0064539E-3,2.5974459E-3,-4.0125518E-4,5.2392535E-4,-2.9032226E-4,-7.0139166E-4,1.218723E-3,-3.8947266E-5,6.142198E-4,1.962413E-3,-7.245119E-5,2.0334804E-3],"categories":[],"categories_nodes":[],"categories_segments":[],"categories_sizes":[],"default_left":[0,0,0,0,0,0,0,0,0,0,0,0,0,0,0,0,0,0,0,0,0,0,0,0,0,0,0,0,0,0,0],"id":6,"left_children":[1,3,5,7,9,11,13,15,17,19,21,23,25,27,29,-1,-1,-1,-1,-1,-1,-1,-1,-1,-1,-1,-1,-1,-1,-1,-1],"loss_changes":[2.1898618E0,7.735243E-1,5.897182E-1,7.41433E-1,3.438757E-1,1.581378E-1,3.998335E-1,2.2912264E-1,1.9298479E-1,1.7364436E-1,1.7408392E-1,1.7325819E-1,7.039931E-2,1.0336086E-1,3.0365783E-1,0E0,0E0,0E0,0E0,0E0,0E0,0E0,0E0,0E0,0E0,0E0,0E0,0E0,0E0,0E0,0E0],"parents":[2147483647,0,0,1,1,2,2,3,3,4,4,5,5,6,6,7,7,8,8,9,9,10,10,11,11,12,12,13,13,14,14],"right_children":[2,4,6,8,10,12,14,16,18,20,22,24,26,28,30,-1,-1,-1,-1,-1,-1,-1,-1,-1,-1,-1,-1,-1,-1,-1,-1],"split_conditions":[2.1666667E-1,5E-2,4.081726E-4,-1.5881446E-1,-4.3064365E-1,1.3768673E-4,4.1019917E-4,-5.624792E-1,5.441904E-4,5.49078E-4,-3.0850473E-1,-7.461722E-2,1.3780594E-4,4.0972233E-4,6.8867207E-4,2.3357517E-3,6.288258E-3,5.137405E-4,2.34079E-3,1.0064539E-3,2.5974459E-3,-4.0125518E-4,5.2392535E-4,-2.9032226E-4,-7.0139166E-4,1.218723E-3,-3.8947266E-5,6.142198E-4,1.962413E-3,-7.245119E-5,2.0334804E-3],"split_indices":[13,13,12,6,6,11,12,8,12,12,4,8,11,12,12,0,0,0,0,0,0,0,0,0,0,0,0,0,0,0,0],"split_type":[0,0,0,0,0,0,0,0,0,0,0,0,0,0,0,0,0,0,0,0,0,0,0,0,0,0,0,0,0,0,0],"sum_hessian":[1.048E3,2.35E2,8.13E2,3.4E1,2.01E2,4.72E2,3.41E2,9E0,2.5E1,4.2E1,1.59E2,4.29E2,4.3E1,2.5E1,3.16E2,5E0,4E0,1.6E1,9E0,3.3E1,9E0,2.3E1,1.36E2,1.79E2,2.5E2,4E0,3.9E1,1.4E1,1.1E1,3.1E2,6E0],"tree_param":{"num_deleted":"0","num_feature":"14","num_nodes":"31","size_leaf_vector":"1"}},{"base_weights":[1.2626869E-4,8.4148936E-2,-2.4221983E-2,2.2067457E-1,6.0027424E-2,-4.685665E-2,7.124276E-3,4.518748E-1,1.22879304E-1,1.389023E-1,3.8392127E-2,-5.258933E-2,1.0004923E-2,1.252323E-1,-2.5537456E-3,2.316287E-3,6.2379516E-3,5.089054E-4,2.3197227E-3,9.966854E-4,2.574069E-3,-3.9740978E-4,5.187243E-4,-2.8743505E-4,-6.9440564E-4,1.2089731E-3,-3.8567487E-5,6.0848705E-4,1.9444241E-3,-7.172903E-5,2.0160505E-3],"categories":[],"categories_nodes":[],"categories_segments":[],"categories_sizes":[],"default_left":[0,0,0,0,0,0,0,0,0,0,0,0,0,0,0,0,0,0,0,0,0,0,0,0,0,0,0,0,0,0,0],"id":7,"left_children":[1,3,5,7,9,11,13,15,17,19,21,23,25,27,29,-1,-1,-1,-1,-1,-1,-1,-1,-1,-1,-1,-1,-1,-1,-1,-1],"loss_changes":[2.148687E0,7.6114285E-1,5.782741E-1,7.300863E-1,3.3760357E-1,1.551354E-1,3.9247036E-1,2.2560501E-1,1.895563E-1,1.7069721E-1,1.7070411E-1,1.6980982E-1,6.9271445E-2,1.01471454E-1,2.9844597E-1,0E0,0E0,0E0,0E0,0E0,0E0,0E0,0E0,0E0,0E0,0E0,0E0,0E0,0E0,0E0,0E0],"parents":[2147483647,0,0,1,1,2,2,3,3,4,4,5,5,6,6,7,7,8,8,9,9,10,10,11,11,12,12,13,13,14,14],"right_children":[2,4,6,8,10,12,14,16,18,20,22,24,26,28,30,-1,-1,-1,-1,-1,-1,-1,-1,-1,-1,-1,-1,-1,-1,-1,-1],"split_conditions":[2.1666667E-1,5E-2,4.081726E-4,-1.5881446E-1,-4.3064365E-1,1.3768673E-4,4.1019917E-4,-5.624792E-1,5.441904E-4,5.49078E-4,-3.0850473E-1,-7.461722E-2,1.3780594E-4,4.0972233E-4,6.8867207E-4,2.316287E-3,6.2379516E-3,5.089054E-4,2.3197227E-3,9.966854E-4,2.574069E-3,-3.9740978E-4,5.187243E-4,-2.8743505E-4,-6.9440564E-4,1.2089731E-3,-3.8567487E-5,6.0848705E-4,1.9444241E-3,-7.172903E-5,2.0160505E-3],"split_indices":[13,13,12,6,6,11,12,8,12,12,4,8,11,12,12,0,0,0,0,0,0,0,0,0,0,0,0,0,0,0,0],"split_type":[0,0,0,0,0,0,0,0,0,0,0,0,0,0,0,0,0,0,0,0,0,0,0,0,0,0,0,0,0,0,0],"sum_hessian":[1.048E3,2.35E2,8.13E2,3.4E1,2.01E2,4.72E2,3.41E2,9E0,2.5E1,4.2E1,1.59E2,4.29E2,4.3E1,2.5E1,3.16E2,5E0,4E0,1.6E1,9E0,3.3E1,9E0,2.3E1,1.36E2,1.79E2,2.5E2,4E0,3.9E1,1.4E1,1.1E1,3.1E2,6E0],"tree_param":{"num_deleted":"0","num_feature":"14","num_nodes":"31","size_leaf_vector":"1"}},{"base_weights":[1.4432293E-4,8.337345E-2,-2.3973882E-2,2.1880162E-1,5.9445933E-2,-4.63879E-2,7.066481E-3,4.4822147E-1,1.21763155E-1,1.3759866E-1,3.800835E-2,1.2854551E-3,-4.8175275E-2,7.413391E-2,-9.812056E-3,2.2969844E-3,6.188048E-3,5.041157E-4,2.2988452E-3,9.870117E-4,2.5509023E-3,-3.9360125E-4,5.135751E-4,-5.4087065E-4,9.9291996E-5,2.8018195E-3,5.3502317E-4,-1.6084357E-4,1.755484E-3],"categories":[],"categories_nodes":[],"categories_segments":[],"categories_sizes":[],"default_left":[0,0,0,0,0,0,0,0,0,0,0,0,0,0,0,0,0,0,0,0,0,0,0,0,0,0,0,0,0],"id":8,"left_children":[1,3,5,7,9,11,13,15,17,19,21,-1,23,25,27,-1,-1,-1,-1,-1,-1,-1,-1,-1,-1,-1,-1,-1,-1],"loss_changes":[2.1082895E0,7.4895906E-1,5.670528E-1,7.189127E-1,3.31446E-1,1.5328276E-1,3.8851467E-1,2.2214007E-1,1.8618864E-1,1.6779983E-1,1.6739011E-1,0E0,1.6208076E-1,2.7499864E-1,3.1979138E-1,0E0,0E0,0E0,0E0,0E0,0E0,0E0,0E0,0E0,0E0,0E0,0E0,0E0,0E0],"parents":[2147483647,0,0,1,1,2,2,3,3,4,4,5,5,6,6,7,7,8,8,9,9,10,10,12,12,13,13,14,14],"right_children":[2,4,6,8,10,12,14,16,18,20,22,-1,24,26,28,-1,-1,-1,-1,-1,-1,-1,-1,-1,-1,-1,-1,-1,-1],"split_conditions":[2.1666667E-1,5E-2,4.081726E-4,-1.5881446E-1,-4.3064365E-1,-6.386853E-1,4.1091442E-4,-5.624792E-1,5.441904E-4,5.49078E-4,-3.0850473E-1,1.2854551E-3,1.3768673E-4,2.9166666E-1,6.881952E-4,2.2969844E-3,6.188048E-3,5.041157E-4,2.2988452E-3,9.870117E-4,2.5509023E-3,-3.9360125E-4,5.135751E-4,-5.4087065E-4,9.9291996E-5,2.8018195E-3,5.3502317E-4,-1.6084357E-4,1.755484E-3],"split_indices":[13,13,12,6,6,2,12,8,12,12,4,0,11,13,12,0,0,0,0,0,0,0,0,0,0,0,0,0,0],"split_type":[0,0,0,0,0,0,0,0,0,0,0,0,0,0,0,0,0,0,0,0,0,0,0,0,0,0,0,0,0],"sum_hessian":[1.048E3,2.35E2,8.13E2,3.4E1,2.01E2,4.72E2,3.41E2,9E0,2.5E1,4.2E1,1.59E2,4E0,4.68E2,6.8E1,2.73E2,5E0,4E0,1.6E1,9E0,3.3E1,9E0,2.3E1,1.36E2,4.25E2,4.3E1,5E0,6.3E1,2.65E2,8E0],"tree_param":{"num_deleted":"0","num_feature":"14","num_nodes":"29","size_leaf_vector":"1"}},{"base_weights":[1.6339961E-4,8.260516E-2,-2.372655E-2,2.169447E-1,5.887007E-2,-4.5921806E-2,7.01053E-3,4.4459775E-1,1.2065718E-1,1.3630727E-1,3.7628382E-2,1.2751713E-3,-4.769424E-2,1.2356758E-1,-2.5399234E-3,2.277843E-3,6.138543E-3,4.993712E-4,2.2781556E-3,2.7148908E-3,1.0220277E-3,-3.8982922E-4,5.0847675E-4,-5.354745E-4,9.832155E-5,5.978145E-4,1.921696E-3,-7.086052E-5,1.9837234E-3],"categories":[],"categories_nodes":[],"categories_segments":[],"categories_sizes":[],"default_left":[0,0,0,0,0,0,0,0,0,0,0,0,0,0,0,0,0,0,0,0,0,0,0,0,0,0,0,0,0],"id":9,"left_children":[1,3,5,7,9,11,13,15,17,19,21,-1,23,25,27,-1,-1,-1,-1,-1,-1,-1,-1,-1,-1,-1,-1,-1,-1],"loss_changes":[2.0685854E0,7.369708E-1,5.56036E-1,7.0790863E-1,3.2540077E-1,1.5068829E-1,3.822292E-1,2.1872842E-1,1.8288043E-1,1.6675937E-1,1.6414039E-1,0E0,1.5888262E-1,9.9764615E-2,2.8903204E-1,0E0,0E0,0E0,0E0,0E0,0E0,0E0,0E0,0E0,0E0,0E0,0E0,0E0,0E0],"parents":[2147483647,0,0,1,1,2,2,3,3,4,4,5,5,6,6,7,7,8,8,9,9,10,10,12,12,13,13,14,14],"right_children":[2,4,6,8,10,12,14,16,18,20,22,-1,24,26,28,-1,-1,-1,-1,-1,-1,-1,-1,-1,-1,-1,-1,-1,-1],"split_conditions":[2.1666667E-1,5E-2,4.081726E-4,-1.5881446E-1,-4.3064365E-1,-6.386853E-1,4.1019917E-4,-5.624792E-1,5.441904E-4,-7.325584E-1,-3.0850473E-1,1.2751713E-3,1.3768673E-4,4.0972233E-4,6.8867207E-4,2.277843E-3,6.138543E-3,4.993712E-4,2.2781556E-3,2.7148908E-3,1.0220277E-3,-3.8982922E-4,5.0847675E-4,-5.354745E-4,9.832155E-5,5.978145E-4,1.921696E-3,-7.086052E-5,1.9837234E-3],"split_indices":[13,13,12,6,6,2,12,8,12,0,4,0,11,12,12,0,0,0,0,0,0,0,0,0,0,0,0,0,0],"split_type":[0,0,0,0,0,0,0,0,0,0,0,0,0,0,0,0,0,0,0,0,0,0,0,0,0,0,0,0,0],"sum_hessian":[1.048E3,2.35E2,8.13E2,3.4E1,2.01E2,4.72E2,3.41E2,9E0,2.5E1,4.2E1,1.59E2,4E0,4.68E2,2.5E1,3.16E2,5E0,4E0,1.6E1,9E0,7E0,3.5E1,2.3E1,1.36E2,4.25E2,4.3E1,1.4E1,1.1E1,3.1E2,6E0],"tree_param":{"num_deleted":"0","num_feature":"14","num_nodes":"29","size_leaf_vector":"1"}},{"base_weights":[1.8190536E-4,8.1844985E-2,-2.3482308E-2,2.1510364E-1,5.830094E-2,-4.546038E-2,6.9536865E-3,4.410034E-1,1.1956129E-1,1.3503341E-1,3.7252206E-2,1.2649698E-3,-4.7218006E-2,7.305891E-2,-9.682132E-3,2.258861E-3,6.089435E-3,4.946713E-4,2.2576523E-3,9.6552045E-4,2.5136673E-3,-3.860935E-4,5.0342904E-4,-5.301322E-4,9.736071E-5,2.7790614E-3,5.2556687E-4,-1.5853514E-4,1.7268123E-3],"categories":[],"categories_nodes":[],"categories_segments":[],"categories_sizes":[],"default_left":[0,0,0,0,0,0,0,0,0,0,0,0,0,0,0,0,0,0,0,0,0,0,0,0,0,0,0,0,0],"id":10,"left_children":[1,3,5,7,9,11,13,15,17,19,21,-1,23,25,27,-1,-1,-1,-1,-1,-1,-1,-1,-1,-1,-1,-1,-1,-1],"loss_changes":[2.0296903E0,7.25163E-1,5.452057E-1,6.970724E-1,3.1950128E-1,1.4813817E-1,3.774435E-1,2.1536791E-1,1.7963094E-1,1.6474754E-1,1.6095395E-1,0E0,1.5574753E-1,2.718774E-1,3.0953836E-1,0E0,0E0,0E0,0E0,0E0,0E0,0E0,0E0,0E0,0E0,0E0,0E0,0E0,0E0],"parents":[2147483647,0,0,1,1,2,2,3,3,4,4,5,5,6,6,7,7,8,8,9,9,10,10,12,12,13,13,14,14],"right_children":[2,4,6,8,10,12,14,16,18,20,22,-1,24,26,28,-1,-1,-1,-1,-1,-1,-1,-1,-1,-1,-1,-1,-1,-1],"split_conditions":[2.1666667E-1,5E-2,4.081726E-4,-1.5881446E-1,-4.3064365E-1,-6.386853E-1,4.1091442E-4,-5.624792E-1,5.441904E-4,5.49078E-4,-3.0850473E-1,1.2649698E-3,1.3768673E-4,2.9166666E-1,6.881952E-4,2.258861E-3,6.089435E-3,4.946713E-4,2.2576523E-3,9.6552045E-4,2.5136673E-3,-3.860935E-4,5.0342904E-4,-5.301322E-4,9.736071E-5,2.7790614E-3,5.2556687E-4,-1.5853514E-4,1.7268123E-3],"split_indices":[13,13,12,6,6,2,12,8,12,12,4,0,11,13,12,0,0,0,0,0,0,0,0,0,0,0,0,0,0],"split_type":[0,0,0,0,0,0,0,0,0,0,0,0,0,0,0,0,0,0,0,0,0,0,0,0,0,0,0,0,0],"sum_hessian":[1.048E3,2.35E2,8.13E2,3.4E1,2.01E2,4.72E2,3.41E2,9E0,2.5E1,4.2E1,1.59E2,4E0,4.68E2,6.8E1,2.73E2,5E0,4E0,1.6E1,9E0,3.3E1,9E0,2.3E1,1.36E2,4.25E2,4.3E1,5E0,6.3E1,2.65E2,8E0],"tree_param":{"num_deleted":"0","num_feature":"14","num_nodes":"29","size_leaf_vector":"1"}},{"base_weights":[2.0029972E-4,8.109094E-2,-2.3239985E-2,2.1327835E-1,5.7736237E-2,-4.50036E-2,6.8987017E-3,4.374382E-1,1.1847539E-1,1.3376632E-1,3.68798E-2,1.2548502E-3,-4.6746545E-2,1.2192732E-1,-2.526039E-3,2.240037E-3,6.04072E-3,4.9001566E-4,2.2373337E-3,2.6768814E-3,1.000124E-3,-3.8239348E-4,4.9843156E-4,-5.248434E-4,9.6409196E-5,5.8732973E-4,1.8992629E-3,-7.000314E-5,1.9519187E-3],"categories":[],"categories_nodes":[],"categories_segments":[],"categories_sizes":[],"default_left":[0,0,0,0,0,0,0,0,0,0,0,0,0,0,0,0,0,0,0,0,0,0,0,0,0,0,0,0,0],"id":11,"left_children":[1,3,5,7,9,11,13,15,17,19,21,-1,23,25,27,-1,-1,-1,-1,-1,-1,-1,-1,-1,-1,-1,-1,-1,-1],"loss_changes":[1.9914716E0,7.135546E-1,5.3461593E-1,6.864008E-1,3.13675E-1,1.4563137E-1,3.722693E-1,2.1205878E-1,1.7643884E-1,1.6392756E-1,1.5782939E-1,0E0,1.5267467E-1,9.808439E-2,2.799167E-1,0E0,0E0,0E0,0E0,0E0,0E0,0E0,0E0,0E0,0E0,0E0,0E0,0E0,0E0],"parents":[2147483647,0,0,1,1,2,2,3,3,4,4,5,5,6,6,7,7,8,8,9,9,10,10,12,12,13,13,14,14],"right_children":[2,4,6,8,10,12,14,16,18,20,22,-1,24,26,28,-1,-1,-1,-1,-1,-1,-1,-1,-1,-1,-1,-1,-1,-1],"split_conditions":[2.1666667E-1,5E-2,4.081726E-4,-1.5881446E-1,-4.3064365E-1,-6.386853E-1,4.1019917E-4,-5.624792E-1,5.441904E-4,-7.325584E-1,-3.0850473E-1,1.2548502E-3,1.3768673E-4,4.0972233E-4,6.8867207E-4,2.240037E-3,6.04072E-3,4.9001566E-4,2.2373337E-3,2.6768814E-3,1.000124E-3,-3.8239348E-4,4.9843156E-4,-5.248434E-4,9.6409196E-5,5.8732973E-4,1.8992629E-3,-7.000314E-5,1.9519187E-3],"split_indices":[13,13,12,6,6,2,12,8,12,0,4,0,11,12,12,0,0,0,0,0,0,0,0,0,0,0,0,0,0],"split_type":[0,0,0,0,0,0,0,0,0,0,0,0,0,0,0,0,0,0,0,0,0,0,0,0,0,0,0,0,0],"sum_hessian":[1.048E3,2.35E2,8.13E2,3.4E1,2.01E2,4.72E2,3.41E2,9E0,2.5E1,4.2E1,1.59E2,4E0,4.68E2,2.5E1,3.16E2,5E0,4E0,1.6E1,9E0,7E0,3.5E1,2.3E1,1.36E2,4.25E2,4.3E1,1.4E1,1.1E1,3.1E2,6E0],"tree_param":{"num_deleted":"0","num_feature":"14","num_nodes":"29","size_leaf_vector":"1"}},{"base_weights":[2.1812216E-4,8.0344856E-2,-2.3000708E-2,2.1146867E-1,5.7178136E-2,-4.455139E-2,6.8427813E-3,4.339019E-1,1.17399395E-1,1.3251649E-1,3.651109E-2,1.2448113E-3,-4.6279773E-2,7.199934E-2,-9.553734E-3,2.2213699E-3,5.992394E-3,4.8540378E-4,2.2171976E-3,9.444695E-4,2.4770128E-3,-3.7872887E-4,4.934835E-4,-5.196072E-4,9.5467E-5,2.7564862E-3,5.162598E-4,-1.562582E-4,1.6986057E-3],"categories":[],"categories_nodes":[],"categories_segments":[],"categories_sizes":[],"default_left":[0,0,0,0,0,0,0,0,0,0,0,0,0,0,0,0,0,0,0,0,0,0,0,0,0,0,0,0,0],"id":12,"left_children":[1,3,5,7,9,11,13,15,17,19,21,-1,23,25,27,-1,-1,-1,-1,-1,-1,-1,-1,-1,-1,-1,-1,-1,-1],"loss_changes":[1.9540325E0,7.021215E-1,5.242041E-1,6.758919E-1,3.0798966E-1,1.4316732E-1,3.6668482E-1,2.0879984E-1,1.733034E-1,1.6174036E-1,1.5476556E-1,0E0,1.4966214E-1,2.6877895E-1,2.996127E-1,0E0,0E0,0E0,0E0,0E0,0E0,0E0,0E0,0E0,0E0,0E0,0E0,0E0,0E0],"parents":[2147483647,0,0,1,1,2,2,3,3,4,4,5,5,6,6,7,7,8,8,9,9,10,10,12,12,13,13,14,14],"right_children":[2,4,6,8,10,12,14,16,18,20,22,-1,24,26,28,-1,-1,-1,-1,-1,-1,-1,-1,-1,-1,-1,-1,-1,-1],"split_conditions":[2.1666667E-1,5E-2,4.081726E-4,-1.5881446E-1,-4.3064365E-1,-6.386853E-1,4.1091442E-4,-5.624792E-1,5.441904E-4,5.49078E-4,-3.0850473E-1,1.2448113E-3,1.3768673E-4,2.9166666E-1,6.881952E-4,2.2213699E-3,5.992394E-3,4.8540378E-4,2.2171976E-3,9.444695E-4,2.4770128E-3,-3.7872887E-4,4.934835E-4,-5.196072E-4,9.5467E-5,2.7564862E-3,5.162598E-4,-1.562582E-4,1.6986057E-3],"split_indices":[13,13,12,6,6,2,12,8,12,12,4,0,11,13,12,0,0,0,0,0,0,0,0,0,0,0,0,0,0],"split_type":[0,0,0,0,0,0,0,0,0,0,0,0,0,0,0,0,0,0,0,0,0,0,0,0,0,0,0,0,0],"sum_hessian":[1.048E3,2.35E2,8.13E2,3.4E1,2.01E2,4.72E2,3.41E2,9E0,2.5E1,4.2E1,1.59E2,4E0,4.68E2,6.8E1,2.73E2,5E0,4E0,1.6E1,9E0,3.3E1,9E0,2.3E1,1.36E2,4.25E2,4.3E1,5E0,6.3E1,2.65E2,8E0],"tree_param":{"num_deleted":"0","num_feature":"14","num_nodes":"29","size_leaf_vector":"1"}},{"base_weights":[2.3584938E-4,7.960476E-2,-2.276329E-2,2.0967445E-1,5.662435E-2,-4.4103723E-2,6.7887204E-3,4.3039426E-1,1.16333194E-1,1.3127322E-1,3.614606E-2,1.2348528E-3,-4.581767E-2,1.20311104E-1,-2.512134E-3,2.2028587E-3,5.9444546E-3,4.808354E-4,2.1972428E-3,2.6394478E-3,9.786639E-4,-3.750994E-4,4.8858457E-4,-5.144234E-4,9.453414E-5,5.7702936E-4,1.8771206E-3,-6.915712E-5,1.9206284E-3],"categories":[],"categories_nodes":[],"categories_segments":[],"categories_sizes":[],"default_left":[0,0,0,0,0,0,0,0,0,0,0,0,0,0,0,0,0,0,0,0,0,0,0,0,0,0,0,0,0],"id":13,"left_children":[1,3,5,7,9,11,13,15,17,19,21,-1,23,25,27,-1,-1,-1,-1,-1,-1,-1,-1,-1,-1,-1,-1,-1,-1],"loss_changes":[1.9172425E0,6.908816E-1,5.140238E-1,6.655427E-1,3.0237436E-1,1.4074504E-1,3.625827E-1,2.0559025E-1,1.702233E-1,1.6113234E-1,1.5176123E-1,0E0,1.4670968E-1,9.643042E-2,2.710906E-1,0E0,0E0,0E0,0E0,0E0,0E0,0E0,0E0,0E0,0E0,0E0,0E0,0E0,0E0],"parents":[2147483647,0,0,1,1,2,2,3,3,4,4,5,5,6,6,7,7,8,8,9,9,10,10,12,12,13,13,14,14],"right_children":[2,4,6,8,10,12,14,16,18,20,22,-1,24,26,28,-1,-1,-1,-1,-1,-1,-1,-1,-1,-1,-1,-1,-1,-1],"split_conditions":[2.1666667E-1,5E-2,4.081726E-4,-1.5881446E-1,-4.3064365E-1,-6.386853E-1,4.1019917E-4,-5.624792E-1,5.441904E-4,-7.325584E-1,-3.0850473E-1,1.2348528E-3,1.3768673E-4,4.0972233E-4,6.8867207E-4,2.2028587E-3,5.9444546E-3,4.808354E-4,2.1972428E-3,2.6394478E-3,9.786639E-4,-3.750994E-4,4.8858457E-4,-5.144234E-4,9.453414E-5,5.7702936E-4,1.8771206E-3,-6.915712E-5,1.9206284E-3],"split_indices":[13,13,12,6,6,2,12,8,12,0,4,0,11,12,12,0,0,0,0,0,0,0,0,0,0,0,0,0,0],"split_type":[0,0,0,0,0,0,0,0,0,0,0,0,0,0,0,0,0,0,0,0,0,0,0,0,0,0,0,0,0],"sum_hessian":[1.048E3,2.35E2,8.13E2,3.4E1,2.01E2,4.72E2,3.41E2,9E0,2.5E1,4.2E1,1.59E2,4E0,4.68E2,2.5E1,3.16E2,5E0,4E0,1.6E1,9E0,7E0,3.5E1,2.3E1,1.36E2,4.25E2,4.3E1,1.4E1,1.1E1,3.1E2,6E0],"tree_param":{"num_deleted":"0","num_feature":"14","num_nodes":"29","size_leaf_vector":"1"}},{"base_weights":[2.5301374E-4,7.887252E-2,-2.2528872E-2,2.0789558E-1,5.6077074E-2,-4.3660544E-2,6.733727E-3,4.2691502E-1,1.1527672E-1,1.3004695E-1,3.5784688E-2,1.2249739E-3,-4.5360178E-2,7.095499E-2,-9.426862E-3,2.1845012E-3,5.896899E-3,4.7630994E-4,2.1774678E-3,9.238498E-4,2.4409292E-3,-3.7150478E-4,4.8373442E-4,-5.092913E-4,9.361029E-5,2.7340918E-3,5.0709996E-4,-1.5401244E-4,1.6708563E-3],"categories":[],"categories_nodes":[],"categories_segments":[],"categories_sizes":[],"default_left":[0,0,0,0,0,0,0,0,0,0,0,0,0,0,0,0,0,0,0,0,0,0,0,0,0,0,0,0,0],"id":14,"left_children":[1,3,5,7,9,11,13,15,17,19,21,-1,23,25,27,-1,-1,-1,-1,-1,-1,-1,-1,-1,-1,-1,-1,-1,-1],"loss_changes":[1.8812048E0,6.7981064E-1,5.040145E-1,6.553513E-1,2.968951E-1,1.383642E-1,3.5623008E-1,2.0242918E-1,1.6719788E-1,1.5877813E-1,1.488154E-1,0E0,1.4381534E-1,2.657035E-1,2.9000401E-1,0E0,0E0,0E0,0E0,0E0,0E0,0E0,0E0,0E0,0E0,0E0,0E0,0E0,0E0],"parents":[2147483647,0,0,1,1,2,2,3,3,4,4,5,5,6,6,7,7,8,8,9,9,10,10,12,12,13,13,14,14],"right_children":[2,4,6,8,10,12,14,16,18,20,22,-1,24,26,28,-1,-1,-1,-1,-1,-1,-1,-1,-1,-1,-1,-1,-1,-1],"split_conditions":[2.1666667E-1,5E-2,4.081726E-4,-1.5881446E-1,-4.3064365E-1,-6.386853E-1,4.1091442E-4,-5.624792E-1,5.441904E-4,5.49078E-4,-3.0850473E-1,1.2249739E-3,1.3768673E-4,2.9166666E-1,6.881952E-4,2.1845012E-3,5.896899E-3,4.7630994E-4,2.1774678E-3,9.238498E-4,2.4409292E-3,-3.7150478E-4,4.8373442E-4,-5.092913E-4,9.361029E-5,2.7340918E-3,5.0709996E-4,-1.5401244E-4,1.6708563E-3],"split_indices":[13,13,12,6,6,2,12,8,12,12,4,0,11,13,12,0,0,0,0,0,0,0,0,0,0,0,0,0,0],"split_type":[0,0,0,0,0,0,0,0,0,0,0,0,0,0,0,0,0,0,0,0,0,0,0,0,0,0,0,0,0],"sum_hessian":[1.048E3,2.35E2,8.13E2,3.4E1,2.01E2,4.72E2,3.41E2,9E0,2.5E1,4.2E1,1.59E2,4E0,4.68E2,6.8E1,2.73E2,5E0,4E0,1.6E1,9E0,3.3E1,9E0,2.3E1,1.36E2,4.25E2,4.3E1,5E0,6.3E1,2.65E2,8E0],"tree_param":{"num_deleted":"0","num_feature":"14","num_nodes":"29","size_leaf_vector":"1"}},{"base_weights":[2.7010683E-4,7.814614E-2,-2.229625E-2,2.061319E-1,5.553402E-2,-4.32218E-2,6.6806017E-3,4.2346403E-1,1.14229865E-1,1.2882707E-1,3.542693E-2,1.2151742E-3,-4.490725E-2,1.1871865E-1,-2.498167E-3,2.166297E-3,5.849724E-3,4.718271E-4,2.1578704E-3,2.6025798E-3,9.576387E-4,-3.6794442E-4,4.7893252E-4,-5.042103E-4,9.2695474E-5,5.6691095E-4,1.8552653E-3,-6.832186E-5,1.8898441E-3],"categories":[],"categories_nodes":[],"categories_segments":[],"categories_sizes":[],"default_left":[0,0,0,0,0,0,0,0,0,0,0,0,0,0,0,0,0,0,0,0,0,0,0,0,0,0,0,0,0],"id":15,"left_children":[1,3,5,7,9,11,13,15,17,19,21,-1,23,25,27,-1,-1,-1,-1,-1,-1,-1,-1,-1,-1,-1,-1,-1,-1],"loss_changes":[1.8457906E0,6.689272E-1,4.9422854E-1,6.453152E-1,2.9148293E-1,1.360237E-1,3.5316175E-1,1.9931626E-1,1.64226E-1,1.5837407E-1,1.459268E-1,0E0,1.4097816E-1,9.480229E-2,2.625445E-1,0E0,0E0,0E0,0E0,0E0,0E0,0E0,0E0,0E0,0E0,0E0,0E0,0E0,0E0],"parents":[2147483647,0,0,1,1,2,2,3,3,4,4,5,5,6,6,7,7,8,8,9,9,10,10,12,12,13,13,14,14],"right_children":[2,4,6,8,10,12,14,16,18,20,22,-1,24,26,28,-1,-1,-1,-1,-1,-1,-1,-1,-1,-1,-1,-1,-1,-1],"split_conditions":[2.1666667E-1,5E-2,4.081726E-4,-1.5881446E-1,-4.3064365E-1,-6.386853E-1,4.1019917E-4,-5.624792E-1,5.441904E-4,-7.325584E-1,-3.0850473E-1,1.2151742E-3,1.3768673E-4,4.0972233E-4,6.8867207E-4,2.166297E-3,5.849724E-3,4.718271E-4,2.1578704E-3,2.6025798E-3,9.576387E-4,-3.6794442E-4,4.7893252E-4,-5.042103E-4,9.2695474E-5,5.6691095E-4,1.8552653E-3,-6.832186E-5,1.8898441E-3],"split_indices":[13,13,12,6,6,2,12,8,12,0,4,0,11,12,12,0,0,0,0,0,0,0,0,0,0,0,0,0,0],"split_type":[0,0,0,0,0,0,0,0,0,0,0,0,0,0,0,0,0,0,0,0,0,0,0,0,0,0,0,0,0],"sum_hessian":[1.048E3,2.35E2,8.13E2,3.4E1,2.01E2,4.72E2,3.41E2,9E0,2.5E1,4.2E1,1.59E2,4E0,4.68E2,2.5E1,3.16E2,5E0,4E0,1.6E1,9E0,7E0,3.5E1,2.3E1,1.36E2,4.25E2,4.3E1,1.4E1,1.1E1,3.1E2,6E0],"tree_param":{"num_deleted":"0","num_feature":"14","num_nodes":"29","size_leaf_vector":"1"}},{"base_weights":[2.8662823E-4,7.742747E-2,-2.2066597E-2,2.0438333E-1,5.4997355E-2,-4.2787474E-2,6.62651E-3,4.20041E-1,1.1319256E-1,1.2762392E-1,3.5072736E-2,-6.978087E-3,-5.081452E-2,1.1762848E-1,-2.4671098E-3,2.1482445E-3,5.802926E-3,4.673864E-4,2.1384496E-3,9.0365316E-4,2.4054071E-3,-3.6441832E-4,4.7417823E-4,1.1292028E-3,-3.1322645E-4,-7.8793836E-4,-3.103589E-4,5.616198E-4,1.8382588E-3,-6.764069E-5,1.8736451E-3],"categories":[],"categories_nodes":[],"categories_segments":[],"categories_sizes":[],"default_left":[0,0,0,0,0,0,0,0,0,0,0,0,0,0,0,0,0,0,0,0,0,0,0,0,0,0,0,0,0,0,0],"id":16,"left_children":[1,3,5,7,9,11,13,15,17,19,21,23,25,27,29,-1,-1,-1,-1,-1,-1,-1,-1,-1,-1,-1,-1,-1,-1,-1,-1],"loss_changes":[1.8111016E0,6.5820754E-1,4.8460597E-1,6.3543165E-1,2.8620237E-1,1.3502824E-1,3.4665993E-1,1.9625056E-1,1.6130677E-1,1.558606E-1,1.4309433E-1,2.595818E-1,2.1006578E-1,9.306803E-2,2.5803787E-1,0E0,0E0,0E0,0E0,0E0,0E0,0E0,0E0,0E0,0E0,0E0,0E0,0E0,0E0,0E0,0E0],"parents":[2147483647,0,0,1,1,2,2,3,3,4,4,5,5,6,6,7,7,8,8,9,9,10,10,11,11,12,12,13,13,14,14],"right_children":[2,4,6,8,10,12,14,16,18,20,22,24,26,28,30,-1,-1,-1,-1,-1,-1,-1,-1,-1,-1,-1,-1,-1,-1,-1,-1],"split_conditions":[2.1666667E-1,5E-2,4.081726E-4,-1.5881446E-1,-4.3064365E-1,-1.3553481E-1,4.1019917E-4,-5.624792E-1,5.441904E-4,5.49078E-4,-3.0850473E-1,1.3709068E-4,1.3756752E-4,4.0972233E-4,6.8867207E-4,2.1482445E-3,5.802926E-3,4.673864E-4,2.1384496E-3,9.0365316E-4,2.4054071E-3,-3.6441832E-4,4.7417823E-4,1.1292028E-3,-3.1322645E-4,-7.8793836E-4,-3.103589E-4,5.616198E-4,1.8382588E-3,-6.764069E-5,1.8736451E-3],"split_indices":[13,13,12,6,6,2,12,8,12,12,4,12,12,12,12,0,0,0,0,0,0,0,0,0,0,0,0,0,0,0,0],"split_type":[0,0,0,0,0,0,0,0,0,0,0,0,0,0,0,0,0,0,0,0,0,0,0,0,0,0,0,0,0,0,0],"sum_hessian":[1.048E3,2.35E2,8.13E2,3.4E1,2.01E2,4.72E2,3.41E2,9E0,2.5E1,4.2E1,1.59E2,8.7E1,3.85E2,2.5E1,3.16E2,5E0,4E0,1.6E1,9E0,3.3E1,9E0,2.3E1,1.36E2,1.4E1,7.3E1,1.58E2,2.27E2,1.4E1,1.1E1,3.1E2,6E0],"tree_param":{"num_deleted":"0","num_feature":"14","num_nodes":"31","size_leaf_vector":"1"}},{"base_weights":[3.0130465E-4,7.671452E-2,-2.1840982E-2,2.026497E-1,5.4464795E-2,-4.2360406E-2,6.572845E-3,4.1664568E-1,1.12164706E-1,1.2642694E-1,3.4722064E-2,1.2021891E-3,-4.4024665E-2,6.956083E-2,-9.276586E-3,2.1303424E-3,5.7565025E-3,4.629874E-4,2.1192038E-3,2.5662687E-3,9.3703985E-4,-3.6092594E-4,4.6947098E-4,-3.755753E-4,-9.1839855E-4,2.712441E-3,4.940988E-4,-1.5112327E-4,1.6312163E-3],"categories":[],"categories_nodes":[],"categories_segments":[],"categories_sizes":[],"default_left":[0,0,0,0,0,0,0,0,0,0,0,0,0,0,0,0,0,0,0,0,0,0,0,0,0,0,0,0,0],"id":17,"left_children":[1,3,5,7,9,11,13,15,17,19,21,-1,23,25,27,-1,-1,-1,-1,-1,-1,-1,-1,-1,-1,-1,-1,-1,-1],"loss_changes":[1.777094E0,6.476692E-1,4.7522712E-1,6.256988E-1,2.8098607E-1,1.3251197E-1,3.4267482E-1,1.9323146E-1,1.5843928E-1,1.556524E-1,1.4031687E-1,0E0,1.4028442E-1,2.6381484E-1,2.7664864E-1,0E0,0E0,0E0,0E0,0E0,0E0,0E0,0E0,0E0,0E0,0E0,0E0,0E0,0E0],"parents":[2147483647,0,0,1,1,2,2,3,3,4,4,5,5,6,6,7,7,8,8,9,9,10,10,12,12,13,13,14,14],"right_children":[2,4,6,8,10,12,14,16,18,20,22,-1,24,26,28,-1,-1,-1,-1,-1,-1,-1,-1,-1,-1,-1,-1,-1,-1],"split_conditions":[2.1666667E-1,5E-2,4.081726E-4,-1.5881446E-1,-4.3064365E-1,-6.386853E-1,4.1091442E-4,-5.624792E-1,5.441904E-4,-7.325584E-1,-3.0850473E-1,1.2021891E-3,9.25E-1,2.9166666E-1,6.881952E-4,2.1303424E-3,5.7565025E-3,4.629874E-4,2.1192038E-3,2.5662687E-3,9.3703985E-4,-3.6092594E-4,4.6947098E-4,-3.755753E-4,-9.1839855E-4,2.712441E-3,4.940988E-4,-1.5112327E-4,1.6312163E-3],"split_indices":[13,13,12,6,6,2,12,8,12,0,4,0,13,13,12,0,0,0,0,0,0,0,0,0,0,0,0,0,0],"split_type":[0,0,0,0,0,0,0,0,0,0,0,0,0,0,0,0,0,0,0,0,0,0,0,0,0,0,0,0,0],"sum_hessian":[1.048E3,2.35E2,8.13E2,3.4E1,2.01E2,4.72E2,3.41E2,9E0,2.5E1,4.2E1,1.59E2,4E0,4.68E2,6.8E1,2.73E2,5E0,4E0,1.6E1,9E0,7E0,3.5E1,2.3E1,1.36E2,4.14E2,5.4E1,5E0,6.3E1,2.65E2,8E0],"tree_param":{"num_deleted":"0","num_feature":"14","num_nodes":"29","size_leaf_vector":"1"}},{"base_weights":[3.1666475E-4,7.600916E-2,-2.1616684E-2,2.009309E-1,5.393852E-2,-4.1937005E-2,6.5211165E-3,4.1327792E-1,1.1114622E-1,1.2524647E-1,3.4374896E-2,-6.592149E-3,-4.9860347E-2,1.1607324E-1,-2.453257E-3,2.1125898E-3,5.710451E-3,4.5862995E-4,2.1001308E-3,2.5438138E-3,9.2792965E-4,-3.5746695E-4,4.648105E-4,1.1200651E-3,-3.067847E-4,-7.7548885E-4,-3.028869E-4,5.517665E-4,1.8168787E-3,-6.6823304E-5,1.8436036E-3],"categories":[],"categories_nodes":[],"categories_segments":[],"categories_sizes":[],"default_left":[0,0,0,0,0,0,0,0,0,0,0,0,0,0,0,0,0,0,0,0,0,0,0,0,0,0,0,0,0,0,0],"id":18,"left_children":[1,3,5,7,9,11,13,15,17,19,21,23,25,27,29,-1,-1,-1,-1,-1,-1,-1,-1,-1,-1,-1,-1,-1,-1,-1,-1],"loss_changes":[1.7437263E0,6.3728976E-1,4.660477E-1,6.1611426E-1,2.758969E-1,1.315701E-1,3.3766225E-1,1.9025815E-1,1.5562248E-1,1.531313E-1,1.3759336E-1,2.5400415E-1,2.0575029E-1,9.149483E-2,2.4990055E-1,0E0,0E0,0E0,0E0,0E0,0E0,0E0,0E0,0E0,0E0,0E0,0E0,0E0,0E0,0E0,0E0],"parents":[2147483647,0,0,1,1,2,2,3,3,4,4,5,5,6,6,7,7,8,8,9,9,10,10,11,11,12,12,13,13,14,14],"right_children":[2,4,6,8,10,12,14,16,18,20,22,24,26,28,30,-1,-1,-1,-1,-1,-1,-1,-1,-1,-1,-1,-1,-1,-1,-1,-1],"split_conditions":[2.1666667E-1,5E-2,4.081726E-4,-1.5881446E-1,-4.3064365E-1,-1.3553481E-1,4.1019917E-4,-5.624792E-1,5.441904E-4,-7.325584E-1,-3.0850473E-1,1.3709068E-4,1.3756752E-4,4.0972233E-4,6.8867207E-4,2.1125898E-3,5.710451E-3,4.5862995E-4,2.1001308E-3,2.5438138E-3,9.2792965E-4,-3.5746695E-4,4.648105E-4,1.1200651E-3,-3.067847E-4,-7.7548885E-4,-3.028869E-4,5.517665E-4,1.8168787E-3,-6.6823304E-5,1.8436036E-3],"split_indices":[13,13,12,6,6,2,12,8,12,0,4,12,12,12,12,0,0,0,0,0,0,0,0,0,0,0,0,0,0,0,0],"split_type":[0,0,0,0,0,0,0,0,0,0,0,0,0,0,0,0,0,0,0,0,0,0,0,0,0,0,0,0,0,0,0],"sum_hessian":[1.048E3,2.35E2,8.13E2,3.4E1,2.01E2,4.72E2,3.41E2,9E0,2.5E1,4.2E1,1.59E2,8.7E1,3.85E2,2.5E1,3.16E2,5E0,4E0,1.6E1,9E0,7E0,3.5E1,2.3E1,1.36E2,1.4E1,7.3E1,1.58E2,2.27E2,1.4E1,1.1E1,3.1E2,6E0],"tree_param":{"num_deleted":"0","num_feature":"14","num_nodes":"31","size_leaf_vector":"1"}},{"base_weights":[3.3098145E-4,7.531036E-2,-2.1395631E-2,1.9922677E-1,5.341736E-2,-4.151841E-2,6.4683137E-3,4.0993744E-1,1.10137016E-1,1.2407707E-1,3.4031205E-2,1.1893184E-3,-4.316176E-2,6.8553194E-2,-9.15331E-3,2.0949848E-3,5.6647668E-3,4.5431344E-4,2.0812296E-3,8.7296334E-4,2.3572384E-3,-3.5404114E-4,4.6019646E-4,-3.677088E-4,-9.0417307E-4,2.6903942E-3,4.8530212E-4,7.7985466E-4,-2.0631858E-4],"categories":[],"categories_nodes":[],"categories_segments":[],"categories_sizes":[],"default_left":[0,0,0,0,0,0,0,0,0,0,0,0,0,0,0,0,0,0,0,0,0,0,0,0,0,0,0,0,0],"id":19,"left_children":[1,3,5,7,9,11,13,15,17,19,21,-1,23,25,27,-1,-1,-1,-1,-1,-1,-1,-1,-1,-1,-1,-1,-1,-1],"loss_changes":[1.7110215E0,6.2707615E-1,4.5702878E-1,6.066756E-1,2.7090013E-1,1.290946E-1,3.329159E-1,1.8733013E-1,1.5285552E-1,1.5276933E-1,1.3492283E-1,0E0,1.370436E-1,2.6075667E-1,2.7509758E-1,0E0,0E0,0E0,0E0,0E0,0E0,0E0,0E0,0E0,0E0,0E0,0E0,0E0,0E0],"parents":[2147483647,0,0,1,1,2,2,3,3,4,4,5,5,6,6,7,7,8,8,9,9,10,10,12,12,13,13,14,14],"right_children":[2,4,6,8,10,12,14,16,18,20,22,-1,24,26,28,-1,-1,-1,-1,-1,-1,-1,-1,-1,-1,-1,-1,-1,-1],"split_conditions":[2.1666667E-1,5E-2,4.081726E-4,-1.5881446E-1,-4.3064365E-1,-6.386853E-1,4.1091442E-4,-5.624792E-1,5.441904E-4,5.49078E-4,-3.0850473E-1,1.1893184E-3,9.25E-1,2.9166666E-1,-4.7635305E-1,2.0949848E-3,5.6647668E-3,4.5431344E-4,2.0812296E-3,8.7296334E-4,2.3572384E-3,-3.5404114E-4,4.6019646E-4,-3.677088E-4,-9.0417307E-4,2.6903942E-3,4.8530212E-4,7.7985466E-4,-2.0631858E-4],"split_indices":[13,13,12,6,6,2,12,8,12,12,4,0,13,13,8,0,0,0,0,0,0,0,0,0,0,0,0,0,0],"split_type":[0,0,0,0,0,0,0,0,0,0,0,0,0,0,0,0,0,0,0,0,0,0,0,0,0,0,0,0,0],"sum_hessian":[1.048E3,2.35E2,8.13E2,3.4E1,2.01E2,4.72E2,3.41E2,9E0,2.5E1,4.2E1,1.59E2,4E0,4.68E2,6.8E1,2.73E2,5E0,4E0,1.6E1,9E0,3.3E1,9E0,2.3E1,1.36E2,4.14E2,5.4E1,5E0,6.3E1,3.1E1,2.42E2],"tree_param":{"num_deleted":"0","num_feature":"14","num_nodes":"29","size_leaf_vector":"1"}},{"base_weights":[3.4472998E-4,7.4617125E-2,-2.1176929E-2,1.9753723E-1,5.290019E-2,-4.1103408E-2,6.4148866E-3,4.0662405E-1,1.0913702E-1,1.2291374E-1,3.3690922E-2,-4.631957E-2,1.0579623E-2,1.1454083E-1,-2.442178E-3,2.0775266E-3,5.619449E-3,4.5003762E-4,2.0624986E-3,2.508351E-3,9.079472E-4,-3.5064816E-4,4.5562795E-4,-2.2754789E-4,-6.2994234E-4,1.2040257E-3,-3.1627354E-5,5.420873E-4,1.7957756E-3,-7.213436E-5,1.6053125E-3],"categories":[],"categories_nodes":[],"categories_segments":[],"categories_sizes":[],"default_left":[0,0,0,0,0,0,0,0,0,0,0,0,0,0,0,0,0,0,0,0,0,0,0,0,0,0,0,0,0,0,0],"id":20,"left_children":[1,3,5,7,9,11,13,15,17,19,21,23,25,27,29,-1,-1,-1,-1,-1,-1,-1,-1,-1,-1,-1,-1,-1,-1,-1,-1],"loss_changes":[1.6789045E0,6.170355E-1,4.48154E-1,5.9738076E-1,2.659645E-1,1.2836212E-1,3.289268E-1,1.8444633E-1,1.501377E-1,1.5048367E-1,1.3230416E-1,1.6667104E-1,6.795916E-2,8.99463E-2,2.461203E-1,0E0,0E0,0E0,0E0,0E0,0E0,0E0,0E0,0E0,0E0,0E0,0E0,0E0,0E0,0E0,0E0],"parents":[2147483647,0,0,1,1,2,2,3,3,4,4,5,5,6,6,7,7,8,8,9,9,10,10,11,11,12,12,13,13,14,14],"right_children":[2,4,6,8,10,12,14,16,18,20,22,24,26,28,30,-1,-1,-1,-1,-1,-1,-1,-1,-1,-1,-1,-1,-1,-1,-1,-1],"split_conditions":[2.1666667E-1,5E-2,4.081726E-4,-1.5881446E-1,-4.3064365E-1,1.3768673E-4,4.1019917E-4,-5.624792E-1,5.441904E-4,-7.325584E-1,-3.0850473E-1,-7.461722E-2,1.3780594E-4,4.0972233E-4,6.881952E-4,2.0775266E-3,5.619449E-3,4.5003762E-4,2.0624986E-3,2.508351E-3,9.079472E-4,-3.5064816E-4,4.5562795E-4,-2.2754789E-4,-6.2994234E-4,1.2040257E-3,-3.1627354E-5,5.420873E-4,1.7957756E-3,-7.213436E-5,1.6053125E-3],"split_indices":[13,13,12,6,6,11,12,8,12,0,4,8,11,12,12,0,0,0,0,0,0,0,0,0,0,0,0,0,0,0,0],"split_type":[0,0,0,0,0,0,0,0,0,0,0,0,0,0,0,0,0,0,0,0,0,0,0,0,0,0,0,0,0,0,0],"sum_hessian":[1.048E3,2.35E2,8.13E2,3.4E1,2.01E2,4.72E2,3.41E2,9E0,2.5E1,4.2E1,1.59E2,4.29E2,4.3E1,2.5E1,3.16E2,5E0,4E0,1.6E1,9E0,7E0,3.5E1,2.3E1,1.36E2,1.79E2,2.5E2,4E0,3.9E1,1.4E1,1.1E1,3.08E2,8E0],"tree_param":{"num_deleted":"0","num_feature":"14","num_nodes":"31","size_leaf_vector":"1"}},{"base_weights":[3.5883297E-4,7.393126E-2,-2.0959904E-2,1.9586213E-1,5.2389123E-2,-4.0691927E-2,6.3623386E-3,4.0333754E-1,1.0814613E-1,1.21766366E-1,3.3354055E-2,-5.852367E-3,-4.85033E-2,6.756381E-2,-9.036435E-3,2.0602138E-3,5.5744937E-3,4.458019E-4,2.0439362E-3,8.537951E-4,2.3230505E-3,-3.472877E-4,4.5110504E-4,1.1149686E-3,-2.969542E-4,-7.587887E-4,-2.9155842E-4,2.6685754E-3,4.766809E-4,7.7247416E-4,-2.0402882E-4],"categories":[],"categories_nodes":[],"categories_segments":[],"categories_sizes":[],"default_left":[0,0,0,0,0,0,0,0,0,0,0,0,0,0,0,0,0,0,0,0,0,0,0,0,0,0,0,0,0,0,0],"id":21,"left_children":[1,3,5,7,9,11,13,15,17,19,21,23,25,27,29,-1,-1,-1,-1,-1,-1,-1,-1,-1,-1,-1,-1,-1,-1,-1,-1],"loss_changes":[1.6474056E0,6.0714614E-1,4.3944836E-1,5.8822775E-1,2.6114875E-1,1.2789708E-1,3.2350603E-1,1.8160617E-1,1.4746794E-1,1.4994174E-1,1.2973645E-1,2.4871375E-1,2.0118135E-1,2.5772554E-1,2.6973063E-1,0E0,0E0,0E0,0E0,0E0,0E0,0E0,0E0,0E0,0E0,0E0,0E0,0E0,0E0,0E0,0E0],"parents":[2147483647,0,0,1,1,2,2,3,3,4,4,5,5,6,6,7,7,8,8,9,9,10,10,11,11,12,12,13,13,14,14],"right_children":[2,4,6,8,10,12,14,16,18,20,22,24,26,28,30,-1,-1,-1,-1,-1,-1,-1,-1,-1,-1,-1,-1,-1,-1,-1,-1],"split_conditions":[2.1666667E-1,5E-2,4.081726E-4,-1.5881446E-1,-4.3064365E-1,-1.3553481E-1,4.1091442E-4,-5.624792E-1,5.441904E-4,5.49078E-4,-3.0850473E-1,1.3709068E-4,1.3756752E-4,2.9166666E-1,-4.7635305E-1,2.0602138E-3,5.5744937E-3,4.458019E-4,2.0439362E-3,8.537951E-4,2.3230505E-3,-3.472877E-4,4.5110504E-4,1.1149686E-3,-2.969542E-4,-7.587887E-4,-2.9155842E-4,2.6685754E-3,4.766809E-4,7.7247416E-4,-2.0402882E-4],"split_indices":[13,13,12,6,6,2,12,8,12,12,4,12,12,13,8,0,0,0,0,0,0,0,0,0,0,0,0,0,0,0,0],"split_type":[0,0,0,0,0,0,0,0,0,0,0,0,0,0,0,0,0,0,0,0,0,0,0,0,0,0,0,0,0,0,0],"sum_hessian":[1.048E3,2.35E2,8.13E2,3.4E1,2.01E2,4.72E2,3.41E2,9E0,2.5E1,4.2E1,1.59E2,8.7E1,3.85E2,6.8E1,2.73E2,5E0,4E0,1.6E1,9E0,3.3E1,9E0,2.3E1,1.36E2,1.4E1,7.3E1,1.58E2,2.27E2,5E0,6.3E1,3.1E1,2.42E2],"tree_param":{"num_deleted":"0","num_feature":"14","num_nodes":"31","size_leaf_vector":"1"}},{"base_weights":[3.7181616E-4,7.325086E-2,-2.0745905E-2,1.9420135E-1,5.1881954E-2,-4.028571E-2,6.309863E-3,4.000776E-1,1.0716427E-1,1.206249E-1,3.3020526E-2,1.1799616E-3,-4.1908573E-2,1.1303084E-1,-2.4316367E-3,2.0430456E-3,5.5298978E-3,4.4160604E-4,2.0255407E-3,2.4734226E-3,8.8837015E-4,-3.4395955E-4,4.466268E-4,-3.559678E-4,-8.8590145E-4,5.325788E-4,1.7749447E-3,-6.59536E-5,1.8147549E-3],"categories":[],"categories_nodes":[],"categories_segments":[],"categories_sizes":[],"default_left":[0,0,0,0,0,0,0,0,0,0,0,0,0,0,0,0,0,0,0,0,0,0,0,0,0,0,0,0,0],"id":22,"left_children":[1,3,5,7,9,11,13,15,17,19,21,-1,23,25,27,-1,-1,-1,-1,-1,-1,-1,-1,-1,-1,-1,-1,-1,-1],"loss_changes":[1.6164969E0,5.9742427E-1,4.3092674E-1,5.79214E-1,2.5639164E-1,1.2568378E-1,3.2043314E-1,1.7880964E-1,1.4484552E-1,1.4787239E-1,1.2721854E-1,0E0,1.3379288E-1,8.842227E-2,2.4218722E-1,0E0,0E0,0E0,0E0,0E0,0E0,0E0,0E0,0E0,0E0,0E0,0E0,0E0,0E0],"parents":[2147483647,0,0,1,1,2,2,3,3,4,4,5,5,6,6,7,7,8,8,9,9,10,10,12,12,13,13,14,14],"right_children":[2,4,6,8,10,12,14,16,18,20,22,-1,24,26,28,-1,-1,-1,-1,-1,-1,-1,-1,-1,-1,-1,-1,-1,-1],"split_conditions":[2.1666667E-1,5E-2,4.081726E-4,-1.5881446E-1,-4.3064365E-1,-6.386853E-1,4.1019917E-4,-5.624792E-1,5.441904E-4,-7.325584E-1,-3.0850473E-1,1.1799616E-3,9.25E-1,4.0972233E-4,6.8867207E-4,2.0430456E-3,5.5298978E-3,4.4160604E-4,2.0255407E-3,2.4734226E-3,8.8837015E-4,-3.4395955E-4,4.466268E-4,-3.559678E-4,-8.8590145E-4,5.325788E-4,1.7749447E-3,-6.59536E-5,1.8147549E-3],"split_indices":[13,13,12,6,6,2,12,8,12,0,4,0,13,12,12,0,0,0,0,0,0,0,0,0,0,0,0,0,0],"split_type":[0,0,0,0,0,0,0,0,0,0,0,0,0,0,0,0,0,0,0,0,0,0,0,0,0,0,0,0,0],"sum_hessian":[1.048E3,2.35E2,8.13E2,3.4E1,2.01E2,4.72E2,3.41E2,9E0,2.5E1,4.2E1,1.59E2,4E0,4.68E2,2.5E1,3.16E2,5E0,4E0,1.6E1,9E0,7E0,3.5E1,2.3E1,1.36E2,4.14E2,5.4E1,1.4E1,1.1E1,3.1E2,6E0],"tree_param":{"num_deleted":"0","num_feature":"14","num_nodes":"29","size_leaf_vector":"1"}},{"base_weights":[3.8534866E-4,7.257769E-2,-2.0533297E-2,1.9255476E-1,5.1380787E-2,-3.988299E-2,6.2589175E-3,3.9684412E-1,1.0619136E-1,1.19499154E-1,3.2690346E-2,-4.503734E-2,1.1168229E-2,1.1199314E-1,-2.4014888E-3,2.0260203E-3,5.485658E-3,4.374497E-4,2.0073107E-3,8.350209E-4,2.2893925E-3,-3.4066336E-4,4.421932E-4,-2.1709243E-4,-6.154738E-4,1.1995845E-3,-2.4597537E-5,5.2760815E-4,1.7586745E-3,-7.097443E-5,1.5798201E-3],"categories":[],"categories_nodes":[],"categories_segments":[],"categories_sizes":[],"default_left":[0,0,0,0,0,0,0,0,0,0,0,0,0,0,0,0,0,0,0,0,0,0,0,0,0,0,0,0,0,0,0],"id":23,"left_children":[1,3,5,7,9,11,13,15,17,19,21,23,25,27,29,-1,-1,-1,-1,-1,-1,-1,-1,-1,-1,-1,-1,-1,-1,-1,-1],"loss_changes":[1.586175E0,5.8784854E-1,4.2258063E-1,5.7033765E-1,2.5175047E-1,1.2530494E-1,3.1453472E-1,1.760552E-1,1.4226955E-1,1.4715815E-1,1.24749705E-1,1.6344494E-1,6.670407E-2,8.680382E-2,2.383621E-1,0E0,0E0,0E0,0E0,0E0,0E0,0E0,0E0,0E0,0E0,0E0,0E0,0E0,0E0,0E0,0E0],"parents":[2147483647,0,0,1,1,2,2,3,3,4,4,5,5,6,6,7,7,8,8,9,9,10,10,11,11,12,12,13,13,14,14],"right_children":[2,4,6,8,10,12,14,16,18,20,22,24,26,28,30,-1,-1,-1,-1,-1,-1,-1,-1,-1,-1,-1,-1,-1,-1,-1,-1],"split_conditions":[2.1666667E-1,5E-2,4.081726E-4,-1.5881446E-1,-4.3064365E-1,1.3768673E-4,4.1019917E-4,-5.624792E-1,5.441904E-4,5.49078E-4,-3.0850473E-1,-7.461722E-2,1.3780594E-4,4.0972233E-4,6.881952E-4,2.0260203E-3,5.485658E-3,4.374497E-4,2.0073107E-3,8.350209E-4,2.2893925E-3,-3.4066336E-4,4.421932E-4,-2.1709243E-4,-6.154738E-4,1.1995845E-3,-2.4597537E-5,5.2760815E-4,1.7586745E-3,-7.097443E-5,1.5798201E-3],"split_indices":[13,13,12,6,6,11,12,8,12,12,4,8,11,12,12,0,0,0,0,0,0,0,0,0,0,0,0,0,0,0,0],"split_type":[0,0,0,0,0,0,0,0,0,0,0,0,0,0,0,0,0,0,0,0,0,0,0,0,0,0,0,0,0,0,0],"sum_hessian":[1.048E3,2.35E2,8.13E2,3.4E1,2.01E2,4.72E2,3.41E2,9E0,2.5E1,4.2E1,1.59E2,4.29E2,4.3E1,2.5E1,3.16E2,5E0,4E0,1.6E1,9E0,3.3E1,9E0,2.3E1,1.36E2,1.79E2,2.5E2,4E0,3.9E1,1.4E1,1.1E1,3.08E2,8E0],"tree_param":{"num_deleted":"0","num_feature":"14","num_nodes":"31","size_leaf_vector":"1"}},{"base_weights":[3.9848365E-4,7.190988E-2,-2.0322757E-2,1.9092226E-1,5.0883435E-2,-3.948365E-2,6.20773E-3,3.9363685E-1,1.0522733E-1,1.18379146E-1,3.236344E-2,1.1391957E-2,-4.462096E-2,6.62421E-2,-8.896573E-3,2.0091368E-3,5.4417728E-3,4.333326E-4,1.9892452E-3,2.4390197E-3,8.691909E-4,-3.373986E-4,4.3780345E-4,1.303806E-3,-1.4372937E-4,-6.961034E-4,-2.732501E-4,2.1487E-3,4.020008E-4,7.652138E-4,-2.014957E-4],"categories":[],"categories_nodes":[],"categories_segments":[],"categories_sizes":[],"default_left":[0,0,0,0,0,0,0,0,0,0,0,0,0,0,0,0,0,0,0,0,0,0,0,0,0,0,0,0,0,0,0],"id":24,"left_children":[1,3,5,7,9,11,13,15,17,19,21,23,25,27,29,-1,-1,-1,-1,-1,-1,-1,-1,-1,-1,-1,-1,-1,-1,-1,-1],"loss_changes":[1.5563905E0,5.784354E-1,4.1437307E-1,5.615965E-1,2.471655E-1,1.24465704E-1,3.1128064E-1,1.7334282E-1,1.3973916E-1,1.4529711E-1,1.2232874E-1,1.3792615E-1,1.8298101E-1,2.5588092E-1,2.6434913E-1,0E0,0E0,0E0,0E0,0E0,0E0,0E0,0E0,0E0,0E0,0E0,0E0,0E0,0E0,0E0,0E0],"parents":[2147483647,0,0,1,1,2,2,3,3,4,4,5,5,6,6,7,7,8,8,9,9,10,10,11,11,12,12,13,13,14,14],"right_children":[2,4,6,8,10,12,14,16,18,20,22,24,26,28,30,-1,-1,-1,-1,-1,-1,-1,-1,-1,-1,-1,-1,-1,-1,-1,-1],"split_conditions":[2.1666667E-1,5E-2,4.081726E-4,-1.5881446E-1,-4.3064365E-1,-2.723199E-1,4.1091442E-4,-5.624792E-1,5.441904E-4,-7.325584E-1,-3.0850473E-1,1.3709068E-4,1.3756752E-4,3.2083333E-1,-4.7635305E-1,2.0091368E-3,5.4417728E-3,4.333326E-4,1.9892452E-3,2.4390197E-3,8.691909E-4,-3.373986E-4,4.3780345E-4,1.303806E-3,-1.4372937E-4,-6.961034E-4,-2.732501E-4,2.1487E-3,4.020008E-4,7.652138E-4,-2.014957E-4],"split_indices":[13,13,12,6,6,2,12,8,12,0,4,12,12,13,8,0,0,0,0,0,0,0,0,0,0,0,0,0,0,0,0],"split_type":[0,0,0,0,0,0,0,0,0,0,0,0,0,0,0,0,0,0,0,0,0,0,0,0,0,0,0,0,0,0,0],"sum_hessian":[1.048E3,2.35E2,8.13E2,3.4E1,2.01E2,4.72E2,3.41E2,9E0,2.5E1,4.2E1,1.59E2,4.3E1,4.29E2,6.8E1,2.73E2,5E0,4E0,1.6E1,9E0,7E0,3.5E1,2.3E1,1.36E2,7E0,3.6E1,1.74E2,2.55E2,9E0,5.9E1,3.1E1,2.42E2],"tree_param":{"num_deleted":"0","num_feature":"14","num_nodes":"31","size_leaf_vector":"1"}},{"base_weights":[4.1078925E-4,7.124919E-2,-2.0115346E-2,6.0542148E-2,3.061741E-1,-3.908862E-2,6.1550513E-3,1.2090944E-1,3.8562506E-2,1.2998488E-3,4.5436635E-3,-4.973643E-3,-4.6738956E-2,1.1057845E-1,-2.3975146E-3,3.8616257E-3,9.488845E-4,1.2164594E-3,1.8045476E-4,1.106886E-3,-2.8486614E-4,-7.355905E-4,-2.7786614E-4,5.189317E-4,1.7388683E-3,-7.82528E-5,1.3537699E-3],"categories":[],"categories_nodes":[],"categories_segments":[],"categories_sizes":[],"default_left":[0,0,0,0,0,0,0,0,0,0,0,0,0,0,0,0,0,0,0,0,0,0,0,0,0,0,0],"id":25,"left_children":[1,3,5,7,9,11,13,15,17,-1,-1,19,21,23,25,-1,-1,-1,-1,-1,-1,-1,-1,-1,-1,-1,-1],"loss_changes":[1.5272309E0,5.7141924E-1,4.062964E-1,2.9493797E-1,1.9619447E-1,1.2269926E-1,3.06783E-1,3.7267607E-1,2.8278494E-1,0E0,0E0,2.4165267E-1,1.9314778E-1,8.5315704E-2,2.368389E-1,0E0,0E0,0E0,0E0,0E0,0E0,0E0,0E0,0E0,0E0,0E0,0E0],"parents":[2147483647,0,0,1,1,2,2,3,3,4,4,5,5,6,6,7,7,8,8,11,11,12,12,13,13,14,14],"right_children":[2,4,6,8,10,12,14,16,18,-1,-1,20,22,24,26,-1,-1,-1,-1,-1,-1,-1,-1,-1,-1,-1,-1],"split_conditions":[2.1666667E-1,8.227825E-4,4.081726E-4,7.5E-2,4.1007996E-4,-1.3553481E-1,4.1019917E-4,-4.0960312E-4,-4.5118228E-1,1.2998488E-3,4.5436635E-3,1.3709068E-4,1.3756752E-4,4.0972233E-4,2.1027348E1,3.8616257E-3,9.488845E-4,1.2164594E-3,1.8045476E-4,1.106886E-3,-2.8486614E-4,-7.355905E-4,-2.7786614E-4,5.189317E-4,1.7388683E-3,-7.82528E-5,1.3537699E-3],"split_indices":[13,12,12,13,11,2,12,11,6,0,0,12,12,12,10,0,0,0,0,0,0,0,0,0,0,0,0],"split_type":[0,0,0,0,0,0,0,0,0,0,0,0,0,0,0,0,0,0,0,0,0,0,0,0,0,0,0],"sum_hessian":[1.048E3,2.35E2,8.13E2,2.26E2,9E0,4.72E2,3.41E2,5.9E1,1.67E2,5E0,4E0,8.7E1,3.85E2,2.5E1,3.16E2,4E0,5.5E1,3.2E1,1.35E2,1.4E1,7.3E1,1.58E2,2.27E2,1.4E1,1.1E1,3.05E2,1.1E1],"tree_param":{"num_deleted":"0","num_feature":"14","num_nodes":"27","size_leaf_vector":"1"}},{"base_weights":[4.218363E-4,7.058988E-2,-1.9909957E-2,5.9965394E-2,3.037067E-1,-3.869835E-2,6.1041317E-3,1.19782194E-1,3.818579E-2,1.2890167E-3,4.507314E-3,-1.8961234E-2,-5.1963694E-2,6.522211E-2,-8.769022E-3,3.830733E-3,9.395652E-4,1.2046633E-3,1.786635E-4,-2.4785686E-4,1.0111219E-3,-5.996049E-4,1.6874794E-4,2.6302245E-3,4.5502975E-4,7.585591E-4,-1.9918112E-4],"categories":[],"categories_nodes":[],"categories_segments":[],"categories_sizes":[],"default_left":[0,0,0,0,0,0,0,0,0,0,0,0,0,0,0,0,0,0,0,0,0,0,0,0,0,0,0],"id":26,"left_children":[1,3,5,7,9,11,13,15,17,-1,-1,19,21,23,25,-1,-1,-1,-1,-1,-1,-1,-1,-1,-1,-1,-1],"loss_changes":[1.4984599E0,5.6266356E-1,3.9841506E-1,2.8957886E-1,1.9311023E-1,1.2214619E-1,3.0184704E-1,3.672176E-1,2.7734268E-1,0E0,0E0,1.3602039E-1,1.5668029E-1,2.5407752E-1,2.5946805E-1,0E0,0E0,0E0,0E0,0E0,0E0,0E0,0E0,0E0,0E0,0E0,0E0],"parents":[2147483647,0,0,1,1,2,2,3,3,4,4,5,5,6,6,7,7,8,8,11,11,12,12,13,13,14,14],"right_children":[2,4,6,8,10,12,14,16,18,-1,-1,20,22,24,26,-1,-1,-1,-1,-1,-1,-1,-1,-1,-1,-1,-1],"split_conditions":[2.1666667E-1,8.227825E-4,4.081726E-4,7.5E-2,4.1007996E-4,-7.782442E-2,4.1091442E-4,-4.0960312E-4,-4.5118228E-1,1.2890167E-3,4.507314E-3,6.1762303E-1,1.3768673E-4,2.9166666E-1,-4.7635305E-1,3.830733E-3,9.395652E-4,1.2046633E-3,1.786635E-4,-2.4785686E-4,1.0111219E-3,-5.996049E-4,1.6874794E-4,2.6302245E-3,4.5502975E-4,7.585591E-4,-1.9918112E-4],"split_indices":[13,12,12,13,11,8,12,11,6,0,0,6,11,13,8,0,0,0,0,0,0,0,0,0,0,0,0],"split_type":[0,0,0,0,0,0,0,0,0,0,0,0,0,0,0,0,0,0,0,0,0,0,0,0,0,0,0],"sum_hessian":[1.048E3,2.35E2,8.13E2,2.26E2,9E0,4.72E2,3.41E2,5.9E1,1.67E2,5E0,4E0,1.91E2,2.81E2,6.8E1,2.73E2,4E0,5.5E1,3.2E1,1.35E2,1.83E2,8E0,2.52E2,2.9E1,5E0,6.3E1,3.1E1,2.42E2],"tree_param":{"num_deleted":"0","num_feature":"14","num_nodes":"27","size_leaf_vector":"1"}},{"base_weights":[4.3346372E-4,6.993673E-2,-1.9705608E-2,1.8652242E-1,4.9340513E-2,-3.8310453E-2,6.0540326E-3,3.8629854E-1,1.02126904E-1,1.1480325E-1,3.1376526E-2,1.1667957E-3,-3.9902434E-2,1.0912583E-1,-2.3873579E-3,1.9669838E-3,5.3455904E-3,4.1148058E-4,1.9457825E-3,7.9497346E-4,2.22363E-3,-3.3888128E-4,4.2653715E-4,-3.36841E-4,-8.5915276E-4,5.098416E-4,1.7187576E-3,-6.4877895E-5,1.7870144E-3],"categories":[],"categories_nodes":[],"categories_segments":[],"categories_sizes":[],"default_left":[0,0,0,0,0,0,0,0,0,0,0,0,0,0,0,0,0,0,0,0,0,0,0,0,0,0,0,0,0],"id":27,"left_children":[1,3,5,7,9,11,13,15,17,19,21,-1,23,25,27,-1,-1,-1,-1,-1,-1,-1,-1,-1,-1,-1,-1,-1,-1],"loss_changes":[1.4701986E0,5.5512714E-1,3.9066735E-1,5.457717E-1,2.3248237E-1,1.2059671E-1,2.988916E-1,1.6864276E-1,1.3621321E-1,1.4259642E-1,1.1929344E-1,0E0,1.3010174E-1,8.386648E-2,2.3482314E-1,0E0,0E0,0E0,0E0,0E0,0E0,0E0,0E0,0E0,0E0,0E0,0E0,0E0,0E0],"parents":[2147483647,0,0,1,1,2,2,3,3,4,4,5,5,6,6,7,7,8,8,9,9,10,10,12,12,13,13,14,14],"right_children":[2,4,6,8,10,12,14,16,18,20,22,-1,24,26,28,-1,-1,-1,-1,-1,-1,-1,-1,-1,-1,-1,-1,-1,-1],"split_conditions":[2.1666667E-1,5E-2,4.081726E-4,-1.5881446E-1,-4.3064365E-1,-6.386853E-1,4.1019917E-4,-5.624792E-1,5.441904E-4,5.49078E-4,-3.0850473E-1,1.1667957E-3,9.25E-1,4.0972233E-4,6.8867207E-4,1.9669838E-3,5.3455904E-3,4.1148058E-4,1.9457825E-3,7.9497346E-4,2.22363E-3,-3.3888128E-4,4.2653715E-4,-3.36841E-4,-8.5915276E-4,5.098416E-4,1.7187576E-3,-6.4877895E-5,1.7870144E-3],"split_indices":[13,13,12,6,6,2,12,8,12,12,4,0,13,12,12,0,0,0,0,0,0,0,0,0,0,0,0,0,0],"split_type":[0,0,0,0,0,0,0,0,0,0,0,0,0,0,0,0,0,0,0,0,0,0,0,0,0,0,0,0,0],"sum_hessian":[1.048E3,2.35E2,8.13E2,3.4E1,2.01E2,4.72E2,3.41E2,9E0,2.5E1,4.2E1,1.59E2,4E0,4.68E2,2.5E1,3.16E2,5E0,4E0,1.6E1,9E0,3.3E1,9E0,2.3E1,1.36E2,4.14E2,5.4E1,1.4E1,1.1E1,3.1E2,6E0],"tree_param":{"num_deleted":"0","num_feature":"14","num_nodes":"29","size_leaf_vector":"1"}},{"base_weights":[4.4562513E-4,6.929362E-2,-1.9503482E-2,5.8792133E-2,2.9974803E-1,-3.79274E-2,6.0053384E-3,1.1763497E-1,3.736736E-2,1.2696563E-3,4.4513727E-3,-1.8385112E-2,-5.106283E-2,1.0812414E-1,-2.3577344E-3,3.7703232E-3,9.2195295E-4,1.1831082E-3,1.7378374E-4,-1.05103114E-4,-1.0994042E-3,-5.89777E-4,1.7054714E-4,5.050832E-4,1.7030023E-3,-7.738484E-5,1.3421451E-3],"categories":[],"categories_nodes":[],"categories_segments":[],"categories_sizes":[],"default_left":[0,0,0,0,0,0,0,0,0,0,0,0,0,0,0,0,0,0,0,0,0,0,0,0,0,0,0],"id":28,"left_children":[1,3,5,7,9,11,13,15,17,-1,-1,19,21,23,25,-1,-1,-1,-1,-1,-1,-1,-1,-1,-1,-1,-1],"loss_changes":[1.4426047E0,5.499387E-1,3.831045E-1,2.802319E-1,1.8896896E-1,1.1978406E-1,2.933898E-1,3.5648614E-1,2.6840726E-1,0E0,0E0,1.360681E-1,1.5346307E-1,8.233085E-2,2.3272482E-1,0E0,0E0,0E0,0E0,0E0,0E0,0E0,0E0,0E0,0E0,0E0,0E0],"parents":[2147483647,0,0,1,1,2,2,3,3,4,4,5,5,6,6,7,7,8,8,11,11,12,12,13,13,14,14],"right_children":[2,4,6,8,10,12,14,16,18,-1,-1,20,22,24,26,-1,-1,-1,-1,-1,-1,-1,-1,-1,-1,-1,-1],"split_conditions":[2.1666667E-1,8.227825E-4,4.081726E-4,7.5E-2,4.1007996E-4,-7.782442E-2,4.1019917E-4,-4.0960312E-4,-4.5118228E-1,1.2696563E-3,4.4513727E-3,5.084554E-1,1.3768673E-4,4.0972233E-4,2.1027348E1,3.7703232E-3,9.2195295E-4,1.1831082E-3,1.7378374E-4,-1.05103114E-4,-1.0994042E-3,-5.89777E-4,1.7054714E-4,5.050832E-4,1.7030023E-3,-7.738484E-5,1.3421451E-3],"split_indices":[13,12,12,13,11,8,12,11,6,0,0,4,11,12,10,0,0,0,0,0,0,0,0,0,0,0,0],"split_type":[0,0,0,0,0,0,0,0,0,0,0,0,0,0,0,0,0,0,0,0,0,0,0,0,0,0,0],"sum_hessian":[1.048E3,2.35E2,8.13E2,2.26E2,9E0,4.72E2,3.41E2,5.9E1,1.67E2,5E0,4E0,1.91E2,2.81E2,2.5E1,3.16E2,4E0,5.5E1,3.2E1,1.35E2,1.77E2,1.4E1,2.52E2,2.9E1,1.4E1,1.1E1,3.05E2,1.1E1],"tree_param":{"num_deleted":"0","num_feature":"14","num_nodes":"27","size_leaf_vector":"1"}},{"base_weights":[4.5463594E-4,6.8652675E-2,-1.9306043E-2,5.823218E-2,2.9733264E-1,-3.755176E-2,5.9557427E-3,1.1653848E-1,3.700236E-2,1.2590758E-3,4.415762E-3,-1.7049666E-2,-5.0054584E-2,6.3891575E-2,-8.619178E-3,3.7401607E-3,9.128979E-4,1.1716355E-3,1.7205875E-4,2.3455356E-4,-3.5938714E-4,-7.2720833E-4,-3.3399594E-4,2.6094916E-3,4.426287E-4,7.520101E-4,-1.9662909E-4],"categories":[],"categories_nodes":[],"categories_segments":[],"categories_sizes":[],"default_left":[0,0,0,0,0,0,0,0,0,0,0,0,0,0,0,0,0,0,0,0,0,0,0,0,0,0,0],"id":29,"left_children":[1,3,5,7,9,11,13,15,17,-1,-1,19,21,23,25,-1,-1,-1,-1,-1,-1,-1,-1,-1,-1,-1,-1],"loss_changes":[1.4154927E0,5.415082E-1,3.7572804E-1,2.7514035E-1,1.8599701E-1,1.1972153E-1,2.898917E-1,3.5126132E-1,2.6324123E-1,0E0,0E0,1.3945112E-1,1.0711926E-1,2.522885E-1,2.5456172E-1,0E0,0E0,0E0,0E0,0E0,0E0,0E0,0E0,0E0,0E0,0E0,0E0],"parents":[2147483647,0,0,1,1,2,2,3,3,4,4,5,5,6,6,7,7,8,8,11,11,12,12,13,13,14,14],"right_children":[2,4,6,8,10,12,14,16,18,-1,-1,20,22,24,26,-1,-1,-1,-1,-1,-1,-1,-1,-1,-1,-1,-1],"split_conditions":[2.1666667E-1,8.227825E-4,4.081726E-4,7.5E-2,4.1007996E-4,-7.624001E-2,4.1091442E-4,-4.0960312E-4,-4.5118228E-1,1.2590758E-3,4.415762E-3,-1.7663258E-1,1.3756752E-4,2.9166666E-1,-4.7635305E-1,3.7401607E-3,9.128979E-4,1.1716355E-3,1.7205875E-4,2.3455356E-4,-3.5938714E-4,-7.2720833E-4,-3.3399594E-4,2.6094916E-3,4.426287E-4,7.520101E-4,-1.9662909E-4],"split_indices":[13,12,12,13,11,10,12,11,6,0,0,8,12,13,8,0,0,0,0,0,0,0,0,0,0,0,0],"split_type":[0,0,0,0,0,0,0,0,0,0,0,0,0,0,0,0,0,0,0,0,0,0,0,0,0,0,0],"sum_hessian":[1.048E3,2.35E2,8.13E2,2.26E2,9E0,4.72E2,3.41E2,5.9E1,1.67E2,5E0,4E0,1.8E2,2.92E2,6.8E1,2.73E2,4E0,5.5E1,3.2E1,1.35E2,5.7E1,1.23E2,1.22E2,1.7E2,5E0,6.3E1,3.1E1,2.42E2],"tree_param":{"num_deleted":"0","num_feature":"14","num_nodes":"27","size_leaf_vector":"1"}},{"base_weights":[4.6400347E-4,6.801773E-2,-1.9109882E-2,5.76776E-2,2.949368E-1,-3.717896E-2,5.9070317E-3,1.15452304E-1,3.6640935E-2,1.2485833E-3,4.3804357E-3,1.2586907E-2,-4.2208076E-2,1.0670607E-1,-2.3474854E-3,3.7102394E-3,9.039319E-4,1.160274E-3,1.703509E-4,1.2902652E-3,-1.2659145E-4,-6.651444E-4,-2.538846E-4,4.9623783E-4,1.6833341E-3,-6.977057E-5,1.5575085E-3],"categories":[],"categories_nodes":[],"categories_segments":[],"categories_sizes":[],"default_left":[0,0,0,0,0,0,0,0,0,0,0,0,0,0,0,0,0,0,0,0,0,0,0,0,0,0,0],"id":30,"left_children":[1,3,5,7,9,11,13,15,17,-1,-1,19,21,23,25,-1,-1,-1,-1,-1,-1,-1,-1,-1,-1,-1,-1],"loss_changes":[1.3888699E0,5.332062E-1,3.6848685E-1,2.7014178E-1,1.8307143E-1,1.1920911E-1,2.8585428E-1,3.4611177E-1,2.5817454E-1,0E0,0E0,1.3214123E-1,1.7318642E-1,8.093068E-2,2.3161998E-1,0E0,0E0,0E0,0E0,0E0,0E0,0E0,0E0,0E0,0E0,0E0,0E0],"parents":[2147483647,0,0,1,1,2,2,3,3,4,4,5,5,6,6,7,7,8,8,11,11,12,12,13,13,14,14],"right_children":[2,4,6,8,10,12,14,16,18,-1,-1,20,22,24,26,-1,-1,-1,-1,-1,-1,-1,-1,-1,-1,-1,-1],"split_conditions":[2.1666667E-1,8.227825E-4,4.081726E-4,7.5E-2,4.1007996E-4,-2.723199E-1,4.1019917E-4,-4.0960312E-4,-4.5118228E-1,1.2485833E-3,4.3804357E-3,1.3709068E-4,1.3756752E-4,4.0972233E-4,6.881952E-4,3.7102394E-3,9.039319E-4,1.160274E-3,1.703509E-4,1.2902652E-3,-1.2659145E-4,-6.651444E-4,-2.538846E-4,4.9623783E-4,1.6833341E-3,-6.977057E-5,1.5575085E-3],"split_indices":[13,12,12,13,11,2,12,11,6,0,0,12,12,12,12,0,0,0,0,0,0,0,0,0,0,0,0],"split_type":[0,0,0,0,0,0,0,0,0,0,0,0,0,0,0,0,0,0,0,0,0,0,0,0,0,0,0],"sum_hessian":[1.048E3,2.35E2,8.13E2,2.26E2,9E0,4.72E2,3.41E2,5.9E1,1.67E2,5E0,4E0,4.3E1,4.29E2,2.5E1,3.16E2,4E0,5.5E1,3.2E1,1.35E2,7E0,3.6E1,1.74E2,2.55E2,1.4E1,1.1E1,3.08E2,8E0],"tree_param":{"num_deleted":"0","num_feature":"14","num_nodes":"27","size_leaf_vector":"1"}},{"base_weights":[4.7460495E-4,6.738871E-2,-1.8913852E-2,1.8089464E-1,4.733873E-2,-3.680686E-2,5.858975E-3,3.7711647E-1,9.80826E-2,1.101367E-1,3.0103408E-2,1.1599979E-3,-3.837877E-2,6.2972784E-2,-8.508586E-3,1.9136323E-3,5.22597E-3,3.8183085E-4,1.8910352E-3,2.3346066E-3,7.939424E-4,-3.4243253E-4,4.1229077E-4,-3.1979254E-4,-8.2138454E-4,2.0993338E-3,3.7263136E-4,7.448924E-4,-1.9444479E-4],"categories":[],"categories_nodes":[],"categories_segments":[],"categories_sizes":[],"default_left":[0,0,0,0,0,0,0,0,0,0,0,0,0,0,0,0,0,0,0,0,0,0,0,0,0,0,0,0,0],"id":31,"left_children":[1,3,5,7,9,11,13,15,17,19,21,-1,23,25,27,-1,-1,-1,-1,-1,-1,-1,-1,-1,-1,-1,-1,-1,-1],"loss_changes":[1.3626912E0,5.262412E-1,3.6133906E-1,5.2699304E-1,2.1391544E-1,1.172896E-1,2.817209E-1,1.630894E-1,1.3226146E-1,1.4136112E-1,1.1602561E-1,0E0,1.2757117E-1,2.504083E-1,2.4959555E-1,0E0,0E0,0E0,0E0,0E0,0E0,0E0,0E0,0E0,0E0,0E0,0E0,0E0,0E0],"parents":[2147483647,0,0,1,1,2,2,3,3,4,4,5,5,6,6,7,7,8,8,9,9,10,10,12,12,13,13,14,14],"right_children":[2,4,6,8,10,12,14,16,18,20,22,-1,24,26,28,-1,-1,-1,-1,-1,-1,-1,-1,-1,-1,-1,-1,-1,-1],"split_conditions":[2.1666667E-1,5E-2,4.081726E-4,-1.5881446E-1,-4.3064365E-1,-6.386853E-1,4.1091442E-4,-5.624792E-1,5.441904E-4,-7.325584E-1,-3.0850473E-1,1.1599979E-3,4.9568316E-1,3.2083333E-1,-4.7635305E-1,1.9136323E-3,5.22597E-3,3.8183085E-4,1.8910352E-3,2.3346066E-3,7.939424E-4,-3.4243253E-4,4.1229077E-4,-3.1979254E-4,-8.2138454E-4,2.0993338E-3,3.7263136E-4,7.448924E-4,-1.9444479E-4],"split_indices":[13,13,12,6,6,2,12,8,12,0,4,0,4,13,8,0,0,0,0,0,0,0,0,0,0,0,0,0,0],"split_type":[0,0,0,0,0,0,0,0,0,0,0,0,0,0,0,0,0,0,0,0,0,0,0,0,0,0,0,0,0],"sum_hessian":[1.048E3,2.35E2,8.13E2,3.4E1,2.01E2,4.72E2,3.41E2,9E0,2.5E1,4.2E1,1.59E2,4E0,4.68E2,6.8E1,2.73E2,5E0,4E0,1.6E1,9E0,7E0,3.5E1,2.3E1,1.36E2,4.1E2,5.8E1,9E0,5.9E1,3.1E1,2.42E2],"tree_param":{"num_deleted":"0","num_feature":"14","num_nodes":"29","size_leaf_vector":"1"}},{"base_weights":[4.85345E-4,6.677038E-2,-1.872074E-2,5.6551058E-2,2.9107204E-1,-3.6438763E-2,5.809508E-3,1.1342034E-1,3.584446E-2,1.2298134E-3,4.3256646E-3,-1.6171852E-2,-4.8800103E-2,1.05368406E-1,-2.3429866E-3,3.6542385E-3,8.871609E-4,1.1389899E-3,1.6567665E-4,2.3906192E-4,-3.4868257E-4,-6.2953844E-4,-2.276337E-4,4.8812854E-4,1.664488E-3,-7.674056E-5,1.3296118E-3],"categories":[],"categories_nodes":[],"categories_segments":[],"categories_sizes":[],"default_left":[0,0,0,0,0,0,0,0,0,0,0,0,0,0,0,0,0,0,0,0,0,0,0,0,0,0,0],"id":32,"left_children":[1,3,5,7,9,11,13,15,17,-1,-1,19,21,23,25,-1,-1,-1,-1,-1,-1,-1,-1,-1,-1,-1,-1],"loss_changes":[1.3371874E0,5.210253E-1,3.5430473E-1,2.6175004E-1,1.7908591E-1,1.17059946E-1,2.7886257E-1,3.3657306E-1,2.4958804E-1,0E0,0E0,1.3656929E-1,1.0568529E-1,7.95379E-2,2.2842461E-1,0E0,0E0,0E0,0E0,0E0,0E0,0E0,0E0,0E0,0E0,0E0,0E0],"parents":[2147483647,0,0,1,1,2,2,3,3,4,4,5,5,6,6,7,7,8,8,11,11,12,12,13,13,14,14],"right_children":[2,4,6,8,10,12,14,16,18,-1,-1,20,22,24,26,-1,-1,-1,-1,-1,-1,-1,-1,-1,-1,-1,-1],"split_conditions":[2.1666667E-1,8.227825E-4,4.081726E-4,7.5E-2,4.1007996E-4,-7.624001E-2,4.1019917E-4,-4.0960312E-4,-4.5118228E-1,1.2298134E-3,4.3256646E-3,-1.7663258E-1,7.031003E-1,4.0972233E-4,2.1027348E1,3.6542385E-3,8.871609E-4,1.1389899E-3,1.6567665E-4,2.3906192E-4,-3.4868257E-4,-6.2953844E-4,-2.276337E-4,4.8812854E-4,1.664488E-3,-7.674056E-5,1.3296118E-3],"split_indices":[13,12,12,13,11,10,12,11,6,0,0,8,0,12,10,0,0,0,0,0,0,0,0,0,0,0,0],"split_type":[0,0,0,0,0,0,0,0,0,0,0,0,0,0,0,0,0,0,0,0,0,0,0,0,0,0,0],"sum_hessian":[1.048E3,2.35E2,8.13E2,2.26E2,9E0,4.72E2,3.41E2,5.9E1,1.67E2,5E0,4E0,1.8E2,2.92E2,2.5E1,3.16E2,4E0,5.5E1,3.2E1,1.35E2,5.7E1,1.23E2,1.88E2,1.04E2,1.4E1,1.1E1,3.05E2,1.1E1],"tree_param":{"num_deleted":"0","num_feature":"14","num_nodes":"27","size_leaf_vector":"1"}},{"base_weights":[4.9416383E-4,6.615312E-2,-1.8530414E-2,5.6012627E-2,2.8872687E-1,-3.607663E-2,5.7616634E-3,1.123635E-1,3.5494383E-2,1.2195649E-3,4.291059E-3,-4.10628E-2,1.3244484E-2,1.0440136E-1,-2.315288E-3,3.6250048E-3,8.784478E-4,1.1279453E-3,1.6403213E-4,-1.8641309E-4,-5.693851E-4,1.2069555E-3,-2.6801204E-6,4.8357263E-4,1.6492303E-3,-6.907683E-5,1.5450309E-3],"categories":[],"categories_nodes":[],"categories_segments":[],"categories_sizes":[],"default_left":[0,0,0,0,0,0,0,0,0,0,0,0,0,0,0,0,0,0,0,0,0,0,0,0,0,0,0],"id":33,"left_children":[1,3,5,7,9,11,13,15,17,-1,-1,19,21,23,25,-1,-1,-1,-1,-1,-1,-1,-1,-1,-1,-1,-1],"loss_changes":[1.3120434E0,5.130336E-1,3.474655E-1,2.5699538E-1,1.7626774E-1,1.1714387E-1,2.7373672E-1,3.3163518E-1,2.4478386E-1,0E0,0E0,1.512444E-1,6.512164E-2,7.808092E-2,2.2788581E-1,0E0,0E0,0E0,0E0,0E0,0E0,0E0,0E0,0E0,0E0,0E0,0E0],"parents":[2147483647,0,0,1,1,2,2,3,3,4,4,5,5,6,6,7,7,8,8,11,11,12,12,13,13,14,14],"right_children":[2,4,6,8,10,12,14,16,18,-1,-1,20,22,24,26,-1,-1,-1,-1,-1,-1,-1,-1,-1,-1,-1,-1],"split_conditions":[2.1666667E-1,8.227825E-4,4.081726E-4,7.5E-2,4.1007996E-4,1.3768673E-4,4.1019917E-4,-4.0960312E-4,-4.5118228E-1,1.2195649E-3,4.291059E-3,-7.461722E-2,1.3780594E-4,4.0972233E-4,6.881952E-4,3.6250048E-3,8.784478E-4,1.1279453E-3,1.6403213E-4,-1.8641309E-4,-5.693851E-4,1.2069555E-3,-2.6801204E-6,4.8357263E-4,1.6492303E-3,-6.907683E-5,1.5450309E-3],"split_indices":[13,12,12,13,11,11,12,11,6,0,0,8,11,12,12,0,0,0,0,0,0,0,0,0,0,0,0],"split_type":[0,0,0,0,0,0,0,0,0,0,0,0,0,0,0,0,0,0,0,0,0,0,0,0,0,0,0],"sum_hessian":[1.048E3,2.35E2,8.13E2,2.26E2,9E0,4.72E2,3.41E2,5.9E1,1.67E2,5E0,4E0,4.29E2,4.3E1,2.5E1,3.16E2,4E0,5.5E1,3.2E1,1.35E2,1.79E2,2.5E2,4E0,3.9E1,1.4E1,1.1E1,3.08E2,8E0],"tree_param":{"num_deleted":"0","num_feature":"14","num_nodes":"27","size_leaf_vector":"1"}},{"base_weights":[5.0434243E-4,6.55416E-2,-1.8340005E-2,5.5479348E-2,2.8640065E-1,-3.5715133E-2,5.714895E-3,1.11316584E-1,3.5147723E-2,1.2094019E-3,4.2567304E-3,1.3446271E-2,-4.06858E-2,5.5496104E-2,-1.0160318E-2,3.5960048E-3,8.698201E-4,1.1170075E-3,1.6240386E-4,1.2854888E-3,-1.15339244E-4,-6.4711866E-4,-2.4063735E-4,3.5415424E-4,1.7052216E-3,-5.2427076E-4,1.6093322E-4],"categories":[],"categories_nodes":[],"categories_segments":[],"categories_sizes":[],"default_left":[0,0,0,0,0,0,0,0,0,0,0,0,0,0,0,0,0,0,0,0,0,0,0,0,0,0,0],"id":34,"left_children":[1,3,5,7,9,11,13,15,17,-1,-1,19,21,23,25,-1,-1,-1,-1,-1,-1,-1,-1,-1,-1,-1,-1],"loss_changes":[1.2873125E0,5.05164E-1,3.4072113E-1,2.5232726E-1,1.734938E-1,1.16404116E-1,2.7129546E-1,3.2676846E-1,2.4007201E-1,0E0,0E0,1.2916543E-1,1.69281E-1,1.8361503E-1,2.8971767E-1,0E0,0E0,0E0,0E0,0E0,0E0,0E0,0E0,0E0,0E0,0E0,0E0],"parents":[2147483647,0,0,1,1,2,2,3,3,4,4,5,5,6,6,7,7,8,8,11,11,12,12,13,13,14,14],"right_children":[2,4,6,8,10,12,14,16,18,-1,-1,20,22,24,26,-1,-1,-1,-1,-1,-1,-1,-1,-1,-1,-1,-1],"split_conditions":[2.1666667E-1,8.227825E-4,4.081726E-4,7.5E-2,4.1007996E-4,-2.723199E-1,4.1103363E-4,-4.0960312E-4,-4.5118228E-1,1.2094019E-3,4.2567304E-3,1.3709068E-4,1.3756752E-4,3.9131588E-1,4.118681E-4,3.5960048E-3,8.698201E-4,1.1170075E-3,1.6240386E-4,1.2854888E-3,-1.15339244E-4,-6.4711866E-4,-2.4063735E-4,3.5415424E-4,1.7052216E-3,-5.2427076E-4,1.6093322E-4],"split_indices":[13,12,12,13,11,2,12,11,6,0,0,12,12,6,12,0,0,0,0,0,0,0,0,0,0,0,0],"split_type":[0,0,0,0,0,0,0,0,0,0,0,0,0,0,0,0,0,0,0,0,0,0,0,0,0,0,0],"sum_hessian":[1.048E3,2.35E2,8.13E2,2.26E2,9E0,4.72E2,3.41E2,5.9E1,1.67E2,5E0,4E0,4.3E1,4.29E2,8.2E1,2.59E2,4E0,5.5E1,3.2E1,1.35E2,7E0,3.6E1,1.74E2,2.55E2,7.1E1,1.1E1,9.9E1,1.6E2],"tree_param":{"num_deleted":"0","num_feature":"14","num_nodes":"27","size_leaf_vector":"1"}},{"base_weights":[5.1235093E-4,6.493582E-2,-1.8154051E-2,1.7545329E-1,4.5415785E-2,-3.5357602E-2,5.6630042E-3,3.682016E-1,9.418649E-2,1.0564921E-1,2.8881704E-2,-1.52918575E-2,-4.759836E-2,1.029468E-1,-2.302427E-3,1.8619905E-3,5.109644E-3,3.5343322E-4,1.8380121E-3,2.273643E-3,7.5388927E-4,-3.4565295E-4,3.9858682E-4,2.4183317E-4,-3.3713377E-4,-6.1619515E-4,-2.1811714E-4,4.739525E-4,1.62974E-3,-6.308231E-5,1.7457006E-3],"categories":[],"categories_nodes":[],"categories_segments":[],"categories_sizes":[],"default_left":[0,0,0,0,0,0,0,0,0,0,0,0,0,0,0,0,0,0,0,0,0,0,0,0,0,0,0,0,0,0,0],"id":35,"left_children":[1,3,5,7,9,11,13,15,17,19,21,23,25,27,29,-1,-1,-1,-1,-1,-1,-1,-1,-1,-1,-1,-1,-1,-1,-1,-1],"loss_changes":[1.2631261E0,4.9894696E-1,3.340238E-1,5.0893784E-1,1.9677606E-1,1.14821434E-1,2.662618E-1,1.5771914E-1,1.28416E-1,1.3820636E-1,1.1286369E-1,1.3253248E-1,1.03758276E-1,7.687184E-2,2.2401834E-1,0E0,0E0,0E0,0E0,0E0,0E0,0E0,0E0,0E0,0E0,0E0,0E0,0E0,0E0,0E0,0E0],"parents":[2147483647,0,0,1,1,2,2,3,3,4,4,5,5,6,6,7,7,8,8,9,9,10,10,11,11,12,12,13,13,14,14],"right_children":[2,4,6,8,10,12,14,16,18,20,22,24,26,28,30,-1,-1,-1,-1,-1,-1,-1,-1,-1,-1,-1,-1,-1,-1,-1,-1],"split_conditions":[2.1666667E-1,5E-2,4.081726E-4,-1.5881446E-1,-4.3064365E-1,-7.624001E-2,4.1019917E-4,-5.624792E-1,5.441904E-4,-7.325584E-1,-3.0850473E-1,-1.7663258E-1,7.031003E-1,4.0972233E-4,6.8867207E-4,1.8619905E-3,5.109644E-3,3.5343322E-4,1.8380121E-3,2.273643E-3,7.5388927E-4,-3.4565295E-4,3.9858682E-4,2.4183317E-4,-3.3713377E-4,-6.1619515E-4,-2.1811714E-4,4.739525E-4,1.62974E-3,-6.308231E-5,1.7457006E-3],"split_indices":[13,13,12,6,6,10,12,8,12,0,4,8,0,12,12,0,0,0,0,0,0,0,0,0,0,0,0,0,0,0,0],"split_type":[0,0,0,0,0,0,0,0,0,0,0,0,0,0,0,0,0,0,0,0,0,0,0,0,0,0,0,0,0,0,0],"sum_hessian":[1.048E3,2.35E2,8.13E2,3.4E1,2.01E2,4.72E2,3.41E2,9E0,2.5E1,4.2E1,1.59E2,1.8E2,2.92E2,2.5E1,3.16E2,5E0,4E0,1.6E1,9E0,7E0,3.5E1,2.3E1,1.36E2,5.7E1,1.23E2,1.88E2,1.04E2,1.4E1,1.1E1,3.1E2,6E0],"tree_param":{"num_deleted":"0","num_feature":"14","num_nodes":"31","size_leaf_vector":"1"}},{"base_weights":[5.221018E-4,6.4340465E-2,-1.7968876E-2,5.4396078E-2,2.826441E-1,-3.5006203E-2,5.617746E-3,1.0935621E-1,3.4384146E-2,1.1912038E-3,4.2034374E-3,-3.994273E-2,1.3805449E-2,5.4714564E-2,-1.0038614E-2,3.5415664E-3,8.5367664E-4,1.0965627E-3,1.5793234E-4,-1.7841191E-4,-5.559346E-4,1.2023115E-3,-0E0,3.4803795E-4,1.687863E-3,9.125631E-4,-2.0768846E-4],"categories":[],"categories_nodes":[],"categories_segments":[],"categories_sizes":[],"default_left":[0,0,0,0,0,0,0,0,0,0,0,0,0,0,0,0,0,0,0,0,0,0,0,0,0,0,0],"id":36,"left_children":[1,3,5,7,9,11,13,15,17,-1,-1,19,21,23,25,-1,-1,-1,-1,-1,-1,-1,-1,-1,-1,-1,-1],"loss_changes":[1.239507E0,4.9358648E-1,3.275989E-1,2.4447024E-1,1.6970545E-1,1.1478692E-1,2.638837E-1,3.1771564E-1,2.3210907E-1,0E0,0E0,1.4701301E-1,6.389167E-2,1.8060394E-1,2.837891E-1,0E0,0E0,0E0,0E0,0E0,0E0,0E0,0E0,0E0,0E0,0E0,0E0],"parents":[2147483647,0,0,1,1,2,2,3,3,4,4,5,5,6,6,7,7,8,8,11,11,12,12,13,13,14,14],"right_children":[2,4,6,8,10,12,14,16,18,-1,-1,20,22,24,26,-1,-1,-1,-1,-1,-1,-1,-1,-1,-1,-1,-1],"split_conditions":[2.1666667E-1,8.227825E-4,4.081726E-4,7.5E-2,4.1007996E-4,1.3768673E-4,4.1103363E-4,-4.0960312E-4,-4.5118228E-1,1.1912038E-3,4.2034374E-3,-7.461722E-2,1.3780594E-4,3.9131588E-1,-5.300267E-1,3.5415664E-3,8.5367664E-4,1.0965627E-3,1.5793234E-4,-1.7841191E-4,-5.559346E-4,1.2023115E-3,-0E0,3.4803795E-4,1.687863E-3,9.125631E-4,-2.0768846E-4],"split_indices":[13,12,12,13,11,11,12,11,6,0,0,8,11,6,8,0,0,0,0,0,0,0,0,0,0,0,0],"split_type":[0,0,0,0,0,0,0,0,0,0,0,0,0,0,0,0,0,0,0,0,0,0,0,0,0,0,0],"sum_hessian":[1.048E3,2.35E2,8.13E2,2.26E2,9E0,4.72E2,3.41E2,5.9E1,1.67E2,5E0,4E0,4.29E2,4.3E1,8.2E1,2.59E2,4E0,5.5E1,3.2E1,1.35E2,1.79E2,2.5E2,4E0,3.9E1,7.1E1,1.1E1,2.4E1,2.35E2],"tree_param":{"num_deleted":"0","num_feature":"14","num_nodes":"27","size_leaf_vector":"1"}},{"base_weights":[5.3110335E-4,6.374598E-2,-1.778492E-2,5.3878326E-2,2.803671E-1,-4.606377E-2,-3.8017773E-3,1.0833756E-1,3.4048375E-2,1.1812772E-3,4.1698096E-3,2.8140053E-2,-5.8062397E-2,3.214552E-3,-7.68715E-2,3.513234E-3,8.452922E-4,1.0859292E-3,1.5636472E-4,5.931503E-4,-5.286354E-4,-6.39411E-4,2.4671401E-4,3.1055213E-6,2.4010814E-3,-1.1179451E-3,-3.0062732E-4],"categories":[],"categories_nodes":[],"categories_segments":[],"categories_sizes":[],"default_left":[0,0,0,0,0,0,0,0,0,0,0,0,0,0,0,0,0,0,0,0,0,0,0,0,0,0,0],"id":37,"left_children":[1,3,5,7,9,11,13,15,17,-1,-1,19,21,23,25,-1,-1,-1,-1,-1,-1,-1,-1,-1,-1,-1,-1],"loss_changes":[1.2161729E0,4.8601174E-1,3.2120395E-1,2.4003023E-1,1.6703337E-1,2.4143565E-1,2.8090763E-1,3.1304967E-1,2.2764088E-1,0E0,0E0,9.916097E-2,1.1480749E-1,3.408028E-1,7.368633E-2,0E0,0E0,0E0,0E0,0E0,0E0,0E0,0E0,0E0,0E0,0E0,0E0],"parents":[2147483647,0,0,1,1,2,2,3,3,4,4,5,5,6,6,7,7,8,8,11,11,12,12,13,13,14,14],"right_children":[2,4,6,8,10,12,14,16,18,-1,-1,20,22,24,26,-1,-1,-1,-1,-1,-1,-1,-1,-1,-1,-1,-1],"split_conditions":[2.1666667E-1,8.227825E-4,2.7275085E-4,7.5E-2,4.1007996E-4,-1.7080745E-1,5.561645E-1,-4.0960312E-4,-4.5118228E-1,1.1812772E-3,4.1698096E-3,-3.4834892E-1,9.2572784E-1,6.8867207E-4,1.3720989E-4,3.513234E-3,8.452922E-4,1.0859292E-3,1.5636472E-4,5.931503E-4,-5.286354E-4,-6.39411E-4,2.4671401E-4,3.1055213E-6,2.4010814E-3,-1.1179451E-3,-3.0062732E-4],"split_indices":[13,12,12,13,11,2,4,11,6,0,0,0,0,12,11,0,0,0,0,0,0,0,0,0,0,0,0],"split_type":[0,0,0,0,0,0,0,0,0,0,0,0,0,0,0,0,0,0,0,0,0,0,0,0,0,0,0],"sum_hessian":[1.048E3,2.35E2,8.13E2,2.26E2,9E0,2.68E2,5.45E2,5.9E1,1.67E2,5E0,4E0,3.7E1,2.31E2,4.98E2,4.7E1,4E0,5.5E1,3.2E1,1.35E2,2.7E1,1E1,2.16E2,1.5E1,4.93E2,5E0,2.6E1,2.1E1],"tree_param":{"num_deleted":"0","num_feature":"14","num_nodes":"27","size_leaf_vector":"1"}},{"base_weights":[5.3733744E-4,6.3157044E-2,-1.7606137E-2,1.7143977E-1,4.403302E-2,-3.4366228E-2,5.5959956E-3,3.6142352E-1,9.139063E-2,1.0243078E-1,2.8000917E-2,1.1515254E-3,-3.590829E-2,6.038599E-2,-8.185412E-3,1.8233893E-3,5.0204033E-3,3.3411654E-4,1.7981583E-3,2.2275175E-3,7.256971E-4,-3.465064E-4,3.884498E-4,-2.9805594E-4,-8.112122E-4,2.0745662E-3,3.4701117E-4,7.2929065E-4,-1.8874621E-4],"categories":[],"categories_nodes":[],"categories_segments":[],"categories_sizes":[],"default_left":[0,0,0,0,0,0,0,0,0,0,0,0,0,0,0,0,0,0,0,0,0,0,0,0,0,0,0,0,0],"id":38,"left_children":[1,3,5,7,9,11,13,15,17,19,21,-1,23,25,27,-1,-1,-1,-1,-1,-1,-1,-1,-1,-1,-1,-1,-1,-1],"loss_changes":[1.1933773E0,4.7900534E-1,3.1702003E-1,4.9472237E-1,1.8494782E-1,1.1240095E-1,2.5925475E-1,1.5343773E-1,1.2515663E-1,1.3537699E-1,1.1009152E-1,0E0,1.258797E-1,2.5102633E-1,2.3840758E-1,0E0,0E0,0E0,0E0,0E0,0E0,0E0,0E0,0E0,0E0,0E0,0E0,0E0,0E0],"parents":[2147483647,0,0,1,1,2,2,3,3,4,4,5,5,6,6,7,7,8,8,9,9,10,10,12,12,13,13,14,14],"right_children":[2,4,6,8,10,12,14,16,18,20,22,-1,24,26,28,-1,-1,-1,-1,-1,-1,-1,-1,-1,-1,-1,-1,-1,-1],"split_conditions":[2.1666667E-1,5E-2,4.081726E-4,-1.5881446E-1,-4.3064365E-1,-6.386853E-1,4.1091442E-4,-5.624792E-1,5.441904E-4,-7.325584E-1,-3.0850473E-1,1.1515254E-3,9.25E-1,3.2083333E-1,-4.7635305E-1,1.8233893E-3,5.0204033E-3,3.3411654E-4,1.7981583E-3,2.2275175E-3,7.256971E-4,-3.465064E-4,3.884498E-4,-2.9805594E-4,-8.112122E-4,2.0745662E-3,3.4701117E-4,7.2929065E-4,-1.8874621E-4],"split_indices":[13,13,12,6,6,2,12,8,12,0,4,0,13,13,8,0,0,0,0,0,0,0,0,0,0,0,0,0,0],"split_type":[0,0,0,0,0,0,0,0,0,0,0,0,0,0,0,0,0,0,0,0,0,0,0,0,0,0,0,0,0],"sum_hessian":[1.048E3,2.35E2,8.13E2,3.4E1,2.01E2,4.72E2,3.41E2,9E0,2.5E1,4.2E1,1.59E2,4E0,4.68E2,6.8E1,2.73E2,5E0,4E0,1.6E1,9E0,7E0,3.5E1,2.3E1,1.36E2,4.14E2,5.4E1,9E0,5.9E1,3.1E1,2.42E2],"tree_param":{"num_deleted":"0","num_feature":"14","num_nodes":"29","size_leaf_vector":"1"}},{"base_weights":[5.468104E-4,6.257832E-2,-1.7426142E-2,5.282641E-2,2.7668896E-1,-4.534398E-2,-3.6977949E-3,2.686056E-3,4.7706578E-2,1.1634972E-3,4.1175825E-3,2.7995337E-2,-5.725545E-2,3.2234418E-3,-7.5925305E-2,1.0630541E-3,2.6884655E-4,5.882339E-4,-5.2112003E-4,-6.311602E-4,2.481576E-4,3.4959962E-6,2.381115E-3,-1.1045451E-3,-2.9642854E-4],"categories":[],"categories_nodes":[],"categories_segments":[],"categories_sizes":[],"default_left":[0,0,0,0,0,0,0,0,0,0,0,0,0,0,0,0,0,0,0,0,0,0,0,0,0],"id":39,"left_children":[1,3,5,7,9,11,13,-1,15,-1,-1,17,19,21,23,-1,-1,-1,-1,-1,-1,-1,-1,-1,-1],"loss_changes":[1.171061E0,4.7485363E-1,3.1132025E-1,2.3480159E-1,1.6338009E-1,2.3601472E-1,2.7441907E-1,0E0,2.6790142E-1,0E0,0E0,9.697554E-2,1.130566E-1,3.3504775E-1,7.2033435E-2,0E0,0E0,0E0,0E0,0E0,0E0,0E0,0E0,0E0,0E0],"parents":[2147483647,0,0,1,1,2,2,3,3,4,4,5,5,6,6,8,8,11,11,12,12,13,13,14,14],"right_children":[2,4,6,8,10,12,14,-1,16,-1,-1,18,20,22,24,-1,-1,-1,-1,-1,-1,-1,-1,-1,-1],"split_conditions":[2.1666667E-1,8.227825E-4,2.0706654E-4,-8.147175E-1,4.1007996E-4,-1.7080745E-1,5.561645E-1,2.686056E-3,7.5E-2,1.1634972E-3,4.1175825E-3,-3.4834892E-1,9.2572784E-1,6.8867207E-4,1.3720989E-4,1.0630541E-3,2.6884655E-4,5.882339E-4,-5.2112003E-4,-6.311602E-4,2.481576E-4,3.4959962E-6,2.381115E-3,-1.1045451E-3,-2.9642854E-4],"split_indices":[13,12,12,8,11,2,4,0,13,0,0,0,0,12,11,0,0,0,0,0,0,0,0,0,0],"split_type":[0,0,0,0,0,0,0,0,0,0,0,0,0,0,0,0,0,0,0,0,0,0,0,0,0],"sum_hessian":[1.048E3,2.35E2,8.13E2,2.26E2,9E0,2.67E2,5.46E2,4E0,2.22E2,5E0,4E0,3.7E1,2.3E2,4.99E2,4.7E1,5.7E1,1.65E2,2.7E1,1E1,2.15E2,1.5E1,4.94E2,5E0,2.6E1,2.1E1],"tree_param":{"num_deleted":"0","num_feature":"14","num_nodes":"25","size_leaf_vector":"1"}},{"base_weights":[5.5122713E-4,6.199364E-2,-1.7250935E-2,5.2316725E-2,2.7446017E-1,-3.3739228E-2,5.574249E-3,2.6645674E-3,4.7235932E-2,1.1538015E-3,4.084641E-3,-1.396555E-2,-4.5805085E-2,1.0117285E-1,-2.2526842E-3,1.0526069E-3,2.661743E-4,2.4829325E-4,-3.2079557E-4,-2.9594067E-4,-6.757983E-4,4.6119394E-4,1.6072526E-3,-7.523031E-5,1.3149556E-3],"categories":[],"categories_nodes":[],"categories_segments":[],"categories_sizes":[],"default_left":[0,0,0,0,0,0,0,0,0,0,0,0,0,0,0,0,0,0,0,0,0,0,0,0,0],"id":40,"left_children":[1,3,5,7,9,11,13,-1,15,-1,-1,17,19,21,23,-1,-1,-1,-1,-1,-1,-1,-1,-1,-1],"loss_changes":[1.1489211E0,4.6759403E-1,3.0681723E-1,2.3125309E-1,1.6080648E-1,1.1161399E-1,2.571165E-1,0E0,2.62673E-1,0E0,0E0,1.2806329E-1,1.0045463E-1,7.5761735E-2,2.2320275E-1,0E0,0E0,0E0,0E0,0E0,0E0,0E0,0E0,0E0,0E0],"parents":[2147483647,0,0,1,1,2,2,3,3,4,4,5,5,6,6,8,8,11,11,12,12,13,13,14,14],"right_children":[2,4,6,8,10,12,14,-1,16,-1,-1,18,20,22,24,-1,-1,-1,-1,-1,-1,-1,-1,-1,-1],"split_conditions":[2.1666667E-1,8.227825E-4,4.081726E-4,-8.147175E-1,4.1007996E-4,-7.624001E-2,4.1019917E-4,2.6645674E-3,7.5E-2,1.1538015E-3,4.084641E-3,-1.7663258E-1,1.0683197E-1,4.0972233E-4,2.1027348E1,1.0526069E-3,2.661743E-4,2.4829325E-4,-3.2079557E-4,-2.9594067E-4,-6.757983E-4,4.6119394E-4,1.6072526E-3,-7.523031E-5,1.3149556E-3],"split_indices":[13,12,12,8,11,10,12,0,13,0,0,8,8,12,10,0,0,0,0,0,0,0,0,0,0],"split_type":[0,0,0,0,0,0,0,0,0,0,0,0,0,0,0,0,0,0,0,0,0,0,0,0,0],"sum_hessian":[1.048E3,2.35E2,8.13E2,2.26E2,9E0,4.72E2,3.41E2,4E0,2.22E2,5E0,4E0,1.8E2,2.92E2,2.5E1,3.16E2,5.7E1,1.65E2,5.7E1,1.23E2,1.69E2,1.23E2,1.4E1,1.1E1,3.05E2,1.1E1],"tree_param":{"num_deleted":"0","num_feature":"14","num_nodes":"25","size_leaf_vector":"1"}},{"base_weights":[5.570432E-4,6.1414476E-2,-1.7075526E-2,5.1811993E-2,2.722494E-1,-4.45368E-2,-3.5715108E-3,2.643251E-3,4.676994E-2,1.1441865E-3,4.0519643E-3,2.7970895E-2,-5.631496E-2,3.5126088E-3,-7.2733E-2,1.0422622E-3,2.6352867E-4,5.8508373E-4,-5.139459E-4,-6.211817E-4,2.492305E-4,6.4761603E-6,2.361899E-3,-1.0922387E-3,-3.0013538E-4],"categories":[],"categories_nodes":[],"categories_segments":[],"categories_sizes":[],"default_left":[0,0,0,0,0,0,0,0,0,0,0,0,0,0,0,0,0,0,0,0,0,0,0,0,0],"id":41,"left_children":[1,3,5,7,9,11,13,-1,15,-1,-1,17,19,21,23,-1,-1,-1,-1,-1,-1,-1,-1,-1,-1],"loss_changes":[1.1271454E0,4.6044487E-1,3.0122152E-1,2.2775751E-1,1.582731E-1,2.3073256E-1,2.689494E-1,0E0,2.5754645E-1,0E0,0E0,9.517577E-2,1.10823095E-1,3.2878822E-1,7.483184E-2,0E0,0E0,0E0,0E0,0E0,0E0,0E0,0E0,0E0,0E0],"parents":[2147483647,0,0,1,1,2,2,3,3,4,4,5,5,6,6,8,8,11,11,12,12,13,13,14,14],"right_children":[2,4,6,8,10,12,14,-1,16,-1,-1,18,20,22,24,-1,-1,-1,-1,-1,-1,-1,-1,-1,-1],"split_conditions":[2.1666667E-1,8.227825E-4,2.0706654E-4,-8.147175E-1,4.1007996E-4,-1.7080745E-1,5.514731E-1,2.643251E-3,7.5E-2,1.1441865E-3,4.0519643E-3,-3.4834892E-1,9.2572784E-1,6.8867207E-4,1.3720989E-4,1.0422622E-3,2.6352867E-4,5.8508373E-4,-5.139459E-4,-6.211817E-4,2.492305E-4,6.4761603E-6,2.361899E-3,-1.0922387E-3,-3.0013538E-4],"split_indices":[13,12,12,8,11,2,4,0,13,0,0,0,0,12,11,0,0,0,0,0,0,0,0,0,0],"split_type":[0,0,0,0,0,0,0,0,0,0,0,0,0,0,0,0,0,0,0,0,0,0,0,0,0],"sum_hessian":[1.048E3,2.35E2,8.13E2,2.26E2,9E0,2.67E2,5.46E2,4E0,2.22E2,5E0,4E0,3.7E1,2.3E2,4.96E2,5E1,5.7E1,1.65E2,2.7E1,1E1,2.15E2,1.5E1,4.91E2,5E0,2.6E1,2.4E1],"tree_param":{"num_deleted":"0","num_feature":"14","num_nodes":"25","size_leaf_vector":"1"}},{"base_weights":[5.612145E-4,6.0840767E-2,-1.6903816E-2,1.6624738E-1,4.2226546E-2,-3.3126354E-2,5.5528013E-3,3.542683E-1,8.71529E-2,9.971235E-2,2.645082E-2,-3.798296E-2,1.4861529E-2,5.3600114E-2,-9.768274E-3,1.7738184E-3,4.936784E-3,4.2071033E-4,2.0207923E-3,1.7232272E-3,5.4302404E-4,-3.5481958E-4,3.7180277E-4,-3.0850104E-4,-8.587332E-4,3.7501933E-4,-4.7804715E-4,3.3828913E-4,1.6692729E-3,-5.140337E-4,1.6090597E-4],"categories":[],"categories_nodes":[],"categories_segments":[],"categories_sizes":[],"default_left":[0,0,0,0,0,0,0,0,0,0,0,0,0,0,0,0,0,0,0,0,0,0,0,0,0,0,0,0,0,0,0],"id":42,"left_children":[1,3,5,7,9,11,13,15,17,19,21,23,25,27,29,-1,-1,-1,-1,-1,-1,-1,-1,-1,-1,-1,-1,-1,-1,-1,-1],"loss_changes":[1.1058384E0,4.5394188E-1,2.9700255E-1,4.8521E-1,1.7929071E-1,1.1103219E-1,2.5272056E-1,1.523174E-1,1.2376526E-1,1.3015717E-1,1.07657045E-1,1.4306939E-1,6.411647E-2,1.783164E-1,2.8110582E-1,0E0,0E0,0E0,0E0,0E0,0E0,0E0,0E0,0E0,0E0,0E0,0E0,0E0,0E0,0E0,0E0],"parents":[2147483647,0,0,1,1,2,2,3,3,4,4,5,5,6,6,7,7,8,8,9,9,10,10,11,11,12,12,13,13,14,14],"right_children":[2,4,6,8,10,12,14,16,18,20,22,24,26,28,30,-1,-1,-1,-1,-1,-1,-1,-1,-1,-1,-1,-1,-1,-1,-1,-1],"split_conditions":[2.1666667E-1,5E-2,4.081726E-4,-1.5881446E-1,-4.3064365E-1,1.3768673E-4,4.1103363E-4,-5.624792E-1,4.5833334E-2,-3.1040952E-1,-3.0850473E-1,4.9568316E-1,9.142068E-1,3.9131588E-1,4.118681E-4,1.7738184E-3,4.936784E-3,4.2071033E-4,2.0207923E-3,1.7232272E-3,5.4302404E-4,-3.5481958E-4,3.7180277E-4,-3.0850104E-4,-8.587332E-4,3.7501933E-4,-4.7804715E-4,3.3828913E-4,1.6692729E-3,-5.140337E-4,1.6090597E-4],"split_indices":[13,13,12,6,6,11,12,8,13,0,4,4,10,6,12,0,0,0,0,0,0,0,0,0,0,0,0,0,0,0,0],"split_type":[0,0,0,0,0,0,0,0,0,0,0,0,0,0,0,0,0,0,0,0,0,0,0,0,0,0,0,0,0,0,0],"sum_hessian":[1.048E3,2.35E2,8.13E2,3.4E1,2.01E2,4.72E2,3.41E2,9E0,2.5E1,4.2E1,1.59E2,4.29E2,4.3E1,8.2E1,2.59E2,5E0,4E0,1.9E1,6E0,1.5E1,2.7E1,2.3E1,1.36E2,3.75E2,5.4E1,3.2E1,1.1E1,7.1E1,1.1E1,9.9E1,1.6E2],"tree_param":{"num_deleted":"0","num_feature":"14","num_nodes":"31","size_leaf_vector":"1"}},{"base_weights":[5.6734896E-4,6.0282923E-2,-1.673418E-2,5.078773E-2,2.6879558E-1,-4.3664586E-2,-3.4173036E-3,2.6147345E-3,4.5791242E-2,1.1287233E-3,4.0014433E-3,2.8103149E-2,-5.527454E-2,3.3822479E-3,-7.4241444E-2,1.0230562E-3,2.570916E-4,5.8394123E-4,-5.06469E-4,-6.09865E-4,2.502361E-4,5.530689E-6,2.340876E-3,-1.0791223E-3,-2.908906E-4],"categories":[],"categories_nodes":[],"categories_segments":[],"categories_sizes":[],"default_left":[0,0,0,0,0,0,0,0,0,0,0,0,0,0,0,0,0,0,0,0,0,0,0,0,0],"id":43,"left_children":[1,3,5,7,9,11,13,-1,15,-1,-1,17,19,21,23,-1,-1,-1,-1,-1,-1,-1,-1,-1,-1],"loss_changes":[1.0852402E0,4.504016E-1,2.913038E-1,2.2391438E-1,1.5450788E-1,2.2596127E-1,2.6389822E-1,0E0,2.4917829E-1,0E0,0E0,9.368076E-2,1.08294845E-1,3.2322475E-1,6.846607E-2,0E0,0E0,0E0,0E0,0E0,0E0,0E0,0E0,0E0,0E0],"parents":[2147483647,0,0,1,1,2,2,3,3,4,4,5,5,6,6,8,8,11,11,12,12,13,13,14,14],"right_children":[2,4,6,8,10,12,14,-1,16,-1,-1,18,20,22,24,-1,-1,-1,-1,-1,-1,-1,-1,-1,-1],"split_conditions":[2.1666667E-1,8.227825E-4,2.7275085E-4,-8.147175E-1,4.1007996E-4,-1.7080745E-1,5.561645E-1,2.6147345E-3,7.5E-2,1.1287233E-3,4.0014433E-3,-3.4834892E-1,9.2572784E-1,6.8867207E-4,1.3720989E-4,1.0230562E-3,2.570916E-4,5.8394123E-4,-5.06469E-4,-6.09865E-4,2.502361E-4,5.530689E-6,2.340876E-3,-1.0791223E-3,-2.908906E-4],"split_indices":[13,12,12,8,11,2,4,0,13,0,0,0,0,12,11,0,0,0,0,0,0,0,0,0,0],"split_type":[0,0,0,0,0,0,0,0,0,0,0,0,0,0,0,0,0,0,0,0,0,0,0,0,0],"sum_hessian":[1.048E3,2.35E2,8.13E2,2.26E2,9E0,2.68E2,5.45E2,4E0,2.22E2,5E0,4E0,3.7E1,2.31E2,4.98E2,4.7E1,5.7E1,1.65E2,2.7E1,1E1,2.16E2,1.5E1,4.93E2,5E0,2.6E1,2.1E1],"tree_param":{"num_deleted":"0","num_feature":"14","num_nodes":"25","size_leaf_vector":"1"}},{"base_weights":[5.7131576E-4,5.9720024E-2,-1.6565867E-2,5.0297882E-2,2.6663062E-1,-3.2524694E-2,5.5250432E-3,2.5938167E-3,4.533951E-2,1.1193171E-3,3.969432E-3,-1.305026E-2,-4.440984E-2,9.975413E-2,-2.189409E-3,1.0130021E-3,2.5453605E-4,2.5298577E-4,-3.096302E-4,-5.805443E-4,-1.9331391E-4,4.5184544E-4,1.5881993E-3,-7.406557E-5,1.3019698E-3],"categories":[],"categories_nodes":[],"categories_segments":[],"categories_sizes":[],"default_left":[0,0,0,0,0,0,0,0,0,0,0,0,0,0,0,0,0,0,0,0,0,0,0,0,0],"id":44,"left_children":[1,3,5,7,9,11,13,-1,15,-1,-1,17,19,21,23,-1,-1,-1,-1,-1,-1,-1,-1,-1,-1],"loss_changes":[1.0647315E0,4.4351143E-1,2.8742135E-1,2.2052687E-1,1.5207279E-1,1.08324766E-1,2.4980265E-1,0E0,2.4431491E-1,0E0,0E0,1.2517494E-1,9.8364115E-2,7.458687E-2,2.1868174E-1,0E0,0E0,0E0,0E0,0E0,0E0,0E0,0E0,0E0,0E0],"parents":[2147483647,0,0,1,1,2,2,3,3,4,4,5,5,6,6,8,8,11,11,12,12,13,13,14,14],"right_children":[2,4,6,8,10,12,14,-1,16,-1,-1,18,20,22,24,-1,-1,-1,-1,-1,-1,-1,-1,-1,-1],"split_conditions":[2.1666667E-1,8.227825E-4,4.081726E-4,-8.147175E-1,4.1007996E-4,-7.624001E-2,4.1019917E-4,2.5938167E-3,7.5E-2,1.1193171E-3,3.969432E-3,-1.7663258E-1,7.031003E-1,4.0972233E-4,2.1027348E1,1.0130021E-3,2.5453605E-4,2.5298577E-4,-3.096302E-4,-5.805443E-4,-1.9331391E-4,4.5184544E-4,1.5881993E-3,-7.406557E-5,1.3019698E-3],"split_indices":[13,12,12,8,11,10,12,0,13,0,0,8,0,12,10,0,0,0,0,0,0,0,0,0,0],"split_type":[0,0,0,0,0,0,0,0,0,0,0,0,0,0,0,0,0,0,0,0,0,0,0,0,0],"sum_hessian":[1.048E3,2.35E2,8.13E2,2.26E2,9E0,4.72E2,3.41E2,4E0,2.22E2,5E0,4E0,1.8E2,2.92E2,2.5E1,3.16E2,5.7E1,1.65E2,5.7E1,1.23E2,1.88E2,1.04E2,1.4E1,1.1E1,3.05E2,1.1E1],"tree_param":{"num_deleted":"0","num_feature":"14","num_nodes":"25","size_leaf_vector":"1"}},{"base_weights":[5.7683664E-4,5.9162434E-2,-1.6397092E-2,4.981279E-2,2.6448318E-1,-3.2201413E-2,5.4796347E-3,2.573066E-3,4.489224E-2,1.1099896E-3,3.937676E-3,-3.7006833E-2,1.5265202E-2,5.286144E-2,-9.62871E-3,1.0030466E-3,2.5200596E-4,-2.9969736E-4,-8.426029E-4,3.770413E-4,-4.6880616E-4,3.327869E-4,1.651195E-3,-5.0848094E-4,1.5971085E-4],"categories":[],"categories_nodes":[],"categories_segments":[],"categories_sizes":[],"default_left":[0,0,0,0,0,0,0,0,0,0,0,0,0,0,0,0,0,0,0,0,0,0,0,0,0],"id":45,"left_children":[1,3,5,7,9,11,13,-1,15,-1,-1,17,19,21,23,-1,-1,-1,-1,-1,-1,-1,-1,-1,-1],"loss_changes":[1.0445526E0,4.367261E-1,2.8188157E-1,2.1719003E-1,1.4967579E-1,1.0867217E-1,2.4576567E-1,0E0,2.3954627E-1,0E0,0E0,1.39319E-1,6.303319E-2,1.7498174E-1,2.7551487E-1,0E0,0E0,0E0,0E0,0E0,0E0,0E0,0E0,0E0,0E0],"parents":[2147483647,0,0,1,1,2,2,3,3,4,4,5,5,6,6,8,8,11,11,12,12,13,13,14,14],"right_children":[2,4,6,8,10,12,14,-1,16,-1,-1,18,20,22,24,-1,-1,-1,-1,-1,-1,-1,-1,-1,-1],"split_conditions":[2.1666667E-1,8.227825E-4,4.081726E-4,-8.147175E-1,4.1007996E-4,1.3768673E-4,4.1103363E-4,2.573066E-3,7.5E-2,1.1099896E-3,3.937676E-3,4.9568316E-1,9.142068E-1,3.9131588E-1,4.118681E-4,1.0030466E-3,2.5200596E-4,-2.9969736E-4,-8.426029E-4,3.770413E-4,-4.6880616E-4,3.327869E-4,1.651195E-3,-5.0848094E-4,1.5971085E-4],"split_indices":[13,12,12,8,11,11,12,0,13,0,0,4,10,6,12,0,0,0,0,0,0,0,0,0,0],"split_type":[0,0,0,0,0,0,0,0,0,0,0,0,0,0,0,0,0,0,0,0,0,0,0,0,0],"sum_hessian":[1.048E3,2.35E2,8.13E2,2.26E2,9E0,4.72E2,3.41E2,4E0,2.22E2,5E0,4E0,4.29E2,4.3E1,8.2E1,2.59E2,5.7E1,1.65E2,3.75E2,5.4E1,3.2E1,1.1E1,7.1E1,1.1E1,9.9E1,1.6E2],"tree_param":{"num_deleted":"0","num_feature":"14","num_nodes":"25","size_leaf_vector":"1"}},{"base_weights":[5.8029254E-4,5.861011E-2,-1.6232505E-2,1.6124213E-1,4.0487684E-2,-4.260438E-2,-3.263777E-3,3.473103E-1,8.3091214E-2,9.7068325E-2,2.4966085E-2,2.8522756E-2,-5.4163802E-2,3.4454705E-3,-7.329211E-2,1.7258064E-3,4.8552384E-3,2.6320614E-4,1.702921E-3,1.6842943E-3,5.246668E-4,1.7080437E-4,1.1205146E-3,5.8574893E-4,-4.965748E-4,-5.98437E-4,2.5275082E-4,6.471563E-6,2.3206547E-3,-1.0643293E-3,-2.8833273E-4],"categories":[],"categories_nodes":[],"categories_segments":[],"categories_sizes":[],"default_left":[0,0,0,0,0,0,0,0,0,0,0,0,0,0,0,0,0,0,0,0,0,0,0,0,0,0,0,0,0,0,0],"id":46,"left_children":[1,3,5,7,9,11,13,15,17,19,21,23,25,27,29,-1,-1,-1,-1,-1,-1,-1,-1,-1,-1,-1,-1,-1,-1,-1,-1],"loss_changes":[1.0248253E0,4.3040055E-1,2.7779812E-1,4.7578657E-1,1.7375705E-1,2.2214785E-1,2.5795206E-1,1.5112698E-1,1.2226328E-1,1.2581554E-1,1.0667075E-1,9.227823E-2,1.0608667E-1,3.1739798E-1,6.630185E-2,0E0,0E0,0E0,0E0,0E0,0E0,0E0,0E0,0E0,0E0,0E0,0E0,0E0,0E0,0E0,0E0],"parents":[2147483647,0,0,1,1,2,2,3,3,4,4,5,5,6,6,7,7,8,8,9,9,10,10,11,11,12,12,13,13,14,14],"right_children":[2,4,6,8,10,12,14,16,18,20,22,24,26,28,30,-1,-1,-1,-1,-1,-1,-1,-1,-1,-1,-1,-1,-1,-1,-1,-1],"split_conditions":[2.1666667E-1,5E-2,2.0706654E-4,-1.5881446E-1,-4.3064365E-1,-1.7080745E-1,5.561645E-1,-5.624792E-1,1.3792515E-4,-3.1040952E-1,5.084554E-1,-3.4834892E-1,9.2572784E-1,6.8867207E-4,1.3720989E-4,1.7258064E-3,4.8552384E-3,2.6320614E-4,1.702921E-3,1.6842943E-3,5.246668E-4,1.7080437E-4,1.1205146E-3,5.8574893E-4,-4.965748E-4,-5.98437E-4,2.5275082E-4,6.471563E-6,2.3206547E-3,-1.0643293E-3,-2.8833273E-4],"split_indices":[13,13,12,6,6,2,4,8,11,0,4,0,0,12,11,0,0,0,0,0,0,0,0,0,0,0,0,0,0,0,0],"split_type":[0,0,0,0,0,0,0,0,0,0,0,0,0,0,0,0,0,0,0,0,0,0,0,0,0,0,0,0,0,0,0],"sum_hessian":[1.048E3,2.35E2,8.13E2,3.4E1,2.01E2,2.67E2,5.46E2,9E0,2.5E1,4.2E1,1.59E2,3.7E1,2.3E2,4.99E2,4.7E1,5E0,4E0,1.6E1,9E0,1.5E1,2.7E1,1.47E2,1.2E1,2.7E1,1E1,2.15E2,1.5E1,4.94E2,5E0,2.6E1,2.1E1],"tree_param":{"num_deleted":"0","num_feature":"14","num_nodes":"31","size_leaf_vector":"1"}},{"base_weights":[5.87328E-4,5.807803E-2,-1.6069174E-2,4.8825044E-2,2.6131296E-1,-3.161657E-2,5.4512545E-3,2.5442704E-3,4.3951347E-2,1.0974255E-3,3.8893484E-3,1.1360794E-3,-3.3118714E-2,9.836059E-2,-2.15472E-3,9.841607E-4,2.4596494E-4,-2.7145047E-4,-7.7408744E-4,4.427042E-4,1.5694324E-3,-7.319412E-5,1.2889113E-3],"categories":[],"categories_nodes":[],"categories_segments":[],"categories_sizes":[],"default_left":[0,0,0,0,0,0,0,0,0,0,0,0,0,0,0,0,0,0,0,0,0,0,0],"id":47,"left_children":[1,3,5,7,9,11,13,-1,15,-1,-1,-1,17,19,21,-1,-1,-1,-1,-1,-1,-1,-1],"loss_changes":[1.0058695E0,4.2794478E-1,2.7278745E-1,2.1329749E-1,1.4576757E-1,1.06141776E-1,2.4285378E-1,0E0,2.3142606E-1,0E0,0E0,0E0,1.2093836E-1,7.342735E-2,2.1427692E-1,0E0,0E0,0E0,0E0,0E0,0E0,0E0,0E0],"parents":[2147483647,0,0,1,1,2,2,3,3,4,4,5,5,6,6,8,8,12,12,13,13,14,14],"right_children":[2,4,6,8,10,12,14,-1,16,-1,-1,-1,18,20,22,-1,-1,-1,-1,-1,-1,-1,-1],"split_conditions":[2.1666667E-1,8.227825E-4,4.081726E-4,-8.147175E-1,4.1007996E-4,-6.386853E-1,4.1019917E-4,2.5442704E-3,7.5E-2,1.0974255E-3,3.8893484E-3,1.1360794E-3,9.25E-1,4.0972233E-4,2.1027348E1,9.841607E-4,2.4596494E-4,-2.7145047E-4,-7.7408744E-4,4.427042E-4,1.5694324E-3,-7.319412E-5,1.2889113E-3],"split_indices":[13,12,12,8,11,2,12,0,13,0,0,0,13,12,10,0,0,0,0,0,0,0,0],"split_type":[0,0,0,0,0,0,0,0,0,0,0,0,0,0,0,0,0,0,0,0,0,0,0],"sum_hessian":[1.048E3,2.35E2,8.13E2,2.26E2,9E0,4.72E2,3.41E2,4E0,2.22E2,5E0,4E0,4E0,4.68E2,2.5E1,3.16E2,5.7E1,1.65E2,4.14E2,5.4E1,1.4E1,1.1E1,3.05E2,1.1E1],"tree_param":{"num_deleted":"0","num_feature":"14","num_nodes":"23","size_leaf_vector":"1"}},{"base_weights":[5.934433E-4,5.7536073E-2,-1.5904166E-2,4.835431E-2,2.592085E-1,-4.186761E-2,-3.1361445E-3,1.12869754E-1,3.347257E-2,1.0882803E-3,3.8582336E-3,2.835339E-2,-5.3281162E-2,3.7289602E-3,-7.017185E-2,1.9666692E-3,6.817905E-4,8.747474E-4,1.2902106E-4,9.2681695E-4,-8.404599E-5,-5.8908045E-4,2.5386846E-4,9.39304E-6,2.301926E-3,-1.144902E-3,-3.4999332E-4],"categories":[],"categories_nodes":[],"categories_segments":[],"categories_sizes":[],"default_left":[0,0,0,0,0,0,0,0,0,0,0,0,0,0,0,0,0,0,0,0,0,0,0,0,0,0,0],"id":48,"left_children":[1,3,5,7,9,11,13,15,17,-1,-1,19,21,23,25,-1,-1,-1,-1,-1,-1,-1,-1,-1,-1,-1,-1],"loss_changes":[9.8678005E-1,4.2139387E-1,2.6926115E-1,2.1270162E-1,1.434691E-1,2.165542E-1,2.5265938E-1,1.41231E-1,2.044857E-1,0E0,0E0,9.1475725E-2,1.04084134E-1,3.1145504E-1,7.3996186E-2,0E0,0E0,0E0,0E0,0E0,0E0,0E0,0E0,0E0,0E0,0E0,0E0],"parents":[2147483647,0,0,1,1,2,2,3,3,4,4,5,5,6,6,7,7,8,8,11,11,12,12,13,13,14,14],"right_children":[2,4,6,8,10,12,14,16,18,-1,-1,20,22,24,26,-1,-1,-1,-1,-1,-1,-1,-1,-1,-1,-1,-1],"split_conditions":[2.1666667E-1,8.227825E-4,2.0706654E-4,-4.5118228E-1,4.1007996E-4,-1.7080745E-1,5.514731E-1,-3.1040952E-1,7.5E-2,1.0882803E-3,3.8582336E-3,1.3709068E-4,9.2572784E-1,6.8867207E-4,1.2856479E-1,1.9666692E-3,6.817905E-4,8.747474E-4,1.2902106E-4,9.2681695E-4,-8.404599E-5,-5.8908045E-4,2.5386846E-4,9.39304E-6,2.301926E-3,-1.144902E-3,-3.4999332E-4],"split_indices":[13,12,12,6,11,2,4,0,13,0,0,12,0,12,8,0,0,0,0,0,0,0,0,0,0,0,0],"split_type":[0,0,0,0,0,0,0,0,0,0,0,0,0,0,0,0,0,0,0,0,0,0,0,0,0,0,0],"sum_hessian":[1.048E3,2.35E2,8.13E2,2.26E2,9E0,2.67E2,5.46E2,4.1E1,1.85E2,5E0,4E0,3.7E1,2.3E2,4.96E2,5E1,1.3E1,2.8E1,5E1,1.35E2,1.3E1,2.4E1,2.15E2,1.5E1,4.91E2,5E0,2.1E1,2.9E1],"tree_param":{"num_deleted":"0","num_feature":"14","num_nodes":"27","size_leaf_vector":"1"}},{"base_weights":[5.974467E-4,5.6999266E-2,-1.5743373E-2,4.788818E-2,2.571211E-1,-3.1040188E-2,5.4295403E-3,2.5151202E-3,4.3063033E-2,1.0792112E-3,3.8273681E-3,-3.577613E-2,1.5721085E-2,5.2201103E-2,-9.483803E-3,9.6552685E-4,2.4054221E-4,-1.4170025E-4,-5.079633E-4,1.2105961E-3,1.9107421E-5,3.2795966E-4,1.6344851E-3,-5.025297E-4,1.5835457E-4],"categories":[],"categories_nodes":[],"categories_segments":[],"categories_sizes":[],"default_left":[0,0,0,0,0,0,0,0,0,0,0,0,0,0,0,0,0,0,0,0,0,0,0,0,0],"id":49,"left_children":[1,3,5,7,9,11,13,-1,15,-1,-1,17,19,21,23,-1,-1,-1,-1,-1,-1,-1,-1,-1,-1],"loss_changes":[9.6812284E-1,4.1494232E-1,2.6406142E-1,2.092542E-1,1.4120662E-1,1.0551292E-1,2.3947422E-1,0E0,2.2321218E-1,0E0,0E0,1.3817763E-1,6.254846E-2,1.7185512E-1,2.6952374E-1,0E0,0E0,0E0,0E0,0E0,0E0,0E0,0E0,0E0,0E0],"parents":[2147483647,0,0,1,1,2,2,3,3,4,4,5,5,6,6,8,8,11,11,12,12,13,13,14,14],"right_children":[2,4,6,8,10,12,14,-1,16,-1,-1,18,20,22,24,-1,-1,-1,-1,-1,-1,-1,-1,-1,-1],"split_conditions":[2.1666667E-1,8.227825E-4,4.081726E-4,-8.147175E-1,4.1007996E-4,1.3768673E-4,4.1103363E-4,2.5151202E-3,7.5E-2,1.0792112E-3,3.8273681E-3,-7.782442E-2,1.3780594E-4,3.9131588E-1,4.118681E-4,9.6552685E-4,2.4054221E-4,-1.4170025E-4,-5.079633E-4,1.2105961E-3,1.9107421E-5,3.2795966E-4,1.6344851E-3,-5.025297E-4,1.5835457E-4],"split_indices":[13,12,12,8,11,11,12,0,13,0,0,8,11,6,12,0,0,0,0,0,0,0,0,0,0],"split_type":[0,0,0,0,0,0,0,0,0,0,0,0,0,0,0,0,0,0,0,0,0,0,0,0,0],"sum_hessian":[1.048E3,2.35E2,8.13E2,2.26E2,9E0,4.72E2,3.41E2,4E0,2.22E2,5E0,4E0,4.29E2,4.3E1,8.2E1,2.59E2,5.7E1,1.65E2,1.77E2,2.52E2,4E0,3.9E1,7.1E1,1.1E1,9.9E1,1.6E2],"tree_param":{"num_deleted":"0","num_feature":"14","num_nodes":"25","size_leaf_vector":"1"}},{"base_weights":[6.023661E-4,5.6467533E-2,-1.5582869E-2,1.5650451E-1,3.8805343E-2,-4.1122414E-2,-3.0231243E-3,3.407067E-1,7.9253495E-2,9.7592324E-2,2.452792E-2,2.8365273E-2,-5.241856E-2,3.5616613E-3,-7.175999E-2,1.6812066E-3,4.7766864E-3,2.3247402E-4,1.655385E-3,4.0587081E-4,1.6838809E-3,-3.893992E-4,3.5757694E-4,5.803922E-4,-4.8837974E-4,-5.799057E-4,2.5454778E-4,8.120736E-6,2.2814237E-3,-1.0435996E-3,-2.803459E-4],"categories":[],"categories_nodes":[],"categories_segments":[],"categories_sizes":[],"default_left":[0,0,0,0,0,0,0,0,0,0,0,0,0,0,0,0,0,0,0,0,0,0,0,0,0,0,0,0,0,0,0],"id":50,"left_children":[1,3,5,7,9,11,13,15,17,19,21,23,25,27,29,-1,-1,-1,-1,-1,-1,-1,-1,-1,-1,-1,-1,-1,-1,-1,-1],"loss_changes":[9.49785E-1,4.0895545E-1,2.6054114E-1,4.6684146E-1,1.6592902E-1,2.1209213E-1,2.4851936E-1,1.4961326E-1,1.1990847E-1,1.4846933E-1,1.1824821E-1,8.9981675E-2,1.02035046E-1,3.0627736E-1,6.4171806E-2,0E0,0E0,0E0,0E0,0E0,0E0,0E0,0E0,0E0,0E0,0E0,0E0,0E0,0E0,0E0,0E0],"parents":[2147483647,0,0,1,1,2,2,3,3,4,4,5,5,6,6,7,7,8,8,9,9,10,10,11,11,12,12,13,13,14,14],"right_children":[2,4,6,8,10,12,14,16,18,20,22,24,26,28,30,-1,-1,-1,-1,-1,-1,-1,-1,-1,-1,-1,-1,-1,-1,-1,-1],"split_conditions":[2.1666667E-1,5E-2,2.0706654E-4,-1.5881446E-1,-4.5118228E-1,-1.7080745E-1,5.561645E-1,-5.624792E-1,5.441904E-4,-5.5017895E-1,-3.0850473E-1,-3.4834892E-1,9.2572784E-1,6.8867207E-4,1.3720989E-4,1.6812066E-3,4.7766864E-3,2.3247402E-4,1.655385E-3,4.0587081E-4,1.6838809E-3,-3.893992E-4,3.5757694E-4,5.803922E-4,-4.8837974E-4,-5.799057E-4,2.5454778E-4,8.120736E-6,2.2814237E-3,-1.0435996E-3,-2.803459E-4],"split_indices":[13,13,12,6,6,2,4,8,12,6,4,0,0,12,11,0,0,0,0,0,0,0,0,0,0,0,0,0,0,0,0],"split_type":[0,0,0,0,0,0,0,0,0,0,0,0,0,0,0,0,0,0,0,0,0,0,0,0,0,0,0,0,0,0,0],"sum_hessian":[1.048E3,2.35E2,8.13E2,3.4E1,2.01E2,2.67E2,5.46E2,9E0,2.5E1,3.8E1,1.63E2,3.7E1,2.3E2,4.99E2,4.7E1,5E0,4E0,1.6E1,9E0,2.2E1,1.6E1,2.4E1,1.39E2,2.7E1,1E1,2.15E2,1.5E1,4.94E2,5E0,2.6E1,2.1E1],"tree_param":{"num_deleted":"0","num_feature":"14","num_nodes":"31","size_leaf_vector":"1"}},{"base_weights":[6.0743926E-4,5.5949062E-2,-1.5426013E-2,4.693834E-2,2.5389746E-1,-3.0472256E-2,5.3994223E-3,2.4882362E-3,4.215644E-2,1.062912E-3,3.7824546E-3,-1.13418335E-2,-4.2151894E-2,9.697531E-2,-2.0970213E-3,9.477455E-4,2.3457599E-4,2.6367226E-4,-2.896912E-4,-6.877329E-4,-2.9379077E-4,4.3360604E-4,1.5507907E-3,-7.212295E-5,1.276839E-3],"categories":[],"categories_nodes":[],"categories_segments":[],"categories_sizes":[],"default_left":[0,0,0,0,0,0,0,0,0,0,0,0,0,0,0,0,0,0,0,0,0,0,0,0,0],"id":51,"left_children":[1,3,5,7,9,11,13,-1,15,-1,-1,17,19,21,23,-1,-1,-1,-1,-1,-1,-1,-1,-1,-1],"loss_changes":[9.320641E-1,4.0601707E-1,2.5547773E-1,2.0574564E-1,1.3849592E-1,1.0467234E-1,2.359329E-1,0E0,2.1600366E-1,0E0,0E0,1.21102095E-1,9.662688E-2,7.228693E-2,2.1016137E-1,0E0,0E0,0E0,0E0,0E0,0E0,0E0,0E0,0E0,0E0],"parents":[2147483647,0,0,1,1,2,2,3,3,4,4,5,5,6,6,8,8,11,11,12,12,13,13,14,14],"right_children":[2,4,6,8,10,12,14,-1,16,-1,-1,18,20,22,24,-1,-1,-1,-1,-1,-1,-1,-1,-1,-1],"split_conditions":[2.1666667E-1,8.227825E-4,4.081726E-4,-8.147175E-1,4.1007996E-4,-7.624001E-2,4.1019917E-4,2.4882362E-3,7.5E-2,1.062912E-3,3.7824546E-3,-1.7663258E-1,-1.2024059E-1,4.0972233E-4,2.1027348E1,9.477455E-4,2.3457599E-4,2.6367226E-4,-2.896912E-4,-6.877329E-4,-2.9379077E-4,4.3360604E-4,1.5507907E-3,-7.212295E-5,1.276839E-3],"split_indices":[13,12,12,8,11,10,12,0,13,0,0,8,4,12,10,0,0,0,0,0,0,0,0,0,0],"split_type":[0,0,0,0,0,0,0,0,